{
    "in_shape": [
        null,
        null,
        1
    ],
    "layers": [
        {
            "type": "gru",
            "activation": "tanh",
            "shape": [
                null,
                null,
                64
            ],
            "weights": [
                [
                    [
                        -0.40836861729621887,
                        -0.4022067189216614,
                        -0.24353180825710297,
                        -0.15340375900268555,
                        0.2628278434276581,
                        -0.0788867175579071,
                        -0.04503834992647171,
                        0.125344380736351,
                        -0.14981378614902496,
                        -0.08942656964063644,
                        0.613593339920044,
                        -0.2469717413187027,
                        0.26106342673301697,
                        -1.4337342977523804,
                        0.28423717617988586,
                        -0.36095136404037476,
                        0.9988943934440613,
                        0.07273218780755997,
                        0.25988486409187317,
                        0.2514673173427582,
                        -0.39371728897094727,
                        0.13080182671546936,
                        0.25622737407684326,
                        0.3727593719959259,
                        -0.4335968792438507,
                        -0.41251471638679504,
                        -0.1423456370830536,
                        -0.6613153219223022,
                        0.151678204536438,
                        0.40135863423347473,
                        0.2049022912979126,
                        0.6007516384124756,
                        0.2610799968242645,
                        -0.4254579544067383,
                        -0.06033745035529137,
                        0.19343116879463196,
                        0.3317447006702423,
                        -0.9482305645942688,
                        0.07869890332221985,
                        0.14183780550956726,
                        0.10372573882341385,
                        -0.40570351481437683,
                        0.13746552169322968,
                        -2.537065029144287,
                        0.293163537979126,
                        0.24689500033855438,
                        -0.6797852516174316,
                        -0.12101743370294571,
                        0.2067563682794571,
                        -0.3633137345314026,
                        0.39500153064727783,
                        -0.8961126208305359,
                        0.34450215101242065,
                        1.1603840589523315,
                        -0.533063530921936,
                        -0.8886287212371826,
                        -0.12834221124649048,
                        1.1354777812957764,
                        0.30950769782066345,
                        -0.1911662369966507,
                        0.39405426383018494,
                        -0.5260756015777588,
                        -0.7088940739631653,
                        0.12051092088222504,
                        -0.1065143346786499,
                        -0.2437063306570053,
                        -0.08688163757324219,
                        -0.2841198444366455,
                        -0.056247007101774216,
                        -0.8133347630500793,
                        0.6322488188743591,
                        -0.037027228623628616,
                        -0.11322351545095444,
                        0.4198741018772125,
                        0.6215066909790039,
                        -0.6432918906211853,
                        0.27320921421051025,
                        2.1678168773651123,
                        -0.1853393167257309,
                        0.4447426199913025,
                        0.23143434524536133,
                        0.22930213809013367,
                        -0.07858750969171524,
                        -0.08449337631464005,
                        -0.35962387919425964,
                        0.07841776311397552,
                        -0.12361802160739899,
                        0.599443256855011,
                        0.3049773573875427,
                        0.1990702599287033,
                        -0.19320818781852722,
                        -0.21375328302383423,
                        0.32112276554107666,
                        -0.03571265935897827,
                        0.16850662231445312,
                        0.10669194906949997,
                        0.2853275537490845,
                        0.5310150384902954,
                        0.4107644557952881,
                        0.027004467323422432,
                        -0.05441967397928238,
                        -0.8421770334243774,
                        0.12662295997142792,
                        0.4207741916179657,
                        0.6425267457962036,
                        -1.0373955965042114,
                        0.15834181010723114,
                        1.3257445096969604,
                        0.39317429065704346,
                        0.2860795557498932,
                        1.2316508293151855,
                        0.5768729448318481,
                        0.30238083004951477,
                        -0.1643454134464264,
                        -0.03903098404407501,
                        -0.08477767556905746,
                        0.6279805898666382,
                        0.529179573059082,
                        -0.01641686074435711,
                        1.2384947538375854,
                        -0.22577013075351715,
                        0.4458545446395874,
                        0.07234831154346466,
                        0.5186419486999512,
                        -0.14700178802013397,
                        -0.3894515931606293,
                        -0.022974541410803795,
                        0.0030652096029371023,
                        -0.3737846612930298,
                        -0.4941328763961792,
                        -0.150050088763237,
                        0.17029689252376556,
                        -0.12309608608484268,
                        -0.5159117579460144,
                        0.5402182936668396,
                        0.08049453049898148,
                        0.1770107001066208,
                        -0.18845580518245697,
                        -1.0199748277664185,
                        0.5932032465934753,
                        0.6713650822639465,
                        1.7951135635375977,
                        1.8836246728897095,
                        0.045294057577848434,
                        1.6401311159133911,
                        -0.3905588388442993,
                        -0.25317469239234924,
                        -0.19249732792377472,
                        0.6248132586479187,
                        0.171073317527771,
                        0.23212449252605438,
                        -1.455889344215393,
                        2.280272960662842,
                        -0.7993558049201965,
                        0.027191268280148506,
                        0.24413947761058807,
                        -0.4628538489341736,
                        -0.1614799052476883,
                        -0.3315165340900421,
                        1.618369221687317,
                        -0.6934187412261963,
                        -1.9055824279785156,
                        -0.3768717646598816,
                        -0.0572638101875782,
                        1.5382996797561646,
                        1.3884721994400024,
                        -0.06141985207796097,
                        1.2117079496383667,
                        0.7937787771224976,
                        1.1615897417068481,
                        0.21895374357700348,
                        -1.1338965892791748,
                        -0.8102632164955139,
                        0.8418466448783875,
                        1.1102503538131714,
                        -1.1249544620513916,
                        0.1308153122663498,
                        2.026289939880371,
                        0.06957387179136276,
                        -0.16968826949596405,
                        -0.8538264632225037,
                        1.2577968835830688,
                        0.8461503982543945,
                        0.04168367385864258,
                        -0.5196005702018738,
                        1.6675763130187988,
                        -0.1372183859348297,
                        0.7490142583847046,
                        -0.09256098419427872,
                        1.1619277000427246,
                        0.5760810375213623,
                        0.03181009739637375
                    ]
                ],
                [
                    [
                        0.11523360013961792,
                        0.517680823802948,
                        -0.31569868326187134,
                        -0.6037277579307556,
                        0.13489797711372375,
                        0.16938526928424835,
                        -0.12011195719242096,
                        0.15208487212657928,
                        0.5092577338218689,
                        0.043177440762519836,
                        -0.21480070054531097,
                        -0.0675211176276207,
                        -0.4008883535861969,
                        0.5041217803955078,
                        -0.7907787561416626,
                        -0.09531821310520172,
                        -1.1123305559158325,
                        -0.004889046773314476,
                        0.05127916485071182,
                        0.20370429754257202,
                        -0.024394268169999123,
                        -0.0750543475151062,
                        -0.05075374245643616,
                        -0.6454681158065796,
                        -0.7004932165145874,
                        0.4040825068950653,
                        0.399626225233078,
                        0.3863389790058136,
                        -0.7407092452049255,
                        0.20145165920257568,
                        -0.3720334470272064,
                        -0.27213114500045776,
                        -0.8291451930999756,
                        -0.5028411746025085,
                        -0.6344979405403137,
                        0.06738431751728058,
                        -0.9467424154281616,
                        0.34980788826942444,
                        -0.26294177770614624,
                        -0.25106120109558105,
                        0.04609072580933571,
                        0.11171366274356842,
                        0.07763629406690598,
                        0.7967332005500793,
                        -0.8887300491333008,
                        -0.49892741441726685,
                        -0.772375226020813,
                        -0.24155035614967346,
                        -0.6051365733146667,
                        -0.6145352125167847,
                        0.3562784492969513,
                        0.1567041277885437,
                        -0.46906527876853943,
                        -0.37009385228157043,
                        0.5576816201210022,
                        0.42550110816955566,
                        -0.4866425693035126,
                        -0.8221953511238098,
                        0.2512567937374115,
                        -0.6299257278442383,
                        0.287106990814209,
                        0.24864771962165833,
                        0.14775384962558746,
                        0.3436700105667114,
                        -0.3957964777946472,
                        0.024051446467638016,
                        -0.12655892968177795,
                        -0.06816789507865906,
                        0.08810335397720337,
                        0.1497381180524826,
                        0.02813618630170822,
                        -0.05991736054420471,
                        -0.0379241406917572,
                        0.024076241999864578,
                        0.12953971326351166,
                        0.08902284502983093,
                        -0.00512496754527092,
                        -0.4135558307170868,
                        0.07883236557245255,
                        0.013109938241541386,
                        0.060657650232315063,
                        -0.02151687815785408,
                        -0.005591284483671188,
                        0.2565355896949768,
                        -0.008345148526132107,
                        0.02246452309191227,
                        -0.14686046540737152,
                        0.10980957746505737,
                        0.0379757322371006,
                        -0.0727548599243164,
                        0.11181946843862534,
                        -0.07342841476202011,
                        -0.05129627510905266,
                        -0.09763564169406891,
                        -0.004307667259126902,
                        0.11840356886386871,
                        -0.15986205637454987,
                        0.11272411048412323,
                        0.06412024796009064,
                        0.03335949778556824,
                        0.1634133756160736,
                        0.148064523935318,
                        0.06742388755083084,
                        0.08988182246685028,
                        0.027221623808145523,
                        0.01836264505982399,
                        -0.04288129881024361,
                        0.3614654541015625,
                        0.10078125447034836,
                        0.06167670711874962,
                        -0.20860566198825836,
                        0.0017595153767615557,
                        -0.3463270962238312,
                        0.13273827731609344,
                        0.2015121728181839,
                        0.0013260686537250876,
                        -0.14359425008296967,
                        -0.034603431820869446,
                        0.30280426144599915,
                        -0.5680358409881592,
                        -0.10291849821805954,
                        0.17727172374725342,
                        -0.0905572772026062,
                        0.0798419937491417,
                        -0.016862209886312485,
                        0.2332870364189148,
                        0.0904940664768219,
                        0.034543950110673904,
                        -0.12110123038291931,
                        0.003961977083235979,
                        -0.12796124815940857,
                        0.18356867134571075,
                        0.2506733536720276,
                        0.05795307084918022,
                        0.017687512561678886,
                        -0.11160548031330109,
                        -0.08641128987073898,
                        0.1307087391614914,
                        -0.012733222916722298,
                        -0.04506292939186096,
                        -0.02837148681282997,
                        -0.09645404666662216,
                        -0.28330957889556885,
                        -0.08795449882745743,
                        0.04941968247294426,
                        0.17707942426204681,
                        0.1037355586886406,
                        -0.03713410720229149,
                        0.0973241850733757,
                        0.06507306545972824,
                        0.025002162903547287,
                        -0.005160336382687092,
                        0.07416660338640213,
                        0.07904935628175735,
                        -0.04060894623398781,
                        -0.08813165873289108,
                        0.10877775400876999,
                        0.22534000873565674,
                        0.03418941795825958,
                        -0.00721184303984046,
                        -0.0974460244178772,
                        -0.06718750298023224,
                        -0.13356079161167145,
                        -0.06427408009767532,
                        0.1855941116809845,
                        -0.1558481901884079,
                        -0.10103379935026169,
                        0.013853196054697037,
                        -0.17560482025146484,
                        -0.003264870261773467,
                        0.1181822344660759,
                        0.10772307962179184,
                        -0.017792819067835808,
                        -0.17973190546035767,
                        -0.2541148364543915,
                        0.12081121653318405,
                        0.3061661720275879,
                        -0.016680672764778137,
                        -0.1566830426454544,
                        -0.08980897068977356,
                        -0.09695117175579071,
                        -0.07422914355993271,
                        -0.16099613904953003,
                        -0.05906281620264053,
                        -0.09410388767719269,
                        0.0021020600106567144,
                        0.10288380831480026,
                        0.17059242725372314,
                        0.1378435641527176,
                        -0.13295333087444305,
                        -0.04004586115479469,
                        -0.13498623669147491
                    ],
                    [
                        0.5103195309638977,
                        0.3643718659877777,
                        -0.03599400073289871,
                        0.3931829631328583,
                        0.056590110063552856,
                        0.3999100923538208,
                        -0.1419990509748459,
                        0.2832389175891876,
                        0.26920366287231445,
                        -0.3940525949001312,
                        -0.38166186213493347,
                        0.22025248408317566,
                        -0.5191122889518738,
                        0.5879765152931213,
                        -0.32977065443992615,
                        0.05769927427172661,
                        -0.6277713179588318,
                        -0.38248199224472046,
                        0.19710150361061096,
                        0.1724153310060501,
                        0.3053463399410248,
                        -0.051857173442840576,
                        -0.23301734030246735,
                        -0.5495038628578186,
                        -0.5044307112693787,
                        0.09837953746318817,
                        0.3356238305568695,
                        0.560703456401825,
                        -0.40023505687713623,
                        0.24574121832847595,
                        -0.285256952047348,
                        -0.543165922164917,
                        -0.41946738958358765,
                        0.0706000104546547,
                        -0.505933940410614,
                        0.05396714434027672,
                        -0.10515576601028442,
                        0.2043149173259735,
                        -0.2941649854183197,
                        -0.4118131399154663,
                        -0.4199824929237366,
                        0.29030877351760864,
                        0.010536368004977703,
                        0.9489534497261047,
                        -0.386957585811615,
                        -0.32790622115135193,
                        0.05324103683233261,
                        -0.019731657579541206,
                        -0.19980818033218384,
                        -0.2971688508987427,
                        0.38638031482696533,
                        0.39018821716308594,
                        -0.6630233526229858,
                        -0.5394691228866577,
                        -0.5376541614532471,
                        0.6407451033592224,
                        -0.36258664727211,
                        -0.46710604429244995,
                        0.2535485029220581,
                        -0.5845134854316711,
                        0.2731034755706787,
                        0.30877289175987244,
                        0.4586698114871979,
                        0.20627529919147491,
                        0.022642003372311592,
                        -0.02753894403576851,
                        0.05639241635799408,
                        -0.007586916908621788,
                        -0.01350151002407074,
                        0.12047339230775833,
                        -0.02178294025361538,
                        0.03651989623904228,
                        0.07223456352949142,
                        0.015908917412161827,
                        0.34557008743286133,
                        0.028076691552996635,
                        0.0012870599748566747,
                        -0.5810784101486206,
                        0.05550847575068474,
                        0.3672996461391449,
                        0.021940292790532112,
                        -0.018219154328107834,
                        0.07293380796909332,
                        -0.08213038742542267,
                        0.07322356104850769,
                        -0.04384569451212883,
                        0.08192858844995499,
                        0.036987677216529846,
                        0.02705855667591095,
                        0.05337889865040779,
                        -0.10950061678886414,
                        0.1764310747385025,
                        -0.06502938270568848,
                        0.03998994827270508,
                        -0.037277474999427795,
                        0.019282691180706024,
                        0.10310348868370056,
                        0.12656725943088531,
                        0.0709233507514,
                        -0.049141548573970795,
                        0.0991721823811531,
                        0.22467540204524994,
                        -0.06537026911973953,
                        -0.033406343311071396,
                        -0.05081358924508095,
                        0.08188357949256897,
                        -0.05200323835015297,
                        -0.01799892634153366,
                        0.01772388070821762,
                        -0.006438216660171747,
                        0.2821374237537384,
                        0.09294522553682327,
                        -0.07545121759176254,
                        0.08436693996191025,
                        0.1111600250005722,
                        0.051977381110191345,
                        0.13689954578876495,
                        0.0033303808886557817,
                        0.06283341348171234,
                        -0.27158305048942566,
                        0.024824313819408417,
                        0.01958673819899559,
                        -0.01281827688217163,
                        -0.1759154200553894,
                        0.1469058245420456,
                        0.3697015643119812,
                        -0.0824296846985817,
                        0.07266140729188919,
                        -0.10780251026153564,
                        0.021250927820801735,
                        -0.03904804214835167,
                        0.15615421533584595,
                        0.19762997329235077,
                        0.03638284653425217,
                        0.048211727291345596,
                        -0.1465170979499817,
                        0.0010078088380396366,
                        -0.0995543897151947,
                        0.07215292751789093,
                        -0.1089787483215332,
                        0.0384104922413826,
                        -0.062411125749349594,
                        -0.08368745446205139,
                        -0.18472813069820404,
                        -0.015195806510746479,
                        0.012573817744851112,
                        0.04842763766646385,
                        0.11788848042488098,
                        -0.014669572934508324,
                        0.09891366958618164,
                        -0.1693054735660553,
                        0.11422272026538849,
                        0.006707271095365286,
                        0.020615966990590096,
                        -0.15552808344364166,
                        -0.07343439012765884,
                        -0.15112824738025665,
                        0.060403063893318176,
                        -0.10277848690748215,
                        -0.029232343658804893,
                        0.05488986149430275,
                        0.0697118490934372,
                        -0.02301079034805298,
                        -0.0576663576066494,
                        -0.08398397266864777,
                        -0.17002853751182556,
                        0.09679273515939713,
                        -0.05845873802900314,
                        -0.08971932530403137,
                        -0.22167687118053436,
                        -0.12466082721948624,
                        0.2625885605812073,
                        -0.07253903895616531,
                        -0.055600445717573166,
                        -0.15637065470218658,
                        0.20627465844154358,
                        0.013853868469595909,
                        -0.034938931465148926,
                        0.02082083560526371,
                        -0.2074863761663437,
                        -0.06365232914686203,
                        -0.04630431532859802,
                        -0.09533975273370743,
                        0.011021019890904427,
                        -0.12227828055620193,
                        -0.11462384462356567,
                        0.027832744643092155,
                        0.14761851727962494,
                        0.18380244076251984,
                        -0.09715195000171661,
                        -0.1610434651374817,
                        -0.07650298625230789
                    ],
                    [
                        -0.47933775186538696,
                        -0.268982470035553,
                        -0.1679821014404297,
                        -0.3419950306415558,
                        0.337056040763855,
                        -0.26787036657333374,
                        0.1559520661830902,
                        0.0964115560054779,
                        -0.23463141918182373,
                        -0.2970779240131378,
                        0.2880243957042694,
                        -0.2336893528699875,
                        -0.29492178559303284,
                        -0.34828218817710876,
                        -0.43851709365844727,
                        -0.1435956060886383,
                        -0.20710305869579315,
                        -0.31575828790664673,
                        0.031742602586746216,
                        0.2705516815185547,
                        -0.43745070695877075,
                        0.0668477863073349,
                        -0.06431423127651215,
                        -0.5026400089263916,
                        -0.059034813195466995,
                        -0.023853575810790062,
                        0.06116478517651558,
                        -0.01631072163581848,
                        0.06937924027442932,
                        0.03589934483170509,
                        -0.5831668972969055,
                        -0.013389321975409985,
                        -0.4965416491031647,
                        -0.28902992606163025,
                        -0.13987942039966583,
                        0.0779837965965271,
                        -0.2774766981601715,
                        -0.15900550782680511,
                        0.09370312839746475,
                        -0.19847598671913147,
                        -0.2795204818248749,
                        -0.34595435857772827,
                        0.14147859811782837,
                        -0.54241943359375,
                        -0.1738359034061432,
                        -0.24067525565624237,
                        -0.30452489852905273,
                        -0.0484805554151535,
                        -0.23054179549217224,
                        -0.07855699211359024,
                        -0.17192193865776062,
                        -0.19740334153175354,
                        -0.00304112839512527,
                        -0.046537015587091446,
                        -0.6318532228469849,
                        -0.3769003748893738,
                        -0.39676183462142944,
                        -0.21495091915130615,
                        0.15253940224647522,
                        -0.5089658498764038,
                        -0.04773612320423126,
                        -0.24960854649543762,
                        -0.18661725521087646,
                        0.07361344993114471,
                        0.17465949058532715,
                        0.020635366439819336,
                        0.09390021860599518,
                        0.41160696744918823,
                        0.030579861253499985,
                        0.04853035509586334,
                        0.051005031913518906,
                        0.11543723195791245,
                        -0.00443012360483408,
                        0.1507413387298584,
                        0.14298298954963684,
                        0.10268761962652206,
                        -0.06070059910416603,
                        -0.013776363804936409,
                        0.08995594084262848,
                        0.17653395235538483,
                        -0.07295782119035721,
                        0.0411762036383152,
                        0.06470855325460434,
                        0.19373226165771484,
                        -0.13670456409454346,
                        0.07921086251735687,
                        0.16601437330245972,
                        0.015696853399276733,
                        0.21419337391853333,
                        0.17525599896907806,
                        0.11378772556781769,
                        0.05237191542983055,
                        -0.01412605307996273,
                        0.08932588994503021,
                        0.11905214190483093,
                        0.04175076633691788,
                        0.11210091412067413,
                        0.13413088023662567,
                        -0.13389952480793,
                        0.07992105185985565,
                        -0.03954914212226868,
                        0.04185440018773079,
                        0.07799098640680313,
                        0.022377364337444305,
                        0.00489234272390604,
                        0.19824948906898499,
                        -0.044793061912059784,
                        -0.08724427223205566,
                        0.1676780730485916,
                        0.025829648599028587,
                        -0.43934327363967896,
                        0.1498337984085083,
                        0.13069114089012146,
                        -0.09421361237764359,
                        0.18128791451454163,
                        0.054898250848054886,
                        -0.1038980782032013,
                        -0.12666606903076172,
                        0.20362144708633423,
                        0.15979325771331787,
                        0.11291652172803879,
                        0.09453374147415161,
                        0.1306031048297882,
                        0.00287110498175025,
                        0.10218322277069092,
                        -0.1692209094762802,
                        -0.09426452219486237,
                        0.08873049914836884,
                        0.1155034750699997,
                        0.057478707283735275,
                        -0.04432298243045807,
                        0.06742037832736969,
                        -0.03821627423167229,
                        0.09805990010499954,
                        -0.02077450230717659,
                        -0.17107924818992615,
                        -0.0013414532877504826,
                        0.01584671437740326,
                        0.022928712889552116,
                        -0.19199350476264954,
                        -0.04978099465370178,
                        0.04918535798788071,
                        -0.03765225410461426,
                        -0.047266487032175064,
                        -0.08350691944360733,
                        -0.030762633308768272,
                        0.10705108940601349,
                        0.0266550425440073,
                        0.021374674513936043,
                        -0.014314777217805386,
                        -0.1251303106546402,
                        0.05198345705866814,
                        -0.06869664043188095,
                        0.0485844649374485,
                        0.037814654409885406,
                        -0.013925082050263882,
                        -0.1414165049791336,
                        0.13016705214977264,
                        -0.08699993789196014,
                        0.08393087238073349,
                        0.03677273169159889,
                        0.07175235450267792,
                        -0.05851220339536667,
                        0.0952276960015297,
                        -0.06904774159193039,
                        -0.18100330233573914,
                        0.04851065203547478,
                        0.00020925172429997474,
                        -0.20762518048286438,
                        0.05977872386574745,
                        0.03655935078859329,
                        0.21671850979328156,
                        0.04613277316093445,
                        0.15574121475219727,
                        -0.03701021149754524,
                        -0.0008033667108975351,
                        0.07107225805521011,
                        0.05243324488401413,
                        -0.029292207211256027,
                        0.030414635315537453,
                        0.12108326703310013,
                        -0.049240075051784515,
                        0.05674790218472481,
                        0.14848622679710388,
                        -0.043579116463661194,
                        0.10295961797237396,
                        -0.03274897485971451,
                        0.04125278815627098,
                        0.04842119291424751,
                        -0.05400732532143593,
                        -0.007977447472512722,
                        -0.05589001625776291
                    ],
                    [
                        -0.2983475923538208,
                        0.33532947301864624,
                        0.09015106409788132,
                        0.01696115732192993,
                        0.15999490022659302,
                        0.1577293872833252,
                        -0.17990781366825104,
                        0.3306741416454315,
                        0.13118122518062592,
                        -0.32153981924057007,
                        -0.5374920964241028,
                        0.1864551156759262,
                        -0.754619300365448,
                        0.6920746564865112,
                        -0.8470281958580017,
                        0.15283706784248352,
                        -1.3188340663909912,
                        -0.6469573974609375,
                        0.3013312816619873,
                        0.39225149154663086,
                        0.21476145088672638,
                        0.010730940848588943,
                        -0.08825371414422989,
                        -0.7411430478096008,
                        -0.6117204427719116,
                        -0.3723513185977936,
                        0.12899690866470337,
                        0.6093120574951172,
                        -0.6168999075889587,
                        0.3445780873298645,
                        -0.3979923725128174,
                        -0.574926495552063,
                        -0.29155734181404114,
                        -0.3298029899597168,
                        -0.8559226989746094,
                        0.3334779441356659,
                        -0.5355191230773926,
                        0.20156054198741913,
                        0.0020906664431095123,
                        -0.7341185212135315,
                        -0.7581012845039368,
                        -0.0873965471982956,
                        0.24137480556964874,
                        -0.058445386588573456,
                        -0.8946709632873535,
                        -0.24964113533496857,
                        -1.0601493120193481,
                        -0.6427997350692749,
                        -0.06086704879999161,
                        0.10719503462314606,
                        0.5950284600257874,
                        0.03477935492992401,
                        -1.0651339292526245,
                        -0.9919695854187012,
                        -0.4086238145828247,
                        0.797468364238739,
                        -1.1221896409988403,
                        -0.8110195994377136,
                        0.3446519076824188,
                        -0.5887292623519897,
                        0.31823602318763733,
                        -0.11161608248949051,
                        0.3774665296077728,
                        0.3629961907863617,
                        -0.029128801077604294,
                        0.16826756298542023,
                        0.0023370967246592045,
                        0.05226278305053711,
                        0.14057070016860962,
                        0.22593389451503754,
                        0.10846367478370667,
                        0.07577574253082275,
                        0.10794633626937866,
                        0.15576116740703583,
                        0.1198466345667839,
                        -0.019875487312674522,
                        -0.1158476173877716,
                        -0.6178604364395142,
                        0.22704526782035828,
                        0.28911349177360535,
                        -0.014171297661960125,
                        0.06871494650840759,
                        0.18447116017341614,
                        0.2567715346813202,
                        0.16269506514072418,
                        0.00232364097610116,
                        -0.1067984402179718,
                        0.23679418861865997,
                        0.08399990946054459,
                        0.08992080390453339,
                        0.12720496952533722,
                        0.2867976725101471,
                        0.0549250990152359,
                        0.06993626058101654,
                        0.1727529764175415,
                        0.0732990950345993,
                        0.026130788028240204,
                        0.14119644463062286,
                        -0.09145890176296234,
                        0.08265890926122665,
                        0.22815607488155365,
                        0.30201900005340576,
                        -0.01672939956188202,
                        0.020314907655119896,
                        0.18866431713104248,
                        -0.008565063588321209,
                        -0.055676259100437164,
                        1.45041024684906,
                        -0.03358767554163933,
                        0.039538104087114334,
                        0.6647652983665466,
                        0.07851114124059677,
                        -0.2081858515739441,
                        0.399811714887619,
                        0.4930679202079773,
                        0.13297128677368164,
                        -0.2146276831626892,
                        0.002661785576492548,
                        0.45044562220573425,
                        -0.2914915084838867,
                        0.004277034197002649,
                        0.3233789801597595,
                        0.06816741824150085,
                        -0.17639879882335663,
                        0.06429602205753326,
                        0.8918524384498596,
                        0.23107431828975677,
                        0.12045281380414963,
                        -0.2155686914920807,
                        0.013344701379537582,
                        0.0663013756275177,
                        -0.1316986083984375,
                        -0.02142559550702572,
                        0.14451415836811066,
                        -0.030529597774147987,
                        0.15044717490673065,
                        0.07105950266122818,
                        -0.012445615604519844,
                        -0.08388137817382812,
                        -0.06565865874290466,
                        -0.013196169398725033,
                        0.01752493716776371,
                        0.15884362161159515,
                        0.07897040992975235,
                        0.08132892102003098,
                        -0.18611213564872742,
                        -0.050337180495262146,
                        0.02754104509949684,
                        0.12227838486433029,
                        0.06511138379573822,
                        -0.06082436814904213,
                        -0.009198804385960102,
                        0.13054846227169037,
                        0.048289455473423004,
                        0.03975117579102516,
                        0.054358720779418945,
                        0.11901891231536865,
                        -0.13067969679832458,
                        0.054226942360401154,
                        0.013819821178913116,
                        -0.197361558675766,
                        -0.01903335563838482,
                        0.07907778769731522,
                        0.09276571124792099,
                        0.03216996788978577,
                        -0.02821732871234417,
                        0.056796468794345856,
                        0.18170204758644104,
                        0.01670239493250847,
                        0.030174944549798965,
                        -0.16174495220184326,
                        -0.23197892308235168,
                        0.021573225036263466,
                        0.027506839483976364,
                        0.012830968014895916,
                        -0.22618812322616577,
                        -0.12041895091533661,
                        0.13946321606636047,
                        0.22456856071949005,
                        0.15555645525455475,
                        -0.171113982796669,
                        -0.18792077898979187,
                        0.11551067978143692,
                        -0.3398175537586212,
                        0.216398224234581,
                        0.009563717059791088,
                        0.00726674497127533,
                        0.011308625340461731,
                        -0.09860696643590927,
                        0.0057698399759829044,
                        -0.11385148763656616,
                        0.05249258875846863
                    ],
                    [
                        -0.25971922278404236,
                        -0.011774822138249874,
                        -0.1547546237707138,
                        -0.38248446583747864,
                        0.36026373505592346,
                        -0.0866134762763977,
                        0.2177899032831192,
                        0.2443472295999527,
                        0.17789112031459808,
                        -0.16784349083900452,
                        -0.03813041001558304,
                        -0.14251624047756195,
                        -0.49121564626693726,
                        0.21460650861263275,
                        -0.5373415946960449,
                        -0.21900978684425354,
                        -0.80414879322052,
                        -0.24772590398788452,
                        0.18291901051998138,
                        0.24114730954170227,
                        -0.11688945442438126,
                        -0.02250043675303459,
                        -0.2881748676300049,
                        -0.3126000463962555,
                        -0.1655251383781433,
                        0.1295737624168396,
                        0.10815712064504623,
                        0.1618611365556717,
                        -0.1435111165046692,
                        0.17021799087524414,
                        -0.36005160212516785,
                        -0.2630537748336792,
                        -0.6671421527862549,
                        -0.1672348529100418,
                        -0.5297779440879822,
                        0.058953750878572464,
                        -0.17093001306056976,
                        0.03630206361413002,
                        -0.12725301086902618,
                        -0.41678357124328613,
                        -0.037039220333099365,
                        -0.04482041671872139,
                        0.022626835852861404,
                        -0.04929757118225098,
                        -0.4867716431617737,
                        -0.3537668287754059,
                        -0.2798128128051758,
                        -0.1320357471704483,
                        -0.2297835499048233,
                        -0.07584349066019058,
                        0.2658687233924866,
                        -0.2205253392457962,
                        0.018596746027469635,
                        -0.16284313797950745,
                        -0.11695822328329086,
                        -0.14419394731521606,
                        -0.7299457788467407,
                        -0.5590607523918152,
                        0.008394043892621994,
                        -0.8407393097877502,
                        0.09333007037639618,
                        0.06784579157829285,
                        0.08937640488147736,
                        0.09838708490133286,
                        0.2405271828174591,
                        -0.07448897510766983,
                        -0.040602102875709534,
                        0.1950603872537613,
                        0.029770122841000557,
                        0.0646762102842331,
                        -0.014429440721869469,
                        -0.0650613084435463,
                        -0.013446754775941372,
                        -0.04014676809310913,
                        0.156779944896698,
                        0.023001832887530327,
                        -0.0034756851382553577,
                        -0.47651731967926025,
                        0.011314903385937214,
                        0.22243747115135193,
                        0.224772110581398,
                        0.02597024105489254,
                        -0.01994679495692253,
                        0.0926915630698204,
                        -0.1288977563381195,
                        0.04073072969913483,
                        -0.10869450122117996,
                        -0.09117092937231064,
                        -0.004793429747223854,
                        -0.07507279515266418,
                        0.06771764904260635,
                        -0.09746754169464111,
                        -0.033066555857658386,
                        0.1585696041584015,
                        0.07384225726127625,
                        0.013664400205016136,
                        0.25067758560180664,
                        0.01251375675201416,
                        -0.1119222417473793,
                        -0.14013439416885376,
                        -0.1862492859363556,
                        -0.15646637976169586,
                        0.10739603638648987,
                        0.04502057656645775,
                        -0.15509454905986786,
                        -0.0015247572446241975,
                        -0.1355152726173401,
                        0.2187924087047577,
                        -0.05791442096233368,
                        -0.08931387960910797,
                        -0.11775808781385422,
                        -0.11680934578180313,
                        0.027225788682699203,
                        -0.0034395360853523016,
                        0.07155843824148178,
                        0.1169557198882103,
                        -0.09960364550352097,
                        -0.16988445818424225,
                        0.048803817480802536,
                        0.1424369066953659,
                        -0.03028023988008499,
                        0.009383006952702999,
                        -0.1004868894815445,
                        0.007408815901726484,
                        0.17997963726520538,
                        0.00402815779671073,
                        0.12794426083564758,
                        0.12848228216171265,
                        0.11119579523801804,
                        0.08103954046964645,
                        0.015534315258264542,
                        0.005597769282758236,
                        0.1411251723766327,
                        0.22318360209465027,
                        0.05667087808251381,
                        -0.11349460482597351,
                        -0.15782353281974792,
                        -0.006874118931591511,
                        -0.002282641129568219,
                        -0.013124031946063042,
                        0.0818077102303505,
                        0.03272046521306038,
                        0.007058738265186548,
                        -0.05996590852737427,
                        0.25792089104652405,
                        -0.10836654156446457,
                        0.1157567948102951,
                        0.06478360295295715,
                        0.029424600303173065,
                        0.1468048095703125,
                        -0.10743419080972672,
                        -0.08353535085916519,
                        0.07727710902690887,
                        -0.03184656426310539,
                        -0.1392577439546585,
                        -0.11954731494188309,
                        -0.14995281398296356,
                        0.14400231838226318,
                        0.23242254555225372,
                        0.20724093914031982,
                        0.01761472411453724,
                        -0.13698811829090118,
                        -0.007886677980422974,
                        0.1442435383796692,
                        0.08452966809272766,
                        0.14863501489162445,
                        -0.06682723015546799,
                        0.14695484936237335,
                        0.1253281980752945,
                        -0.05659222602844238,
                        -0.10067261010408401,
                        0.028564786538481712,
                        -0.18398596346378326,
                        0.06297297030687332,
                        0.032798223197460175,
                        0.13995015621185303,
                        0.005005002953112125,
                        -0.0007984955445863307,
                        0.053456809371709824,
                        -0.1406785100698471,
                        -0.03490915149450302,
                        0.05682153254747391,
                        -0.007149832788854837,
                        0.03465283662080765,
                        -0.07539928704500198,
                        0.11272682994604111,
                        0.09435972571372986,
                        0.16104334592819214,
                        -0.04647073894739151,
                        0.18362940847873688,
                        -0.1593332439661026,
                        -0.11441274732351303
                    ],
                    [
                        -0.055744193494319916,
                        0.10957914590835571,
                        0.1992930918931961,
                        -0.024734988808631897,
                        0.48947420716285706,
                        0.03408389911055565,
                        0.006367988418787718,
                        0.31922921538352966,
                        0.2217797189950943,
                        -0.1538889855146408,
                        0.010229363106191158,
                        0.07115693390369415,
                        -0.5518598556518555,
                        0.32704854011535645,
                        -0.3495013117790222,
                        -0.2976514399051666,
                        -0.8548860549926758,
                        -0.14554214477539062,
                        0.3556889295578003,
                        0.38493332266807556,
                        -0.08371735364198685,
                        0.040798336267471313,
                        -0.14724870026111603,
                        -0.4971945881843567,
                        -0.5211375951766968,
                        -0.15716888010501862,
                        0.19805297255516052,
                        0.23881718516349792,
                        -0.2604033946990967,
                        0.6093409061431885,
                        -0.7137813568115234,
                        -0.182280495762825,
                        -0.7102270722389221,
                        -0.2876531481742859,
                        -0.5682584047317505,
                        0.2404385805130005,
                        -0.14543010294437408,
                        -0.0504150316119194,
                        -0.17175647616386414,
                        -0.41451191902160645,
                        -0.1963735669851303,
                        -0.0558365173637867,
                        0.1563209444284439,
                        0.47409871220588684,
                        -0.47813180088996887,
                        -0.21813151240348816,
                        -0.31722915172576904,
                        -0.17332755029201508,
                        -0.29130977392196655,
                        0.009574579074978828,
                        0.21610446274280548,
                        0.045381251722574234,
                        -0.5960087180137634,
                        -0.4850233495235443,
                        -0.3556566834449768,
                        0.37451380491256714,
                        -1.055808663368225,
                        -0.4636646509170532,
                        0.4205450117588043,
                        -0.721356987953186,
                        0.43999534845352173,
                        -0.0030570952221751213,
                        -0.09949060529470444,
                        0.31466418504714966,
                        0.052294690161943436,
                        0.05495743080973625,
                        0.07479580491781235,
                        0.028454970568418503,
                        0.04157667234539986,
                        0.20810046792030334,
                        0.043085359036922455,
                        -0.10737033933401108,
                        0.027539033442735672,
                        -0.050641126930713654,
                        0.019777368754148483,
                        0.0682535395026207,
                        -0.02951076254248619,
                        -0.3610055446624756,
                        0.24445612728595734,
                        0.5053377151489258,
                        0.026696519926190376,
                        0.10694894939661026,
                        -0.046706248074769974,
                        -0.07846613228321075,
                        0.023254554718732834,
                        0.09060463309288025,
                        -0.11122385412454605,
                        -0.12248338013887405,
                        -0.03307238221168518,
                        0.058963220566511154,
                        -0.03068753518164158,
                        0.11398403346538544,
                        -0.045146502554416656,
                        -0.018395844846963882,
                        0.03312375023961067,
                        -0.050035543739795685,
                        -0.14713074266910553,
                        0.20629262924194336,
                        -0.010138937272131443,
                        -0.030150268226861954,
                        0.14386671781539917,
                        0.32460811734199524,
                        -0.06497788429260254,
                        -0.09732052683830261,
                        0.03367287665605545,
                        0.00591294514015317,
                        -0.03730422630906105,
                        0.20494669675827026,
                        -0.12827807664871216,
                        0.16485461592674255,
                        -0.06772392243146896,
                        -0.00315895676612854,
                        0.048552289605140686,
                        0.07050855457782745,
                        -0.053637243807315826,
                        -0.03188181295990944,
                        -0.01965506002306938,
                        -0.1803048849105835,
                        0.20840713381767273,
                        -0.09382522851228714,
                        -0.05047058314085007,
                        -0.11172160506248474,
                        -0.030853744596242905,
                        -0.021438980475068092,
                        -0.035251714289188385,
                        0.20885370671749115,
                        0.10003048926591873,
                        -0.04239153861999512,
                        -0.061334509402513504,
                        0.15817013382911682,
                        0.03959547355771065,
                        0.00546272611245513,
                        0.19440215826034546,
                        0.11893369257450104,
                        -0.13401053845882416,
                        -0.17780451476573944,
                        -0.25746461749076843,
                        0.20610161125659943,
                        0.0228407084941864,
                        -0.18755312263965607,
                        -0.037060730159282684,
                        -0.09284130483865738,
                        -0.0298119205981493,
                        0.001644321484491229,
                        -0.04230756312608719,
                        0.0005097619723528624,
                        0.11604046076536179,
                        0.128229022026062,
                        -0.019468119367957115,
                        -0.04319748654961586,
                        -0.07616668939590454,
                        -0.01546474453061819,
                        -0.06956713646650314,
                        0.05694930627942085,
                        0.023448050022125244,
                        -0.025401178747415543,
                        0.013403625227510929,
                        0.0495796762406826,
                        -0.08597176522016525,
                        0.02602938562631607,
                        0.07605631649494171,
                        0.010304633527994156,
                        -0.0014507453888654709,
                        0.07176771014928818,
                        0.10764046013355255,
                        -0.13452139496803284,
                        -0.004281939938664436,
                        -0.0996275320649147,
                        0.0030347974970936775,
                        -0.15662255883216858,
                        0.010719798505306244,
                        0.2751903831958771,
                        0.036098916083574295,
                        -0.07574962079524994,
                        -0.2090931236743927,
                        0.15213654935359955,
                        0.004266945645213127,
                        -0.17419181764125824,
                        0.06673598289489746,
                        -0.03133523464202881,
                        -0.006058473605662584,
                        -0.09768509119749069,
                        -0.14568769931793213,
                        0.09437528997659683,
                        -0.1056942492723465,
                        -0.022218462079763412,
                        0.02063741721212864,
                        0.05438490957021713,
                        0.11724510788917542,
                        -0.08454194664955139,
                        -0.0787237361073494,
                        -0.09430591762065887
                    ],
                    [
                        -0.8302424550056458,
                        -0.6007795929908752,
                        -0.24687060713768005,
                        -1.0894962549209595,
                        0.31990423798561096,
                        -0.3428349792957306,
                        0.25556784868240356,
                        0.4244100749492645,
                        -0.10060299932956696,
                        0.13605846464633942,
                        0.04733039438724518,
                        -0.3257811367511749,
                        0.42088058590888977,
                        -1.3664263486862183,
                        0.18475718796253204,
                        -1.0070860385894775,
                        -0.17268463969230652,
                        0.25499844551086426,
                        0.16095110774040222,
                        0.040038034319877625,
                        -0.5228286981582642,
                        0.13096988201141357,
                        0.13153013586997986,
                        -0.7487647533416748,
                        -0.4642040431499481,
                        0.4196281135082245,
                        0.18562285602092743,
                        -0.9637792706489563,
                        -0.17797419428825378,
                        0.40130066871643066,
                        -0.028940673917531967,
                        -0.7138365507125854,
                        -0.2862429916858673,
                        -0.6962427496910095,
                        0.3939523994922638,
                        0.12407071888446808,
                        0.48207128047943115,
                        -1.3793634176254272,
                        0.3667644262313843,
                        -0.6805867552757263,
                        0.25059595704078674,
                        -0.525343120098114,
                        0.10801419615745544,
                        -1.9009084701538086,
                        -0.4734932482242584,
                        -0.7440003156661987,
                        0.22198982536792755,
                        -0.07009706646203995,
                        -0.16009880602359772,
                        -0.5555539131164551,
                        0.7974633574485779,
                        -0.4943126142024994,
                        0.20059426128864288,
                        -0.010083428584039211,
                        0.545077919960022,
                        -0.5437676310539246,
                        -0.3335244357585907,
                        -0.7145450711250305,
                        0.23457525670528412,
                        -0.12254036217927933,
                        0.6141786575317383,
                        -1.175959825515747,
                        -0.3131468594074249,
                        0.3273915648460388,
                        0.20035752654075623,
                        -0.001576156704686582,
                        -0.2123487889766693,
                        0.22658759355545044,
                        -0.1055065169930458,
                        0.06038908660411835,
                        0.10339523106813431,
                        -0.19767163693904877,
                        0.059806931763887405,
                        -0.2819784879684448,
                        0.037883419543504715,
                        0.14084933698177338,
                        -0.12724873423576355,
                        0.6051177382469177,
                        0.06153418496251106,
                        0.021558038890361786,
                        -0.2577398419380188,
                        -0.09624452143907547,
                        -0.03302723914384842,
                        -0.06982036679983139,
                        -0.005437605548650026,
                        -0.07139638811349869,
                        -0.054378628730773926,
                        -0.14010007679462433,
                        -0.08475224673748016,
                        0.043908946216106415,
                        0.03231794014573097,
                        0.0812804102897644,
                        -0.14510275423526764,
                        -0.17745114862918854,
                        0.07071218639612198,
                        0.012738027609884739,
                        -0.06080234795808792,
                        0.1925600916147232,
                        -0.01024315319955349,
                        -0.04160800203680992,
                        -0.05714523792266846,
                        0.10096130520105362,
                        -0.12234030663967133,
                        0.1404457837343216,
                        -0.17451700568199158,
                        0.16826258599758148,
                        -0.14366579055786133,
                        1.1346018314361572,
                        -0.036386266350746155,
                        0.034557875245809555,
                        -0.10493860393762589,
                        -0.06207110360264778,
                        -0.05543070659041405,
                        0.2717212736606598,
                        -0.014446175657212734,
                        0.14270424842834473,
                        -0.1360338181257248,
                        -0.16942518949508667,
                        0.06510121375322342,
                        0.24462969601154327,
                        0.10342662781476974,
                        0.06799741834402084,
                        -0.09229513257741928,
                        0.21162880957126617,
                        -0.07758479565382004,
                        0.22161747515201569,
                        0.2747833728790283,
                        -0.047271937131881714,
                        0.22123871743679047,
                        -0.03905805945396423,
                        0.05124383792281151,
                        0.007078974042087793,
                        -0.07524634152650833,
                        0.02013051137328148,
                        0.31547513604164124,
                        0.0269775390625,
                        0.1671007126569748,
                        -0.13903838396072388,
                        -0.08522909134626389,
                        0.002068365691229701,
                        -0.030864756554365158,
                        0.372812956571579,
                        -0.05209541693329811,
                        0.1579904407262802,
                        0.04123494774103165,
                        -0.04457971826195717,
                        0.042860470712184906,
                        0.04878642410039902,
                        0.09578830003738403,
                        -0.011527115479111671,
                        -0.1376224309206009,
                        -0.058008816093206406,
                        -0.009416235610842705,
                        0.18617643415927887,
                        0.14198017120361328,
                        0.09954561293125153,
                        0.021929116919636726,
                        -0.04336900636553764,
                        0.17024023830890656,
                        0.06557528674602509,
                        0.11634641140699387,
                        -0.12258263677358627,
                        -0.05335141345858574,
                        -0.0709504708647728,
                        0.19736570119857788,
                        0.0385562963783741,
                        0.04693927243351936,
                        0.044836804270744324,
                        0.13272255659103394,
                        -0.07229828834533691,
                        -0.15621112287044525,
                        -0.1833973079919815,
                        -0.012796751223504543,
                        -0.1302666813135147,
                        0.09770675003528595,
                        -0.12996958196163177,
                        -0.011841055005788803,
                        0.06698594987392426,
                        -0.016469653695821762,
                        0.047111302614212036,
                        0.030403003096580505,
                        0.03174241632223129,
                        0.11056424677371979,
                        0.15809054672718048,
                        0.15404817461967468,
                        0.25810468196868896,
                        -0.009692491963505745,
                        -0.09442625194787979,
                        -0.14089885354042053,
                        -0.03967972844839096,
                        -0.07596688717603683,
                        0.08237841725349426
                    ],
                    [
                        -0.00016573016182519495,
                        -0.02842220477759838,
                        -0.05071588233113289,
                        0.2553274929523468,
                        -0.2219986915588379,
                        0.15294502675533295,
                        -0.17429277300834656,
                        -0.16332536935806274,
                        -0.09207974374294281,
                        -0.04793085530400276,
                        -0.009344106540083885,
                        0.13199377059936523,
                        -0.11650054901838303,
                        -0.17411720752716064,
                        0.10454541444778442,
                        0.12721890211105347,
                        0.33472350239753723,
                        0.2633623480796814,
                        -0.06531213223934174,
                        -0.005047658924013376,
                        0.4130289554595947,
                        0.13165755569934845,
                        0.34387484192848206,
                        0.4321816563606262,
                        0.19528067111968994,
                        -0.2887692153453827,
                        -0.1264876276254654,
                        -0.33880752325057983,
                        0.32240861654281616,
                        -0.0459284633398056,
                        0.20244596898555756,
                        0.2539207339286804,
                        0.3776801824569702,
                        0.2911717891693115,
                        -0.023007618263363838,
                        -0.06402865052223206,
                        0.26379597187042236,
                        -0.11842532455921173,
                        0.06010899320244789,
                        0.1675187647342682,
                        -0.2633655071258545,
                        0.12949268519878387,
                        0.2773684561252594,
                        0.2387148141860962,
                        0.2969790995121002,
                        0.16359484195709229,
                        -0.23115895688533783,
                        0.2596573233604431,
                        0.23029017448425293,
                        0.34123826026916504,
                        0.043291136622428894,
                        0.033182207494974136,
                        -0.17043738067150116,
                        0.059792306274175644,
                        -0.15305636823177338,
                        0.0387430340051651,
                        -0.014170678332448006,
                        0.22681209444999695,
                        -0.05459829419851303,
                        0.19966067373752594,
                        -0.22387397289276123,
                        -0.01645742543041706,
                        -0.10681915283203125,
                        -0.05556408688426018,
                        -0.30426257848739624,
                        -0.07945529371500015,
                        0.05122276023030281,
                        -0.22406131029129028,
                        -0.12633050978183746,
                        -0.0660899430513382,
                        -0.0005458396626636386,
                        -0.04712548106908798,
                        0.055063217878341675,
                        -0.08197403699159622,
                        -0.07663393020629883,
                        -0.16485640406608582,
                        0.10677316039800644,
                        0.15409162640571594,
                        0.21775712072849274,
                        -0.2877998650074005,
                        -0.11790498346090317,
                        0.07043809443712234,
                        -0.14724062383174896,
                        0.034013234078884125,
                        0.07147310674190521,
                        0.044120531529188156,
                        0.012235956266522408,
                        -0.0693361684679985,
                        -0.1413976103067398,
                        -0.08096591383218765,
                        -0.03656060993671417,
                        0.01983702927827835,
                        0.10971648246049881,
                        -0.06228912994265556,
                        -0.016514932736754417,
                        -0.15569154918193817,
                        -0.2149696797132492,
                        -0.04240826144814491,
                        -0.06053502485156059,
                        0.14057204127311707,
                        0.008598885498940945,
                        -0.01730579137802124,
                        -0.05367547646164894,
                        -0.11382098495960236,
                        -0.11980629712343216,
                        -0.18851399421691895,
                        0.020669877529144287,
                        0.2215280383825302,
                        -0.07017260789871216,
                        -0.01827331818640232,
                        0.4190697968006134,
                        -0.02446029894053936,
                        0.12961752712726593,
                        -0.20330414175987244,
                        -0.03386892378330231,
                        -0.22203002870082855,
                        0.004738304764032364,
                        0.05359882861375809,
                        -0.2738579511642456,
                        -0.020021244883537292,
                        0.16998997330665588,
                        0.01776263117790222,
                        -0.14775100350379944,
                        0.06798887997865677,
                        0.010631570592522621,
                        -0.060521822422742844,
                        0.08640347421169281,
                        -0.005810122936964035,
                        0.02251318469643593,
                        -0.005678013898432255,
                        -0.002595007186755538,
                        -0.012906674295663834,
                        -0.04122358188033104,
                        -0.12086042761802673,
                        -0.06723658740520477,
                        0.03792204335331917,
                        0.01306239515542984,
                        0.13981157541275024,
                        0.21050503849983215,
                        0.064822256565094,
                        -0.11300107836723328,
                        -0.13639560341835022,
                        -0.25274211168289185,
                        0.029710659757256508,
                        -0.23760873079299927,
                        0.0858025848865509,
                        -0.02546900510787964,
                        -0.08436693251132965,
                        0.07440728694200516,
                        -0.1346738338470459,
                        0.07823065668344498,
                        0.3237288296222687,
                        -0.271029531955719,
                        0.12824954092502594,
                        -0.02125624194741249,
                        -0.08863504976034164,
                        0.2478100061416626,
                        0.013955613598227501,
                        -0.16946516931056976,
                        -0.09115520119667053,
                        0.2080594301223755,
                        0.1350042223930359,
                        0.17163686454296112,
                        -0.0568527914583683,
                        -0.2444649338722229,
                        -0.16482359170913696,
                        0.17458346486091614,
                        -0.1689784973859787,
                        -0.16560934484004974,
                        0.05269472673535347,
                        0.17912355065345764,
                        0.05171794071793556,
                        0.2180359661579132,
                        -0.2563956677913666,
                        -0.026161864399909973,
                        0.14716066420078278,
                        -0.025716209784150124,
                        -0.10271046310663223,
                        0.0367300920188427,
                        -0.06175633519887924,
                        -0.0037784557789564133,
                        0.00435846671462059,
                        -0.0009853303199633956,
                        0.020580701529979706,
                        0.0728086531162262,
                        -0.13844603300094604,
                        -0.2013440877199173,
                        0.04807037487626076,
                        -0.09444079548120499,
                        -0.11518753319978714,
                        -0.16752000153064728,
                        0.1259421855211258
                    ],
                    [
                        -0.11007525771856308,
                        -0.08312605321407318,
                        -0.009315681643784046,
                        0.06544671207666397,
                        -0.1501532793045044,
                        -0.1793588250875473,
                        0.30464187264442444,
                        -0.21748347580432892,
                        -0.20680327713489532,
                        0.14302650094032288,
                        0.34988364577293396,
                        -0.029116088524460793,
                        0.7721688747406006,
                        -0.46627166867256165,
                        1.1714198589324951,
                        -0.13153426349163055,
                        0.45296183228492737,
                        0.2780284583568573,
                        -0.2587721645832062,
                        -0.17496830224990845,
                        0.12531700730323792,
                        -0.10930310934782028,
                        0.09820554405450821,
                        0.17856915295124054,
                        0.36093664169311523,
                        0.3164343535900116,
                        -0.15527795255184174,
                        -0.25105199217796326,
                        0.2824637293815613,
                        -0.2461327314376831,
                        0.6395882368087769,
                        0.29040729999542236,
                        0.6286720037460327,
                        0.1928669810295105,
                        0.5144827961921692,
                        -0.16218198835849762,
                        0.435202419757843,
                        -0.05325561389327049,
                        0.13522472977638245,
                        0.3031245470046997,
                        0.25361761450767517,
                        0.21314585208892822,
                        -0.08090748637914658,
                        -0.48066410422325134,
                        0.304411917924881,
                        0.3618125915527344,
                        0.20715317130088806,
                        0.10262890160083771,
                        0.12662163376808167,
                        0.21187713742256165,
                        -0.3707251250743866,
                        -0.12148173153400421,
                        0.5072624683380127,
                        0.8696208000183105,
                        0.8928722143173218,
                        -0.06788621842861176,
                        0.6335470080375671,
                        0.2693914771080017,
                        -0.2121621072292328,
                        0.307650089263916,
                        -0.2632494270801544,
                        -0.04621569812297821,
                        -0.2811959683895111,
                        -0.25348037481307983,
                        -0.1505870223045349,
                        0.01947641372680664,
                        -0.01251174695789814,
                        -0.26451700925827026,
                        -0.10598604381084442,
                        -0.08089052140712738,
                        -0.013109279796481133,
                        -0.14224696159362793,
                        -0.19343732297420502,
                        0.024067997932434082,
                        -0.09518364071846008,
                        -0.048971377313137054,
                        0.09687530249357224,
                        0.48709169030189514,
                        -0.201294407248497,
                        -0.3812955915927887,
                        -0.08297359943389893,
                        -0.03732980787754059,
                        -0.04567692056298256,
                        -0.12375420331954956,
                        -0.1658831238746643,
                        0.09286589175462723,
                        0.044155992567539215,
                        -0.06963220983743668,
                        -0.14743293821811676,
                        0.05727950856089592,
                        -0.04163248836994171,
                        -0.23797325789928436,
                        -0.12040875852108002,
                        -0.15959733724594116,
                        -0.027322035282850266,
                        0.002759777009487152,
                        -0.00047054511378519237,
                        -0.07257149368524551,
                        0.06457492709159851,
                        -0.07150238007307053,
                        -0.16130222380161285,
                        -0.08737882226705551,
                        -0.06649342179298401,
                        0.03909604251384735,
                        0.11346305161714554,
                        0.03377290442585945,
                        0.048000313341617584,
                        -0.09805304557085037,
                        0.020045969635248184,
                        -0.1400882750749588,
                        -0.26908665895462036,
                        -0.10909117758274078,
                        0.08225491642951965,
                        -0.169330894947052,
                        -0.10693217813968658,
                        -0.09861086308956146,
                        -0.20694969594478607,
                        0.01719038188457489,
                        -0.09203669428825378,
                        0.08675187826156616,
                        -0.04364409297704697,
                        -0.2074112594127655,
                        0.035704441368579865,
                        0.06519541889429092,
                        0.12795208394527435,
                        -0.33778342604637146,
                        -0.017850972712039948,
                        0.06381399929523468,
                        0.005035087000578642,
                        -0.08533833920955658,
                        0.025379149243235588,
                        -0.13839279115200043,
                        -0.061866145581007004,
                        -0.17532986402511597,
                        -0.04395466670393944,
                        0.09279121458530426,
                        0.10417602211236954,
                        0.10223908722400665,
                        -0.04057276248931885,
                        0.1313566267490387,
                        -0.06132980063557625,
                        0.08465691655874252,
                        0.01835562475025654,
                        0.00017415423644706607,
                        -0.09038463234901428,
                        0.033560823649168015,
                        -0.1792343258857727,
                        -0.07845033705234528,
                        0.04721367731690407,
                        0.001266942243091762,
                        0.07415308058261871,
                        -0.03999525308609009,
                        0.06934928894042969,
                        0.15961307287216187,
                        0.1441635936498642,
                        0.1538141667842865,
                        0.14688889682292938,
                        0.025527819991111755,
                        -0.04697636514902115,
                        -0.1294744610786438,
                        -0.0825088694691658,
                        0.1297866404056549,
                        -0.0058037638664245605,
                        -0.12609116733074188,
                        0.11983942985534668,
                        0.22389566898345947,
                        0.08247435837984085,
                        -0.06557313352823257,
                        0.12205945700407028,
                        0.08954411745071411,
                        0.18264630436897278,
                        -0.0831102803349495,
                        0.009760507382452488,
                        -0.018061434850096703,
                        0.1261649876832962,
                        -0.1927240490913391,
                        0.046101950109004974,
                        -0.03444278985261917,
                        0.0741082951426506,
                        -0.007833308540284634,
                        0.18797582387924194,
                        0.05836810544133186,
                        0.14964443445205688,
                        0.029057882726192474,
                        -0.1420663744211197,
                        6.373945507220924e-05,
                        -0.005288467276841402,
                        -0.028945202007889748,
                        -0.03243069350719452,
                        0.013702175579965115,
                        0.16981180012226105,
                        0.137059286236763
                    ],
                    [
                        0.4158298075199127,
                        0.38316383957862854,
                        0.40585920214653015,
                        0.6792712807655334,
                        -0.16371680796146393,
                        0.3252953886985779,
                        -0.48035991191864014,
                        -0.07680319994688034,
                        -0.06997769325971603,
                        0.0789896696805954,
                        0.057376760989427567,
                        0.2917537987232208,
                        0.5175525546073914,
                        0.7719188332557678,
                        -0.1254051774740219,
                        0.6895661354064941,
                        0.46403035521507263,
                        0.17425093054771423,
                        -0.042863357812166214,
                        -0.35056236386299133,
                        0.7389628291130066,
                        -0.18861615657806396,
                        -0.07083264738321304,
                        0.28926393389701843,
                        0.4601931571960449,
                        -0.024447126314044,
                        -0.01248024683445692,
                        0.43135735392570496,
                        0.12572067975997925,
                        -0.057087939232587814,
                        0.5765405297279358,
                        0.04360736533999443,
                        0.9116486310958862,
                        0.63007652759552,
                        0.19290946424007416,
                        -0.28265780210494995,
                        -0.03675176203250885,
                        0.8094925284385681,
                        0.08336693793535233,
                        0.3977656066417694,
                        -0.2807154059410095,
                        0.6786983013153076,
                        -0.1581801325082779,
                        0.5210757255554199,
                        0.7456534504890442,
                        0.41878432035446167,
                        0.4591103196144104,
                        0.2754278779029846,
                        0.7928701043128967,
                        0.8742220997810364,
                        -0.1528259515762329,
                        0.19678370654582977,
                        0.2707345485687256,
                        -0.07165677100419998,
                        0.13507480919361115,
                        0.8910313844680786,
                        0.6304272413253784,
                        0.5867446064949036,
                        -0.18364514410495758,
                        0.8155381083488464,
                        -0.08919699490070343,
                        0.5332528948783875,
                        0.3433254361152649,
                        -0.13188129663467407,
                        -0.19367487728595734,
                        -0.17572909593582153,
                        -0.035419926047325134,
                        -0.11453533172607422,
                        -0.05068867653608322,
                        -0.07745246589183807,
                        -0.07680416852235794,
                        -0.09791744500398636,
                        0.11215070635080338,
                        -0.09971385449171066,
                        -0.08430864661931992,
                        -0.12384447455406189,
                        0.023912355303764343,
                        -0.38359886407852173,
                        -0.07444313168525696,
                        -0.0707474797964096,
                        0.03618047758936882,
                        -0.05842490494251251,
                        -0.06387244910001755,
                        -0.14706584811210632,
                        -0.015820732340216637,
                        -0.10026568174362183,
                        0.034554287791252136,
                        -0.00882443692535162,
                        0.003176787169650197,
                        -0.10155795514583588,
                        -0.09350167214870453,
                        0.15366819500923157,
                        -0.011202148161828518,
                        -0.08367404341697693,
                        -0.323170930147171,
                        -0.17152653634548187,
                        -0.16255556046962738,
                        -0.06214608997106552,
                        0.11249693483114243,
                        -0.09297041594982147,
                        0.1679966002702713,
                        0.2502026855945587,
                        0.10003548115491867,
                        -0.04527965560555458,
                        -0.0003348317404743284,
                        -0.11123107373714447,
                        -0.041657954454422,
                        -0.10869045555591583,
                        -0.058060962706804276,
                        -0.1446041762828827,
                        0.1948586255311966,
                        -0.024254659190773964,
                        -0.06116277724504471,
                        -0.09372717887163162,
                        0.03145822510123253,
                        -0.3025608956813812,
                        0.07569091767072678,
                        0.025407345965504646,
                        -0.11893420666456223,
                        -0.28198614716529846,
                        0.11060259491205215,
                        -0.018234524875879288,
                        -0.0013148010475561023,
                        0.07310538738965988,
                        0.06068955734372139,
                        0.244334876537323,
                        0.02346690371632576,
                        -0.07729906588792801,
                        -0.243003711104393,
                        0.14674100279808044,
                        -0.06401284784078598,
                        -0.08236552774906158,
                        -0.09905775636434555,
                        -0.011783638037741184,
                        -0.09895934164524078,
                        0.05296589806675911,
                        -0.052744992077350616,
                        0.08016017079353333,
                        0.04388538748025894,
                        -0.05433732643723488,
                        -0.12266773730516434,
                        -0.21559880673885345,
                        0.04810398817062378,
                        -0.08648830652236938,
                        0.03525866940617561,
                        0.0035734858829528093,
                        0.019031621515750885,
                        0.09157455712556839,
                        -0.0007037222967483103,
                        0.02782187983393669,
                        0.0828588604927063,
                        0.10612457245588303,
                        -0.012118689715862274,
                        -0.01562933437526226,
                        0.02934962697327137,
                        0.019309736788272858,
                        0.01795390248298645,
                        -0.04759351909160614,
                        0.04161238297820091,
                        -0.09318479150533676,
                        -0.1319752037525177,
                        -0.044041164219379425,
                        -0.12010633200407028,
                        0.00347346649505198,
                        0.11230956763029099,
                        0.021864207461476326,
                        -0.07594863325357437,
                        -0.02479085884988308,
                        0.05379991978406906,
                        -0.019691219553351402,
                        0.15356504917144775,
                        0.18334920704364777,
                        0.07422749698162079,
                        -0.182627335190773,
                        -0.15286363661289215,
                        0.2078661024570465,
                        -0.003862055717036128,
                        -0.013745502568781376,
                        0.01677163504064083,
                        -0.00026398422778584063,
                        -0.06431416422128677,
                        -0.05052454024553299,
                        -0.0020997014362365007,
                        -0.15548935532569885,
                        0.017504919320344925,
                        -0.06895031780004501,
                        -0.09522005915641785,
                        0.023769117891788483,
                        -0.04122183099389076,
                        -0.06007729470729828,
                        0.06188274547457695,
                        -0.01698426716029644
                    ],
                    [
                        0.024372410029172897,
                        0.508655846118927,
                        0.3421025574207306,
                        0.3884469270706177,
                        -0.37404438853263855,
                        0.29483434557914734,
                        -0.21374429762363434,
                        -0.4279569983482361,
                        -0.079644575715065,
                        0.030822858214378357,
                        0.47143685817718506,
                        0.5944051742553711,
                        0.4385751783847809,
                        1.2973636388778687,
                        0.7003416419029236,
                        0.8263922929763794,
                        0.48677459359169006,
                        0.10224412381649017,
                        -0.2343994379043579,
                        -0.30332860350608826,
                        0.7871686220169067,
                        0.09282157570123672,
                        0.021515076979994774,
                        0.8520235419273376,
                        1.0004453659057617,
                        -0.022124966606497765,
                        -0.351205438375473,
                        0.672905445098877,
                        0.4440450072288513,
                        -0.3445318341255188,
                        0.12568847835063934,
                        0.3628033399581909,
                        0.33031371235847473,
                        1.172960638999939,
                        0.047638051211833954,
                        -0.18010587990283966,
                        0.6318709850311279,
                        0.9631827473640442,
                        0.2803400754928589,
                        0.6430235505104065,
                        0.14937914907932281,
                        0.9063853621482849,
                        -0.039847616106271744,
                        1.908631443977356,
                        0.5344708561897278,
                        0.7066282629966736,
                        1.055351972579956,
                        0.8605971336364746,
                        0.7971722483634949,
                        1.4191486835479736,
                        -0.09836286306381226,
                        -0.4743849039077759,
                        0.4390385150909424,
                        -0.38934415578842163,
                        0.5383070707321167,
                        0.5905187129974365,
                        -0.0921245664358139,
                        0.7682839632034302,
                        -0.41067424416542053,
                        0.5207216739654541,
                        -0.020074840635061264,
                        0.9198883175849915,
                        0.20088312029838562,
                        -0.3746262490749359,
                        -0.07274513691663742,
                        0.0575055293738842,
                        0.057855915278196335,
                        0.0858367383480072,
                        0.02016332373023033,
                        0.04580644145607948,
                        -0.27913904190063477,
                        -0.02421935461461544,
                        0.14159820973873138,
                        -0.2473459094762802,
                        -0.15063278377056122,
