{
    "in_shape": [
        null,
        null,
        1
    ],
    "layers": [
        {
            "type": "gru",
            "activation": "tanh",
            "shape": [
                null,
                null,
                64
            ],
            "weights": [
                [
                    [
                        0.24817487597465515,
                        0.19038361310958862,
                        0.20515145361423492,
                        -0.04209490120410919,
                        -0.7378079295158386,
                        -0.55943763256073,
                        0.23576520383358002,
                        -0.0938284620642662,
                        -1.7192293405532837,
                        -0.2932412326335907,
                        1.7355984449386597,
                        -0.5093070268630981,
                        0.14083950221538544,
                        2.8644537925720215,
                        -0.4296533167362213,
                        -0.6587511301040649,
                        0.23117521405220032,
                        0.2712799906730652,
                        1.0761510133743286,
                        0.05044595152139664,
                        0.12270715832710266,
                        0.08012396097183228,
                        -0.714412271976471,
                        -1.395888090133667,
                        0.14171834290027618,
                        -1.1834304332733154,
                        0.055065836757421494,
                        -0.30724450945854187,
                        0.2699943780899048,
                        0.49081480503082275,
                        -0.324643075466156,
                        0.31198951601982117,
                        -0.9390339255332947,
                        0.02230074256658554,
                        -0.3122508227825165,
                        -0.3939554691314697,
                        0.4923411011695862,
                        -0.5230755805969238,
                        0.024229587987065315,
                        0.1719255894422531,
                        -0.7796754240989685,
                        1.2643852233886719,
                        0.10548114031553268,
                        0.29324671626091003,
                        0.5832909941673279,
                        -0.3536474406719208,
                        -0.35979896783828735,
                        -0.2749374806880951,
                        -0.8856982588768005,
                        0.5497244000434875,
                        -0.06004516780376434,
                        -1.5366266965866089,
                        0.2048214226961136,
                        0.18160216510295868,
                        -0.23095910251140594,
                        -0.16785793006420135,
                        0.1547260582447052,
                        0.03655245900154114,
                        0.2228248566389084,
                        -0.9240037798881531,
                        0.054066866636276245,
                        -0.4366514980792999,
                        -0.07093895971775055,
                        0.013041844591498375,
                        -0.14151684939861298,
                        0.03279256075620651,
                        0.174179807305336,
                        -0.267117440700531,
                        0.272446870803833,
                        0.5796180963516235,
                        -0.131648987531662,
                        -0.34251686930656433,
                        -1.0960334539413452,
                        -0.15128327906131744,
                        3.509181499481201,
                        0.0926094651222229,
                        0.22001156210899353,
                        0.8484655022621155,
                        -0.974395215511322,
                        0.2196609228849411,
                        0.11708968132734299,
                        0.13219794631004333,
                        0.8445821404457092,
                        0.07067180424928665,
                        -0.06150692701339722,
                        0.38989776372909546,
                        -0.4968412518501282,
                        -0.507512629032135,
                        0.005029330495744944,
                        0.8862013816833496,
                        0.0232346560806036,
                        -0.050178736448287964,
                        -0.160377636551857,
                        0.34751245379447937,
                        -0.036229632794857025,
                        0.5493377447128296,
                        -0.22081206738948822,
                        -0.09250499308109283,
                        0.5389294624328613,
                        0.2598547041416168,
                        1.5104689598083496,
                        -0.5517994165420532,
                        0.09939637780189514,
                        0.056837983429431915,
                        0.6862823963165283,
                        0.713934063911438,
                        -0.08515994250774384,
                        0.19602645933628082,
                        0.16912202537059784,
                        -0.31574496626853943,
                        -0.05228228494524956,
                        0.2756173610687256,
                        -0.09394357353448868,
                        -0.004029040690511465,
                        0.3083062469959259,
                        -0.4395480751991272,
                        -0.1034347414970398,
                        0.7928064465522766,
                        0.06509871780872345,
                        -0.07618201524019241,
                        0.10989093780517578,
                        -0.16818371415138245,
                        -0.10664617270231247,
                        0.5362639427185059,
                        0.43180519342422485,
                        -0.5498501062393188,
                        0.3025224804878235,
                        -0.06869307905435562,
                        0.08280082046985626,
                        0.04004960134625435,
                        1.142982840538025,
                        1.601844072341919,
                        2.055692434310913,
                        -0.21255822479724884,
                        -0.007382579613476992,
                        -0.2829486131668091,
                        -0.40379762649536133,
                        -0.606523334980011,
                        0.5868021845817566,
                        1.4682941436767578,
                        0.15605148673057556,
                        0.673883318901062,
                        2.7227532863616943,
                        1.0243133306503296,
                        -0.3762705326080322,
                        -0.13466568291187286,
                        -1.1971338987350464,
                        -0.44644680619239807,
                        0.09359154105186462,
                        0.3582223951816559,
                        -1.2989270687103271,
                        -0.5479016304016113,
                        0.6123141646385193,
                        2.640227794647217,
                        -1.2799253463745117,
                        3.3405239582061768,
                        -0.12150651961565018,
                        0.7323974967002869,
                        -0.7925142049789429,
                        0.32543137669563293,
                        -0.7859194278717041,
                        0.08277943730354309,
                        -0.2962314188480377,
                        1.2556829452514648,
                        -1.5258526802062988,
                        0.773094892501831,
                        0.08867387473583221,
                        -0.23316864669322968,
                        -0.14631961286067963,
                        -0.6712177991867065,
                        -0.1511959284543991,
                        0.17982645332813263,
                        0.17076031863689423,
                        0.35701248049736023,
                        -0.8982276320457458,
                        0.7372907996177673,
                        0.6141873598098755,
                        0.286093145608902,
                        -0.21792717278003693,
                        2.274946689605713,
                        -0.00289156474173069,
                        1.1499618291854858,
                        0.3232322037220001,
                        -0.40433716773986816,
                        -0.22357884049415588,
                        -0.05007532238960266,
                        0.013273474760353565,
                        1.663251519203186,
                        0.4158352315425873,
                        -1.3135955333709717,
                        0.34600794315338135,
                        0.2018526941537857
                    ]
                ],
                [
                    [
                        0.24094346165657043,
                        0.3750835061073303,
                        -0.6790518164634705,
                        -1.1856741905212402,
                        -1.27647066116333,
                        -0.3859494626522064,
                        0.3914228081703186,
                        0.419662207365036,
                        -0.6142091751098633,
                        -0.9348798990249634,
                        -0.07750973850488663,
                        -0.5873557925224304,
                        0.033915210515260696,
                        -0.3812704086303711,
                        -0.7342658638954163,
                        -0.6968367099761963,
                        -0.4283421039581299,
                        -0.004802236799150705,
                        -1.5670374631881714,
                        -0.3361946642398834,
                        0.44754207134246826,
                        -0.4409494996070862,
                        -0.5632258653640747,
                        -1.2036701440811157,
                        -0.423290878534317,
                        -0.9072544574737549,
                        -1.2021445035934448,
                        -1.0644593238830566,
                        0.3177424669265747,
                        -1.5734822750091553,
                        -0.4727914035320282,
                        -0.13082332909107208,
                        -0.664172887802124,
                        0.3672124445438385,
                        -0.2960338890552521,
                        -1.5026718378067017,
                        -1.8219813108444214,
                        -0.34777581691741943,
                        0.22183279693126678,
                        0.3690372705459595,
                        -0.056150082498788834,
                        -0.36901524662971497,
                        0.06289806216955185,
                        0.3455984592437744,
                        -0.22419604659080505,
                        0.03916045278310776,
                        -1.229414939880371,
                        -0.7792501449584961,
                        -0.4110073745250702,
                        0.31053391098976135,
                        -0.39966702461242676,
                        -1.0138261318206787,
                        0.2981506586074829,
                        -1.113824486732483,
                        0.025813760235905647,
                        -0.10591691732406616,
                        0.16518203914165497,
                        -0.3416576385498047,
                        0.36622974276542664,
                        -2.1412532329559326,
                        0.13459743559360504,
                        -0.8270515203475952,
                        -0.4164494574069977,
                        -0.20435795187950134,
                        0.009695710614323616,
                        -0.004904644563794136,
                        -0.2292833924293518,
                        0.2552333176136017,
                        0.9034093618392944,
                        0.03681844100356102,
                        0.021985914558172226,
                        -0.04900236055254936,
                        0.09286582469940186,
                        -0.16571855545043945,
                        0.436337411403656,
                        0.3210883140563965,
                        0.13955280184745789,
                        0.5087314248085022,
                        -0.12213034182786942,
                        0.12096299976110458,
                        -0.03655298799276352,
                        0.07571855187416077,
                        0.3730461895465851,
                        0.11862082779407501,
                        0.02665567584335804,
                        0.017598938196897507,
                        0.1330633908510208,
                        0.3614426553249359,
                        -0.03908046334981918,
                        0.912301242351532,
                        0.03988466039299965,
                        1.1065033674240112,
                        -0.004917634651064873,
                        0.03352583199739456,
                        -0.03304997831583023,
                        -0.06348846107721329,
                        0.18810641765594482,
                        -0.2758195400238037,
                        0.31336405873298645,
                        -0.2503181993961334,
                        0.5921648144721985,
                        -0.06758317351341248,
                        -0.0575476698577404,
                        0.10810936987400055,
                        -0.19390594959259033,
                        0.4822171628475189,
                        -0.33037060499191284,
                        -0.006483805365860462,
                        0.021663719788193703,
                        -0.08657372742891312,
                        -0.2049059420824051,
                        -0.024470733478665352,
                        0.36217477917671204,
                        0.3694099485874176,
                        -0.1326136440038681,
                        0.6567924618721008,
                        -0.0192544125020504,
                        0.451043963432312,
                        -0.030554000288248062,
                        0.11471465975046158,
                        -0.07821387052536011,
                        0.012196363881230354,
                        0.0013024451909586787,
                        0.9214569330215454,
                        -0.1637815535068512,
                        0.5117102861404419,
                        0.2152433544397354,
                        -0.16316954791545868,
                        0.16307616233825684,
                        0.15102513134479523,
                        -0.14845320582389832,
                        -0.2916731834411621,
                        -0.02969578094780445,
                        -0.005676287226378918,
                        -0.04071967676281929,
                        -0.1638077050447464,
                        0.27470332384109497,
                        -0.09294404834508896,
                        0.5845966339111328,
                        -0.017644263803958893,
                        0.21023331582546234,
                        -0.29618075489997864,
                        -0.1440778225660324,
                        -0.14417770504951477,
                        -0.15750056505203247,
                        0.1363052874803543,
                        -0.006721127778291702,
                        0.028157783672213554,
                        0.08921852707862854,
                        0.14940787851810455,
                        -0.21540555357933044,
                        0.09641074389219284,
                        0.11677119135856628,
                        -0.18159036338329315,
                        0.07430966198444366,
                        -0.4217064678668976,
                        0.04938514530658722,
                        -0.03008950501680374,
                        -0.048819974064826965,
                        0.011395310051739216,
                        -0.015873447060585022,
                        -0.04570268467068672,
                        0.029944907873868942,
                        -0.09515397250652313,
                        -0.0495525598526001,
                        -0.16638444364070892,
                        -0.02477875165641308,
                        0.1355145275592804,
                        0.25153008103370667,
                        0.04905643314123154,
                        -0.039566993713378906,
                        0.09323199838399887,
                        0.1442166566848755,
                        -0.11642590165138245,
                        -0.022110436111688614,
                        0.18514738976955414,
                        0.11480345577001572,
                        -0.08942578732967377,
                        -0.14081843197345734,
                        -0.01395621057599783,
                        0.01787983626127243,
                        0.020452070981264114,
                        -0.04816697537899017,
                        0.09431074559688568,
                        -0.1504172682762146,
                        0.012314588762819767,
                        -0.020468495786190033,
                        -0.07643900066614151,
                        0.07938399165868759,
                        0.11855954676866531,
                        0.05619668960571289,
                        -0.06545697152614594
                    ],
                    [
                        0.022633131593465805,
                        -0.05370881035923958,
                        0.04258009046316147,
                        0.1339316964149475,
                        -0.08080259710550308,
                        -0.2369711548089981,
                        -0.0184186864644289,
                        -0.3444139063358307,
                        -0.05577113479375839,
                        -0.21386733651161194,
                        0.11007023602724075,
                        0.07233686745166779,
                        -0.01725281961262226,
                        -0.4026983976364136,
                        -0.19128865003585815,
                        -0.433944433927536,
                        -0.03339250385761261,
                        -0.29310423135757446,
                        -0.12888261675834656,
                        -0.1055632159113884,
                        -0.28617677092552185,
                        -0.07258126139640808,
                        0.07566580176353455,
                        -0.17246413230895996,
                        -0.018575023859739304,
                        -0.049598317593336105,
                        -0.47318950295448303,
                        -0.1264847218990326,
                        -0.10543099790811539,
                        -0.1257779896259308,
                        0.1299767792224884,
                        0.22321906685829163,
                        0.17916667461395264,
                        -0.07146228849887848,
                        0.015771016478538513,
                        -0.19500501453876495,
                        -0.4465024471282959,
                        -0.18160821497440338,
                        -0.010506806895136833,
                        0.1944301426410675,
                        -0.06603673100471497,
                        -0.11221088469028473,
                        -0.22641132771968842,
                        -0.047781169414520264,
                        0.042954862117767334,
                        0.3210464417934418,
                        -0.44398993253707886,
                        -0.4123119115829468,
                        -0.16109371185302734,
                        -0.1773628294467926,
                        0.07643703371286392,
                        0.020957885310053825,
                        -0.004684512969106436,
                        -0.21464091539382935,
                        -0.2334914356470108,
                        0.10492999106645584,
                        -0.4076233506202698,
                        -0.2176900953054428,
                        -0.2251453846693039,
                        -0.4075053036212921,
                        -0.1359318494796753,
                        -0.18092240393161774,
                        0.05198576673865318,
                        -0.23070098459720612,
                        0.08344479650259018,
                        0.10447798669338226,
                        0.048557527363300323,
                        0.2696210741996765,
                        0.20568253099918365,
                        -0.04892506077885628,
                        0.0901983454823494,
                        0.07377232611179352,
                        -0.025800930336117744,
                        -0.08209658414125443,
                        0.007322769146412611,
                        -0.001015898073092103,
                        0.2088872194290161,
                        0.1302541196346283,
                        -0.1733666956424713,
                        0.12824015319347382,
                        0.06470935046672821,
                        -0.06944296509027481,
                        0.11002504080533981,
                        0.05679025501012802,
                        0.1121039018034935,
                        -0.13629548251628876,
                        -0.2694365978240967,
                        0.16803514957427979,
                        0.15692055225372314,
                        0.23120442032814026,
                        0.17398601770401,
                        0.09374341368675232,
                        0.06266885995864868,
                        0.052199192345142365,
                        0.08481771498918533,
                        -0.13396604359149933,
                        -0.15159128606319427,
                        0.011852646246552467,
                        0.16041332483291626,
                        -0.23593169450759888,
                        0.11305751651525497,
                        -0.19330309331417084,
                        -0.032516829669475555,
                        -0.045491475611925125,
                        0.27740922570228577,
                        0.17940784990787506,
                        0.0658605545759201,
                        0.04713481664657593,
                        0.10500681400299072,
                        0.01345705334097147,
                        -0.00963699072599411,
                        0.019492028281092644,
                        -0.004898732528090477,
                        0.04525544121861458,
                        -0.08108275383710861,
                        -0.04789567366242409,
                        0.08693118393421173,
                        0.17309142649173737,
                        0.13597527146339417,
                        -0.01425172109156847,
                        0.0726630911231041,
                        0.0704883486032486,
                        -0.12786248326301575,
                        0.27684542536735535,
                        0.003159872954711318,
                        0.21942482888698578,
                        0.10414990037679672,
                        0.19865626096725464,
                        0.1803872138261795,
                        0.06899464875459671,
                        -0.2309994101524353,
                        -0.11256619542837143,
                        -0.11380120366811752,
                        0.043105337768793106,
                        -0.02601039595901966,
                        -0.004967021755874157,
                        0.06887109577655792,
                        -0.08860733360052109,
                        0.0320194847881794,
                        0.03740396350622177,
                        0.15815064311027527,
                        -0.1305582970380783,
                        -0.1752815693616867,
                        -0.11870642006397247,
                        0.1176777258515358,
                        0.1708149015903473,
                        0.08207205682992935,
                        0.08877799659967422,
                        -0.11768730729818344,
                        0.11685661226511002,
                        -0.04316173493862152,
                        0.1494271457195282,
                        -0.01858874410390854,
                        -0.08885367214679718,
                        0.23213481903076172,
                        -0.21051856875419617,
                        -0.026924436911940575,
                        0.019509222358465195,
                        -0.10449724644422531,
                        -0.06492365151643753,
                        0.019860414788126945,
                        0.0017758205067366362,
                        -0.01099778525531292,
                        -0.11199429631233215,
                        0.18183749914169312,
                        0.08833716809749603,
                        0.10128304362297058,
                        0.24914494156837463,
                        0.25509920716285706,
                        0.24919475615024567,
                        0.1174786314368248,
                        0.2864440977573395,
                        0.01209559291601181,
                        0.019061293452978134,
                        0.006753896363079548,
                        -0.12619367241859436,
                        -0.19059833884239197,
                        0.1308276355266571,
                        -0.15045389533042908,
                        -0.05180798098444939,
                        -0.01841995120048523,
                        -0.3699902594089508,
                        0.11156801134347916,
                        -0.1713496744632721,
                        -0.26013413071632385,
                        0.12678997218608856,
                        -0.1677803248167038,
                        -0.05816236510872841,
                        0.2061837911605835,
                        -0.11444962024688721,
                        -0.0498768612742424,
                        -0.16704027354717255
                    ],
                    [
                        0.19028440117835999,
                        -0.20551899075508118,
                        0.36296528577804565,
                        -0.2296665757894516,
                        -0.6806643009185791,
                        -0.28703755140304565,
                        -0.1062360554933548,
                        0.5229151248931885,
                        -1.6866463422775269,
                        0.5402354598045349,
                        1.270331859588623,
                        -0.7334691286087036,
                        -0.03556381165981293,
                        2.256619453430176,
                        -0.3927452862262726,
                        -0.375033438205719,
                        0.41818657517433167,
                        0.11526897549629211,
                        -0.062026362866163254,
                        0.09176389127969742,
                        -0.19117371737957,
                        0.23966778814792633,
                        -0.5449935793876648,
                        -1.0755304098129272,
                        -0.1258430778980255,
                        -1.4153820276260376,
                        0.6626033186912537,
                        0.8923105597496033,
                        0.16784828901290894,
                        0.5827133059501648,
                        -0.36136946082115173,
                        0.4422091543674469,
                        -0.6988086700439453,
                        0.03144024685025215,
                        0.381238728761673,
                        0.39989256858825684,
                        -0.2788473963737488,
                        -0.3578121066093445,
                        -0.1560107320547104,
                        0.07787021994590759,
                        -0.7952611446380615,
                        0.3299238085746765,
                        0.09766101837158203,
                        -0.10443782061338425,
                        0.5078302621841431,
                        0.006391961593180895,
                        -0.007884889841079712,
                        -0.059931300580501556,
                        -0.7801693081855774,
                        0.030870091170072556,
                        0.04422525689005852,
                        -1.6317764520645142,
                        -0.2531125545501709,
                        -0.08467169851064682,
                        0.05947849154472351,
                        -0.13246992230415344,
                        -0.20869621634483337,
                        -0.4987674355506897,
                        0.11374320834875107,
                        0.3012828528881073,
                        -0.07249362021684647,
                        -0.4291909337043762,
                        0.17835603654384613,
                        0.15835453569889069,
                        -0.10886165499687195,
                        -0.2827814221382141,
                        0.286423921585083,
                        -0.3592934310436249,
                        -0.6340264678001404,
                        0.35533469915390015,
                        -0.08593898266553879,
                        -0.4602268934249878,
                        -1.12881338596344,
                        0.3492712676525116,
                        2.7174768447875977,
                        -0.4761475622653961,
                        0.31418657302856445,
                        0.9637498259544373,
                        -0.24062097072601318,
                        -0.1324744075536728,
                        -0.10799679905176163,
                        -0.05218944326043129,
                        -0.16895686089992523,
                        -0.3645983636379242,
                        -0.06413476169109344,
                        0.11542654782533646,
                        -0.46599897742271423,
                        -0.341891884803772,
                        -0.0997907966375351,
                        0.26377367973327637,
                        0.2742425203323364,
                        -0.700066328048706,
                        -0.3558354377746582,
                        0.501246988773346,
                        0.10514788329601288,
                        0.4392949938774109,
                        -0.2075878083705902,
                        0.04974232241511345,
                        0.21837012469768524,
                        0.13043808937072754,
                        0.5002126693725586,
                        -0.0019401565659791231,
                        -0.003621324896812439,
                        0.17071078717708588,
                        0.4078957438468933,
                        0.2888401448726654,
                        -0.1357201188802719,
                        -0.20034828782081604,
                        0.1467769891023636,
                        0.15258614718914032,
                        0.08819007873535156,
                        -0.07828379422426224,
                        -0.08889105916023254,
                        0.022791830822825432,
                        -0.09278528392314911,
                        -0.7066648602485657,
                        -0.16355890035629272,
                        0.1509523242712021,
                        -0.0658240094780922,
                        -0.16491426527500153,
                        -0.27915045619010925,
                        0.11677134037017822,
                        -0.15638133883476257,
                        0.17771896719932556,
                        0.3584391176700592,
                        -0.8716139793395996,
                        -0.05557020381093025,
                        -0.14805381000041962,
                        0.07196763157844543,
                        0.02749224379658699,
                        0.009078330360352993,
                        0.28845152258872986,
                        0.7728620767593384,
                        -0.17646794021129608,
                        -0.051304444670677185,
                        0.3927883505821228,
                        -0.8455495834350586,
                        -0.0368553027510643,
                        1.2709801197052002,
                        0.3141092360019684,
                        -0.8116874098777771,
                        0.9679904580116272,
                        -0.005154991522431374,
                        0.13087023794651031,
                        0.24689318239688873,
                        -0.0807161033153534,
                        -0.40962016582489014,
                        -0.09895869344472885,
                        -0.27107927203178406,
                        -0.3941892683506012,
                        -0.26440492272377014,
                        -0.6973579525947571,
                        0.005414721090346575,
                        1.2423139810562134,
                        -0.04782199487090111,
                        0.6382831931114197,
                        0.25928795337677,
                        0.3541701138019562,
                        -0.3263361155986786,
                        -0.5625287890434265,
                        -0.18046006560325623,
                        0.23962770402431488,
                        0.6255465745925903,
                        -0.1699662059545517,
                        -0.4263993799686432,
                        0.19192324578762054,
                        0.32583415508270264,
                        -0.15409395098686218,
                        -0.5589032769203186,
                        -0.525745153427124,
                        -0.07655712217092514,
                        0.090508833527565,
                        -0.472087562084198,
                        0.33911165595054626,
                        0.1127193346619606,
                        -0.09080825001001358,
                        0.3122292459011078,
                        -0.03525860235095024,
                        0.046847134828567505,
                        1.0028626918792725,
                        0.025648653507232666,
                        0.31984758377075195,
                        0.27182140946388245,
                        -0.3553369641304016,
                        0.014311157166957855,
                        -0.34362363815307617,
                        -0.15566381812095642,
                        0.4861942231655121,
                        -0.08900260180234909,
                        -0.6778427958488464,
                        -0.0467986986041069,
                        -0.03832465782761574
                    ],
                    [
                        0.5777446031570435,
                        -0.24426956474781036,
                        0.03771594539284706,
                        -0.13653291761875153,
                        -0.827822208404541,
                        -0.14801687002182007,
                        -0.03674793615937233,
                        0.1061217188835144,
                        -1.2994705438613892,
                        0.37039294838905334,
                        2.022327184677124,
                        -0.7987169027328491,
                        -0.3946017920970917,
                        2.2753541469573975,
                        -0.21199895441532135,
                        0.3886536955833435,
                        0.8932903409004211,
                        0.01813778467476368,
                        0.05754925310611725,
                        -0.19115766882896423,
                        0.15945304930210114,
                        -0.10467685759067535,
                        -0.43956491351127625,
                        -0.6847718358039856,
                        -0.10331156104803085,
                        -0.9158472418785095,
                        0.36236801743507385,
                        0.5295621752738953,
                        0.12192811071872711,
                        -0.3392205536365509,
                        -0.14846815168857574,
                        0.03076034225523472,
                        -0.6679056286811829,
                        -0.00542907090857625,
                        -0.1958446055650711,
                        -0.08837316930294037,
                        0.4041081964969635,
                        -0.23438408970832825,
                        0.04269393905997276,
                        0.40641695261001587,
                        -0.24158532917499542,
                        0.6189174652099609,
                        -0.04301632195711136,
                        -0.07198792695999146,
                        0.6522210836410522,
                        -0.4513867497444153,
                        0.3787764012813568,
                        0.8725298047065735,
                        -1.0122504234313965,
                        -0.019880011677742004,
                        -0.7682889699935913,
                        -1.8919283151626587,
                        -0.0037015138659626245,
                        -0.15339425206184387,
                        -0.19108028709888458,
                        -0.455374538898468,
                        -0.08926468342542648,
                        -0.140649676322937,
                        0.014982549473643303,
                        0.005266270600259304,
                        0.06268445402383804,
                        -0.4696250259876251,
                        0.010934406891465187,
                        -0.12418565154075623,
                        -0.12854422628879547,
                        0.011777604930102825,
                        0.07547830045223236,
                        0.3890545666217804,
                        -0.5730538368225098,
                        0.057051051408052444,
                        -0.04151083156466484,
                        0.11147895455360413,
                        -0.8817365169525146,
                        -0.1474122852087021,
                        2.6982462406158447,
                        0.02184714563190937,
                        -0.2479403018951416,
                        0.9428675770759583,
                        0.1330239325761795,
                        0.02611398510634899,
                        0.019175764173269272,
                        0.010359757579863071,
                        0.4013635516166687,
                        0.04532245174050331,
                        -0.07633350789546967,
                        0.058671895414590836,
                        0.11058229953050613,
                        -0.7830539345741272,
                        0.009331830777227879,
                        0.25175321102142334,
                        -0.044563282281160355,
                        -0.14675568044185638,
                        0.23521199822425842,
                        0.13831116259098053,
                        0.039322685450315475,
                        0.3120597004890442,
                        -0.059142615646123886,
                        0.3587118685245514,
                        0.40652909874916077,
                        0.21448057889938354,
                        0.7880727648735046,
                        -0.05511194095015526,
                        0.17443571984767914,
                        0.3553915023803711,
                        0.2600415349006653,
                        0.365442156791687,
                        -0.0401906743645668,
                        0.07962998002767563,
                        0.16657130420207977,
                        0.14670398831367493,
                        -0.21806691586971283,
                        0.09872959554195404,
                        0.0934055969119072,
                        0.013032817281782627,
                        0.1769818365573883,
                        -0.06477192789316177,
                        -0.027989638969302177,
                        -0.365263432264328,
                        -0.05368934944272041,
                        0.1022619977593422,
                        -0.016982706263661385,
                        -0.28296908736228943,
                        0.2067842334508896,
                        -0.24183788895606995,
                        0.07315990328788757,
                        -0.2003629058599472,
                        0.11572255939245224,
                        0.0968756452202797,
                        0.060339756309986115,
                        0.034555111080408096,
                        -0.1414586454629898,
                        0.29322826862335205,
                        0.5255978107452393,
                        0.179662823677063,
                        -0.024208247661590576,
                        0.011414973065257072,
                        -0.12433674186468124,
                        -0.0011195290135219693,
                        0.5184733271598816,
                        0.22710758447647095,
                        -0.20780274271965027,
                        0.43951964378356934,
                        0.02339312806725502,
                        0.061895713210105896,
                        0.1366874873638153,
                        -0.13038212060928345,
                        -0.38066136837005615,
                        -0.22276006639003754,
                        -0.10052032768726349,
                        -0.23874729871749878,
                        0.03365514799952507,
                        -0.3855174779891968,
                        -0.13025398552417755,
                        0.8727614283561707,
                        0.1011418029665947,
                        0.13211189210414886,
                        0.2065795212984085,
                        0.009371685795485973,
                        0.015439800918102264,
                        -0.19225162267684937,
                        -0.03528744354844093,
                        -0.023690007627010345,
                        0.32388612627983093,
                        0.07597865164279938,
                        -0.0563259981572628,
                        0.19826357066631317,
                        0.13073943555355072,
                        -0.19238652288913727,
                        -0.03559689223766327,
                        -0.08724565804004669,
                        -0.11608263105154037,
                        0.05137290433049202,
                        -0.19674398005008698,
                        -0.0633249282836914,
                        0.04024937376379967,
                        0.0740698054432869,
                        0.15114623308181763,
                        0.13674396276474,
                        0.12959519028663635,
                        0.6798014640808105,
                        -0.1468048244714737,
                        0.03247961401939392,
                        -0.007122968323528767,
                        -0.14281179010868073,
                        -0.016060754656791687,
                        -0.061777327209711075,
                        -0.12066923826932907,
                        0.1422683149576187,
                        -0.08713853359222412,
                        -0.10729221254587173,
                        0.1339675635099411,
                        0.07711666822433472
                    ],
                    [
                        0.5629367828369141,
                        -0.15790730714797974,
                        -0.7428466081619263,
                        -0.8611174821853638,
                        -1.3534965515136719,
                        -0.19018644094467163,
                        -0.07784795016050339,
                        0.28285956382751465,
                        -1.5596444606781006,
                        -0.1382661759853363,
                        1.9910991191864014,
                        -0.598901629447937,
                        -1.079126238822937,
                        1.53717041015625,
                        -0.9217503666877747,
                        0.2760958969593048,
                        0.3106786906719208,
                        -0.009333766996860504,
                        -0.853259801864624,
                        -0.18406416475772858,
                        0.2836998403072357,
                        -0.37616512179374695,
                        -0.7692558169364929,
                        -1.198560357093811,
                        -0.18700413405895233,
                        -2.1408770084381104,
                        -1.1097663640975952,
                        -1.6783417463302612,
                        0.05217801034450531,
                        -0.8173759579658508,
                        -0.3284815847873688,
                        0.002574334619566798,
                        -0.842536985874176,
                        0.02637507952749729,
                        -0.16372184455394745,
                        -0.6570041179656982,
                        0.6534547209739685,
                        -0.35080236196517944,
                        0.0369357094168663,
                        0.4357411861419678,
                        -1.0502575635910034,
                        0.668798565864563,
                        0.04011887311935425,
                        0.09544491022825241,
                        0.05103630945086479,
                        -0.14778949320316315,
                        -0.6466801166534424,
                        -0.7684623599052429,
                        -1.0209968090057373,
                        0.22631928324699402,
                        -0.5463064312934875,
                        -2.388885736465454,
                        -0.10413558036088943,
                        -0.3140927851200104,
                        -0.12507961690425873,
                        -0.2506971061229706,
                        0.062430545687675476,
                        -0.2684016823768616,
                        0.146844282746315,
                        -0.3770323395729065,
                        0.1509287804365158,
                        -1.0990850925445557,
                        -0.04595836251974106,
                        0.061884377151727676,
                        -0.0673196092247963,
                        -0.21017636358737946,
                        0.13393041491508484,
                        0.15126165747642517,
                        -0.6726343035697937,
                        -0.042981941252946854,
                        0.0005055469227954745,
                        -0.19512169063091278,
                        -1.3293085098266602,
                        0.11430644243955612,
                        3.114076852798462,
                        -0.1797727793455124,
                        -0.9307081699371338,
                        1.2976092100143433,
                        -0.07217219471931458,
                        0.14553071558475494,
                        0.0330783911049366,
                        -0.11304081231355667,
                        0.05176088213920593,
                        -0.043719034641981125,
                        -0.1779441386461258,
                        0.1560003161430359,
                        0.03214738890528679,
                        -0.7555083632469177,
                        -0.14518500864505768,
                        0.4894682765007019,
                        0.06531298160552979,
                        -0.09725581109523773,
                        -0.071192167699337,
                        0.4366649389266968,
                        0.08765047788619995,
                        0.14651767909526825,
                        -0.03651808202266693,
                        -0.05879739671945572,
                        0.41474732756614685,
                        -0.14523354172706604,
                        0.6991725564002991,
                        -0.02561381831765175,
                        -0.06551098823547363,
                        -0.23349720239639282,
                        1.3087612390518188,
                        0.48963895440101624,
                        -0.13775746524333954,
                        0.11403832584619522,
                        0.11436593532562256,
                        -0.11865983158349991,
                        0.1635410040616989,
                        0.1668546348810196,
                        -0.1938779652118683,
                        -0.11252578347921371,
                        0.0029147681780159473,
                        -0.31976717710494995,
                        -0.06240977346897125,
                        -0.1231546625494957,
                        0.03507465496659279,
                        -0.14384669065475464,
                        -0.15896929800510406,
                        -0.11421813815832138,
                        -0.06162652745842934,
                        0.4278797507286072,
                        0.0034986285027116537,
                        0.2779383063316345,
                        -0.09168493747711182,
                        -0.07679694145917892,
                        0.4016951322555542,
                        0.05693281441926956,
                        -0.11205887049436569,
                        -0.09966496378183365,
                        0.38844916224479675,
                        -0.03603459522128105,
                        -0.06841478496789932,
                        -0.01853071339428425,
                        -0.47984376549720764,
                        0.23877255618572235,
                        1.6520791053771973,
                        -0.04433822259306908,
                        -0.4247572720050812,
                        -0.0902591273188591,
                        -0.0909762755036354,
                        -0.16698196530342102,
                        0.14766113460063934,
                        -0.059249501675367355,
                        -0.383024662733078,
                        0.027471544221043587,
                        0.06360539048910141,
                        -0.18325084447860718,
                        -0.22460481524467468,
                        -0.5840389132499695,
                        -0.028203869238495827,
                        0.5852331519126892,
                        0.04364653304219246,
                        -0.16565130650997162,
                        0.013252154923975468,
                        -0.07546454668045044,
                        -0.12376657128334045,
                        -0.14183975756168365,
                        -0.08628712594509125,
                        0.1436118185520172,
                        0.22143466770648956,
                        -0.22032605111598969,
                        -0.1350477784872055,
                        0.07609498500823975,
                        0.062151454389095306,
                        -0.31595009565353394,
                        -0.8850176334381104,
                        -0.21163593232631683,
                        0.02879234403371811,
                        0.11762666702270508,
                        -0.15587954223155975,
                        0.0300888754427433,
                        0.01904594525694847,
                        0.10523692518472672,
                        -0.041686803102493286,
                        -0.010272006504237652,
                        0.05057370290160179,
                        0.22065281867980957,
                        -0.025612028315663338,
                        0.03275039419531822,
                        -0.0923803299665451,
                        0.02389584295451641,
                        -0.13353747129440308,
                        0.13371527194976807,
                        -0.02234569564461708,
                        0.025497831404209137,
                        0.013027007691562176,
                        0.056066397577524185,
                        0.13674287497997284,
                        0.06300423294305801
                    ],
                    [
                        0.2396305501461029,
                        -0.26815590262413025,
                        0.07884988933801651,
                        -0.21702006459236145,
                        0.06210824102163315,
                        0.11531782150268555,
                        -0.1905672550201416,
                        0.46027570962905884,
                        -0.13234597444534302,
                        0.28318870067596436,
                        -0.41002780199050903,
                        -0.36533504724502563,
                        0.07945214956998825,
                        -0.43897777795791626,
                        -0.11318735033273697,
                        0.22998516261577606,
                        0.1811884641647339,
                        0.5129498243331909,
                        0.04599850997328758,
                        0.16811056435108185,
                        0.25627169013023376,
                        0.20431794226169586,
                        -0.0448840968310833,
                        -0.16553889214992523,
                        -0.9709089398384094,
                        0.8679723739624023,
                        -0.5750580430030823,
                        0.18783356249332428,
                        0.33716994524002075,
                        0.11573541909456253,
                        -0.04710038751363754,
                        0.18133553862571716,
                        -0.12301454693078995,
                        0.22933077812194824,
                        0.651843786239624,
                        -0.13071444630622864,
                        -0.04439128562808037,
                        -0.10474803298711777,
                        0.1513863056898117,
                        0.26276350021362305,
                        0.46360456943511963,
                        -0.31571775674819946,
                        0.6148400902748108,
                        -0.12284062057733536,
                        0.4561100900173187,
                        0.01931360922753811,
                        0.5753074884414673,
                        0.40411195158958435,
                        0.030592402443289757,
                        0.4559032618999481,
                        0.08173130452632904,
                        0.23992381989955902,
                        -0.1919974982738495,
                        -0.025308601558208466,
                        0.06822947412729263,
                        0.04707968235015869,
                        -0.0006357827805913985,
                        0.36730167269706726,
                        0.43109607696533203,
                        0.36601120233535767,
                        -0.16901753842830658,
                        0.6538950800895691,
                        -0.34245339035987854,
                        0.40084633231163025,
                        0.09784664213657379,
                        -0.07816627621650696,
                        -0.1552874892950058,
                        -0.07732150703668594,
                        -0.06726469099521637,
                        0.2075168937444687,
                        -0.05749658867716789,
                        -0.16518960893154144,
                        0.20556612312793732,
                        0.014447701163589954,
                        -0.3149087131023407,
                        -0.02802439033985138,
                        -0.01910015381872654,
                        -0.5450003147125244,
                        0.12408770620822906,
                        0.01997145637869835,
                        -0.10631106048822403,
                        0.05893247574567795,
                        -0.006416026968508959,
                        0.019681010395288467,
                        -0.2258184552192688,
                        -0.1652570515871048,
                        -0.01966884918510914,
                        0.13035398721694946,
                        0.14085645973682404,
                        -0.36661195755004883,
                        -0.19127170741558075,
                        -0.17749156057834625,
                        -0.05525274947285652,
                        0.23327377438545227,
                        0.10593795031309128,
                        0.04764984920620918,
                        0.22832997143268585,
                        0.2218761444091797,
                        -0.04932054877281189,
                        0.20428144931793213,
                        -0.4079074263572693,
                        0.09243512898683548,
                        0.13309788703918457,
                        -0.11165003478527069,
                        -0.39035850763320923,
                        -0.13585524260997772,
                        0.010673648677766323,
                        0.05061371996998787,
                        -0.09633160382509232,
                        0.15532732009887695,
                        0.00736995367333293,
                        -0.03436444699764252,
                        0.35779887437820435,
                        0.15385808050632477,
                        0.03835400566458702,
                        0.08823912590742111,
                        -0.08147259801626205,
                        -0.48408234119415283,
                        0.15907295048236847,
                        0.1285187304019928,
                        -0.05149137228727341,
                        0.21860042214393616,
                        0.15699198842048645,
                        -0.7236882448196411,
                        -0.1425432413816452,
                        0.3605014681816101,
                        -0.0021310122683644295,
                        -0.06636713445186615,
                        -0.08136428892612457,
                        -0.1380225569009781,
                        0.12901978194713593,
                        -0.011674413457512856,
                        -0.08621443063020706,
                        0.1296246349811554,
                        0.08428869396448135,
                        -0.035588931292295456,
                        0.03253171965479851,
                        -0.09850470721721649,
                        0.08254748582839966,
                        -0.10027597099542618,
                        0.2472158521413803,
                        -0.05698419734835625,
                        -0.03944186493754387,
                        -0.11881083250045776,
                        0.002689715940505266,
                        0.1588914841413498,
                        0.026826336979866028,
                        -0.10362053662538528,
                        0.022013092413544655,
                        0.18190966546535492,
                        0.06604861468076706,
                        0.10192929208278656,
                        -0.025757141411304474,
                        0.03994571417570114,
                        -0.149086132645607,
                        0.009028660133481026,
                        -0.022750066593289375,
                        -0.031701382249593735,
                        0.05824940651655197,
                        -0.0020707116927951574,
                        0.05049348250031471,
                        -0.29566800594329834,
                        0.0449308380484581,
                        0.09516210108995438,
                        0.07030179351568222,
                        0.12115411460399628,
                        0.1310340315103531,
                        0.005680767819285393,
                        0.04588105157017708,
                        0.09344259649515152,
                        0.10496899485588074,
                        -0.06156175211071968,
                        0.06833218038082123,
                        -0.06579318642616272,
                        -0.14434552192687988,
                        -0.031669989228248596,
                        -0.21841081976890564,
                        -0.19030657410621643,
                        0.09718259423971176,
                        -0.007363279350101948,
                        -0.18027061223983765,
                        0.01874442771077156,
                        0.04022911936044693,
                        0.06816469877958298,
                        0.015567442402243614,
                        0.04239273816347122,
                        0.08785033971071243,
                        -0.0029330472461879253,
                        0.014804606325924397,
                        0.08775749802589417,
                        -0.025954049080610275,
                        0.005498961545526981
                    ],
                    [
                        0.1436224728822708,
                        -0.010704652406275272,
                        -0.6577098369598389,
                        -0.41279491782188416,
                        -0.20893347263336182,
                        0.014183199033141136,
                        -0.01335327047854662,
                        0.19790339469909668,
                        0.17559896409511566,
                        -0.1302199512720108,
                        0.10057190805673599,
                        -0.11613882333040237,
                        -0.25108417868614197,
                        0.22460399568080902,
                        -0.4435105621814728,
                        -0.21667233109474182,
                        -0.1545543223619461,
                        0.23929302394390106,
                        -0.2834187150001526,
                        -0.04245275259017944,
                        0.12117920070886612,
                        -0.3597628176212311,
                        -0.07843992114067078,
                        -0.11915551871061325,
                        -0.11299405246973038,
                        -0.48628509044647217,
                        0.019188519567251205,
                        -0.5141321420669556,
                        0.20559825003147125,
                        -0.07936041057109833,
                        0.042651623487472534,
                        -0.14277929067611694,
                        -0.3433874547481537,
                        0.07896962016820908,
                        -0.37622201442718506,
                        -0.040068138390779495,
                        0.07329969853162766,
                        -0.058735691010951996,
                        -0.020674757659435272,
                        -0.3358079195022583,
                        0.06320779770612717,
                        -0.23801852762699127,
                        0.024203576147556305,
                        0.007807761896401644,
                        -0.047010645270347595,
                        -0.44374191761016846,
                        -0.42011314630508423,
                        0.003043588250875473,
                        -0.018639272078871727,
                        0.3028319478034973,
                        -0.10779859870672226,
                        0.012968278490006924,
                        -0.040454696863889694,
                        -0.21749109029769897,
                        0.1505882441997528,
                        -0.1569543033838272,
                        0.037422869354486465,
                        -0.1528574675321579,
                        0.16330039501190186,
                        -0.3896789252758026,
                        0.12319910526275635,
                        -0.23781917989253998,
                        0.07937736064195633,
                        0.1079624816775322,
                        0.023628780618309975,
                        -0.0024560955353081226,
                        -0.18222682178020477,
                        0.04100940376520157,
                        -0.008172094821929932,
                        0.03393479064106941,
                        -0.04864902421832085,
                        0.05536341294646263,
                        -0.007649560458958149,
                        -0.02592170611023903,
                        0.16232478618621826,
                        -0.13384701311588287,
                        0.1178927943110466,
                        0.07924845814704895,
                        0.1677861213684082,
                        -0.09614168107509613,
                        0.1238579973578453,
                        0.06432916224002838,
                        -0.15316687524318695,
                        -0.020495938137173653,
                        0.040624164044857025,
                        0.0903283879160881,
                        0.11473331600427628,
                        0.23541057109832764,
                        0.07457878440618515,
                        -0.002010409953072667,
                        -0.13662093877792358,
                        0.16632771492004395,
                        0.004353283904492855,
                        0.06769643723964691,
                        0.043438658118247986,
                        6.633530574617907e-06,
                        -0.07796116173267365,
                        0.137262761592865,
                        0.09271518141031265,
                        0.13240395486354828,
                        -0.02851555310189724,
                        0.13084213435649872,
                        0.050003305077552795,
                        -0.03225177899003029,
                        0.0589081309735775,
                        -0.09572791308164597,
                        -0.027105221524834633,
                        0.059986867010593414,
                        -0.21782095730304718,
                        0.13260413706302643,
                        -0.05615290254354477,
                        -0.10073138773441315,
                        0.019195498898625374,
                        0.03294549882411957,
                        0.33381855487823486,
                        0.1480754315853119,
                        0.05361197888851166,
                        -0.1893637478351593,
                        -0.03566164895892143,
                        0.18694086372852325,
                        0.09262886643409729,
                        -0.10777122527360916,
                        0.062098901718854904,
                        -0.011637129820883274,
                        -0.05226798728108406,
                        0.07717079669237137,
                        0.1400556117296219,
                        -0.09568332135677338,
                        -0.04590895399451256,
                        -0.11964695900678635,
                        0.18499979376792908,
                        0.18245217204093933,
                        0.13971564173698425,
                        0.07407185435295105,
                        0.15962974727153778,
                        -0.09427377581596375,
                        -0.11504361778497696,
                        -0.016246074810624123,
                        0.05140812322497368,
                        0.17304684221744537,
                        0.11303067207336426,
                        0.020127957686781883,
                        0.05893215909600258,
                        -0.012757246382534504,
                        -0.06944269686937332,
                        -0.2108122855424881,
                        -0.14286668598651886,
                        -0.23855721950531006,
                        0.027246030047535896,
                        -0.24004711210727692,
                        -0.16300061345100403,
                        -0.09011801332235336,
                        0.044915571808815,
                        0.28171229362487793,
                        -0.26386919617652893,
                        0.1168183758854866,
                        -0.06288862228393555,
                        0.17906609177589417,
                        0.07335424423217773,
                        0.21566013991832733,
                        -0.10506225377321243,
                        0.023161238059401512,
                        0.1336595118045807,
                        0.06708397716283798,
                        -0.20590685307979584,
                        0.028969954699277878,
                        -0.22825224697589874,
                        -0.27546563744544983,
                        -0.2504355013370514,
                        -0.11648949980735779,
                        -0.1512637734413147,
                        -0.24909737706184387,
                        -0.03709757328033447,
                        -0.018268082290887833,
                        -0.06303765624761581,
                        0.0531592071056366,
                        0.035241883248090744,
                        -0.05938325449824333,
                        -0.015730958431959152,
                        0.0751178115606308,
                        -0.22542504966259003,
                        0.13585606217384338,
                        -0.0769415870308876,
                        0.011288917623460293,
                        0.06436510384082794,
                        -0.16604526340961456,
                        0.022100118920207024,
                        0.09743574261665344,
                        -0.13643048703670502,
                        0.029883157461881638,
                        0.23996877670288086,
                        0.10421668738126755
                    ],
                    [
                        0.21004219353199005,
                        0.2230561077594757,
                        0.31746986508369446,
                        0.0048529221676290035,
                        0.24900515377521515,
                        -0.32920435070991516,
                        0.0788869857788086,
                        0.6863261461257935,
                        -0.3482756018638611,
                        -0.06229986622929573,
                        -0.21040309965610504,
                        0.05714012682437897,
                        0.15667594969272614,
                        -0.49901536107063293,
                        0.6133156418800354,
                        0.008796283975243568,
                        0.10802117735147476,
                        0.23213323950767517,
                        0.5364155769348145,
                        -0.030342407524585724,
                        0.20356567203998566,
                        -0.35825058817863464,
                        -0.010670851916074753,
                        0.014022567309439182,
                        -0.03717407211661339,
                        0.053024210035800934,
                        0.16074992716312408,
                        0.890449583530426,
                        0.43310970067977905,
                        0.3032236397266388,
                        -0.24364584684371948,
                        0.18807320296764374,
                        -0.03197140991687775,
                        0.4180488586425781,
                        0.18263433873653412,
                        -0.5037024021148682,
                        -0.34622010588645935,
                        -0.20716626942157745,
                        0.32811984419822693,
                        0.346099317073822,
                        0.22914907336235046,
                        0.16291432082653046,
                        0.17245063185691833,
                        -0.19786320626735687,
                        -0.05759235471487045,
                        0.2141416221857071,
                        0.16708523035049438,
                        0.07276412099599838,
                        -0.013101521879434586,
                        0.2116437703371048,
                        -0.18368341028690338,
                        0.14134430885314941,
                        0.09301207214593887,
                        0.43259197473526,
                        0.1854952722787857,
                        0.006448298692703247,
                        0.26591408252716064,
                        0.6139122843742371,
                        0.2733580470085144,
                        -0.5821946859359741,
                        -0.0977686196565628,
                        -0.09038788080215454,
                        -0.14563007652759552,
                        0.04861419275403023,
                        0.013577528297901154,
                        0.036133963614702225,
                        -0.08848301321268082,
                        -0.23456689715385437,
                        -0.0012422731379047036,
                        -0.27364036440849304,
                        -0.3148914575576782,
                        0.23183293640613556,
                        0.1532393842935562,
                        0.18097269535064697,
                        -0.11562570929527283,
                        -0.1411237120628357,
                        -0.08809707313776016,
                        -0.35523858666419983,
                        -0.3706250488758087,
                        -0.586887001991272,
                        -0.3878266513347626,
                        -0.3462125062942505,
                        -0.3314625918865204,
                        -0.21642930805683136,
                        -0.25384753942489624,
                        -0.028754696249961853,
                        -0.08602390438318253,
                        0.5403052568435669,
                        -0.028344035148620605,
                        -0.15549752116203308,
                        -0.08700275421142578,
                        -0.20210301876068115,
                        0.029518205672502518,
                        -0.12388751655817032,
                        0.21145600080490112,
                        -0.21906426548957825,
                        0.22072724997997284,
                        -0.051488276571035385,
                        -0.19718250632286072,
                        -0.10356457531452179,
                        -0.4111456274986267,
                        0.25066861510276794,
                        -0.48710986971855164,
                        -0.24432966113090515,
                        -0.0101800337433815,
                        -0.2643292546272278,
                        -0.11874504387378693,
                        -0.1164994016289711,
                        -0.5381270051002502,
                        -0.04430992528796196,
                        -0.13384830951690674,
                        -0.19708019495010376,
                        -0.426626980304718,
                        0.020159652456641197,
                        -0.17144222557544708,
                        0.39185383915901184,
                        -0.14470238983631134,
                        0.07893820106983185,
                        -0.17887459695339203,
                        -0.14361195266246796,
                        -0.02334904484450817,
                        -0.24498596787452698,
                        -0.12690621614456177,
                        0.036465857177972794,
                        -0.017411110922694206,
                        -0.07320484519004822,
                        -0.14729216694831848,
                        -0.20812131464481354,
                        -0.0838698297739029,
                        0.05356636270880699,
                        -0.05179410055279732,
                        -0.21842992305755615,
                        -0.17349666357040405,
                        0.05721297487616539,
                        -0.21844296157360077,
                        0.04300409555435181,
                        0.10169406235218048,
                        -0.0006734703201800585,
                        0.3305380344390869,
                        -0.1871033012866974,
                        0.15322327613830566,
                        -0.38134944438934326,
                        -0.4062642753124237,
                        -0.1176971048116684,
                        0.0164300799369812,
                        0.022368859499692917,
                        0.17764036357402802,
                        0.05137261748313904,
                        0.008540567010641098,
                        0.09421639889478683,
                        0.24829649925231934,
                        0.09496700763702393,
                        -0.1367296427488327,
                        -0.2356574982404709,
                        0.052985016256570816,
                        -0.4148894250392914,
                        0.013323028571903706,
                        -0.1533963829278946,
                        0.008883100003004074,
                        0.024055378511548042,
                        0.1403922587633133,
                        -0.08267722278833389,
                        -0.10865675657987595,
                        -0.22657816112041473,
                        0.022632839158177376,
                        -0.23081539571285248,
                        -0.018580084666609764,
                        0.13066014647483826,
                        0.038330428302288055,
                        0.21589268743991852,
                        0.24842587113380432,
                        0.143166184425354,
                        0.08829934895038605,
                        -0.08099351823329926,
                        0.051901064813137054,
                        -0.061048999428749084,
                        -0.17469990253448486,
                        -0.30002543330192566,
                        0.047532565891742706,
                        -0.18974041938781738,
                        -0.05710909143090248,
                        -0.1287921667098999,
                        -0.1554948389530182,
                        0.09742895513772964,
                        0.18513652682304382,
                        0.1991184502840042,
                        0.03373948112130165,
                        -0.7131953835487366,
                        -0.00430821068584919,
                        0.19037242233753204,
                        -0.08133328706026077,
                        0.013584000058472157
                    ],
                    [
                        -0.2813377380371094,
                        0.06393059343099594,
                        -0.7930170893669128,
                        -0.2617003321647644,
                        -0.2548486590385437,
                        0.6537848114967346,
                        0.12810014188289642,
                        0.2985374629497528,
                        1.2646403312683105,
                        -0.9094467163085938,
                        -2.0613598823547363,
                        -0.07003577053546906,
                        0.3001035749912262,
                        -2.510702133178711,
                        -0.06352362036705017,
                        -0.9770795106887817,
                        -0.7345218658447266,
                        0.3033016622066498,
                        -0.5780578851699829,
                        -0.026560286059975624,
                        0.04972359165549278,
                        0.2822187542915344,
                        0.3653464913368225,
                        1.3579964637756348,
                        0.018171029165387154,
                        0.08685069531202316,
                        -0.6439530253410339,
                        -0.5351629853248596,
                        0.3544924855232239,
                        0.42159074544906616,
                        -0.2507098913192749,
                        -0.5347752571105957,
                        0.33110061287879944,
                        0.4741344749927521,
                        -0.125947043299675,
                        -0.4460531175136566,
                        -0.8400889039039612,
                        0.21368257701396942,
                        0.5552000403404236,
                        -0.9010571837425232,
                        0.4843846559524536,
                        -1.5529706478118896,
                        0.12912346422672272,
                        0.16892997920513153,
                        -0.8231238722801208,
                        0.43500691652297974,
                        -0.7044957280158997,
                        -0.3576493561267853,
                        0.36414721608161926,
                        0.7725511789321899,
                        0.6687861084938049,
                        0.4010920226573944,
                        0.12922261655330658,
                        -0.5581206679344177,
                        0.35205355286598206,
                        0.3999707102775574,
                        0.6522847414016724,
                        0.6432809233665466,
                        0.35205888748168945,
                        -1.2526124715805054,
                        -0.045793287456035614,
                        0.009017331525683403,
                        0.08803042769432068,
                        0.19578181207180023,
                        0.24861259758472443,
                        -0.01935473456978798,
                        -0.199465811252594,
                        0.09084668010473251,
                        0.3703688681125641,
                        0.01913585141301155,
                        0.02316238172352314,
                        0.1682823896408081,
                        0.35679903626441956,
                        -0.18962779641151428,
                        -1.3051323890686035,
                        0.24200749397277832,
                        1.3273695707321167,
                        -0.37785324454307556,
                        0.13960382342338562,
                        0.003006257815286517,
                        0.12767036259174347,
                        -0.045615941286087036,
                        0.14456793665885925,
                        0.20112966001033783,
                        0.05836040526628494,
                        -0.25142207741737366,
                        -0.001073163584806025,
                        0.45901036262512207,
                        0.02046022191643715,
                        0.1716441661119461,
                        -0.0019693318754434586,
                        0.4164791703224182,
                        0.08000438660383224,
                        -0.04718247056007385,
                        -0.024988912045955658,
                        -0.055266037583351135,
                        0.07148648798465729,
                        0.12191475182771683,
                        -0.08723116666078568,
                        0.0957086831331253,
                        -0.11183659732341766,
                        0.19735273718833923,
                        0.044366996735334396,
                        0.2232193797826767,
                        -0.9101250171661377,
                        -0.2403387427330017,
                        -0.10998130589723587,
                        0.030724365264177322,
                        -0.024011394008994102,
                        0.15652652084827423,
                        -0.14559926092624664,
                        -0.10149464011192322,
                        0.3101210296154022,
                        0.15247990190982819,
                        -0.009049581363797188,
                        0.363325297832489,
                        0.11620019376277924,
                        0.07530480623245239,
                        -0.057266976684331894,
                        0.01599184423685074,
                        -0.0796804130077362,
                        0.04208524525165558,
                        -0.07592613250017166,
                        0.04290240630507469,
                        -0.4164392948150635,
                        0.2878114581108093,
                        0.017893992364406586,
                        -0.04334428906440735,
                        0.0023609166964888573,
                        -0.06796877831220627,
                        0.10063423216342926,
                        -0.09376908838748932,
                        0.016390806064009666,
                        -0.003301597200334072,
                        0.01695246249437332,
                        -0.15730123221874237,
                        0.29814258217811584,
                        -0.004143767990171909,
                        0.00019915244774892926,
                        -0.05017518997192383,
                        0.18939369916915894,
                        -0.1554206907749176,
                        -0.08994357287883759,
                        0.07206788659095764,
                        -0.05660596862435341,
                        0.10778672248125076,
                        0.053925395011901855,
                        0.05886588990688324,
                        0.06307264417409897,
                        0.20286941528320312,
                        -0.023966917768120766,
                        0.07106903940439224,
                        0.08085709065198898,
                        -0.1759123057126999,
                        -0.044584110379219055,
                        -0.033329498022794724,
                        -0.07017946243286133,
                        0.04799995571374893,
                        -0.023540081456303596,
                        -0.12797589600086212,
                        0.01627403311431408,
                        -0.13371537625789642,
                        -0.16433177888393402,
                        0.23685280978679657,
                        -0.07549740374088287,
                        -0.19859082996845245,
                        -0.02371475286781788,
                        -0.10821963846683502,
                        0.21094419062137604,
                        -0.0861540138721466,
                        0.08342447131872177,
                        0.09802380204200745,
                        0.13586066663265228,
                        -0.15142470598220825,
                        0.1315060406923294,
                        0.08871279656887054,
                        -0.1834690421819687,
                        -0.18746910989284515,
                        -0.023307690396904945,
                        -0.07119841128587723,
                        -0.08822862803936005,
                        -0.13285988569259644,
                        0.009520433843135834,
                        0.030028844252228737,
                        0.06602124124765396,
                        -0.07647208124399185,
                        0.11910179257392883,
                        0.013780251145362854,
                        0.022852173075079918,
                        -0.01340713631361723,
                        0.1197267398238182,
                        -0.11500310897827148
                    ],
                    [
                        0.16814623773097992,
                        0.5211504101753235,
                        -0.5715339183807373,
                        0.5882874131202698,
                        0.01797143556177616,
                        -0.03334911912679672,
                        0.1698448210954666,
                        0.2736094295978546,
                        0.17654968798160553,
                        0.039807431399822235,
                        -0.02589791640639305,
                        0.23739269375801086,
                        -0.293783575296402,
                        -0.40916115045547485,
                        0.294290155172348,
                        0.5393159985542297,
                        -0.6593537926673889,
                        0.5440203547477722,
                        0.366171270608902,
                        0.0069968863390386105,
                        0.4528501033782959,
                        -0.27732133865356445,
                        0.024869656190276146,
                        0.051871415227651596,
                        0.11706239730119705,
                        0.2715228199958801,
                        0.2880036532878876,
                        -0.1874341368675232,
                        0.3475867807865143,
                        -0.361955851316452,
                        -0.06005530804395676,
                        -0.9706210494041443,
                        0.02881358563899994,
                        0.15225884318351746,
                        -0.738709568977356,
                        -0.008350362069904804,
                        0.5902854204177856,
                        -0.17965485155582428,
                        0.044694263488054276,
                        -0.12765325605869293,
                        -0.12686754763126373,
                        0.4406455159187317,
                        0.2675645649433136,
                        0.44273611903190613,
                        -1.0973103046417236,
                        -0.32112789154052734,
                        -0.029116472229361534,
                        0.28172945976257324,
                        0.1074143573641777,
                        0.5685034394264221,
                        -0.274161696434021,
                        0.03424438461661339,
                        0.19310534000396729,
                        0.31293734908103943,
                        0.0842965766787529,
                        -0.2969379425048828,
                        0.45549124479293823,
                        0.5426874756813049,
                        0.38025718927383423,
                        -0.12679742276668549,
                        0.2834536135196686,
                        -0.18830280005931854,
                        0.1194499284029007,
                        0.24252742528915405,
                        -0.07862595468759537,
                        -0.06730140745639801,
                        -0.4373548924922943,
                        -0.02969926968216896,
                        -0.13393592834472656,
                        -0.19484767317771912,
                        -0.18984201550483704,
                        0.07916455715894699,
                        0.4189082086086273,
                        -0.2507625222206116,
                        -0.30433645844459534,
                        -0.05289841815829277,
                        -0.42278581857681274,
                        -0.13967038691043854,
                        0.010153945535421371,
                        -0.08975167572498322,
                        -0.23052479326725006,
                        -0.0252503901720047,
                        -0.11825360357761383,
                        -0.06062311679124832,
                        -0.19173100590705872,
                        -0.005043215584009886,
                        0.21573927998542786,
                        0.17758874595165253,
                        -0.022002002224326134,
                        -0.3439628481864929,
                        -0.24773640930652618,
                        -0.062234874814748764,
                        -0.07719090580940247,
                        -0.024562519043684006,
                        -0.21550896763801575,
                        -0.08245576173067093,
                        0.06541352719068527,
                        -0.06556744873523712,
                        -0.15151692926883698,
                        0.09540976583957672,
                        -0.15201108157634735,
                        0.08354382961988449,
                        -0.00789052713662386,
                        -0.023438002914190292,
                        0.121422179043293,
                        -0.1030479222536087,
                        -0.08247087895870209,
                        -0.02266921103000641,
                        -0.2697094678878784,
                        0.013217699714004993,
                        -0.16485609114170074,
                        -0.25918394327163696,
                        0.18859505653381348,
                        -0.016497066244482994,
                        0.24637848138809204,
                        0.2519228756427765,
                        -0.04837910085916519,
                        -0.10680974274873734,
                        -0.06576214730739594,
                        0.09227576106786728,
                        0.08750464767217636,
                        -0.17676156759262085,
                        -0.11180795729160309,
                        -0.21167869865894318,
                        -0.17693257331848145,
                        0.46701401472091675,
                        0.05247030034661293,
                        -0.008886636234819889,
                        -0.019169937819242477,
                        -0.021279793232679367,
                        0.06286465376615524,
                        0.0008926714072003961,
                        -0.2975827753543854,
                        0.07931266725063324,
                        0.0004845279618166387,
                        -0.0076799276284873486,
                        0.3746102750301361,
                        0.05038273707032204,
                        -0.14912556111812592,
                        0.03377204015851021,
                        0.005811808630824089,
                        -0.3745247423648834,
                        0.0006025570328347385,
                        -0.025879651308059692,
                        -0.27527451515197754,
                        -0.04645437002182007,
                        -0.0292633268982172,
                        -0.031783509999513626,
                        0.24905118346214294,
                        0.035097260028123856,
                        0.08051683753728867,
                        0.3712555170059204,
                        0.11821720004081726,
                        -0.41440871357917786,
                        -0.09593184292316437,
                        -0.12464077770709991,
                        -0.12275504320859909,
                        -0.08348070830106735,
                        0.08981120586395264,
                        0.19307996332645416,
                        0.12091828137636185,
                        -0.09790142625570297,
                        -0.15753862261772156,
                        -0.04942914843559265,
                        0.2351759970188141,
                        -0.03927990049123764,
                        -0.34075498580932617,
                        0.21210303902626038,
                        -0.25057125091552734,
                        0.20913009345531464,
                        0.08483630418777466,
                        -0.0714765340089798,
                        0.29400181770324707,
                        -0.05243267863988876,
                        0.09502056241035461,
                        0.12406798452138901,
                        -0.08455748856067657,
                        -0.055618710815906525,
                        0.1497567594051361,
                        -0.38899004459381104,
                        -0.06744435429573059,
                        0.07667192816734314,
                        -0.11513881385326385,
                        0.040175821632146835,
                        0.07928420603275299,
                        0.09172150492668152,
                        0.062043026089668274,
                        -0.4238491654396057,
                        0.1656336933374405,
                        0.24280522763729095,
                        -0.04729822650551796,
                        -0.07565800845623016
                    ],
                    [
                        0.1758212447166443,
                        0.15227192640304565,
                        -0.7607861161231995,
                        -1.2383697032928467,
                        -0.6784839630126953,
                        -0.433948814868927,
                        0.1265561580657959,
                        -0.10432528704404831,
                        -2.0085859298706055,
                        -0.4639474153518677,
                        0.9755927324295044,
                        -1.0434499979019165,
                        -3.296436309814453,
                        0.538535475730896,
                        -1.4786039590835571,
                        -0.09477648138999939,
                        -0.009764270856976509,
                        0.1297386735677719,
                        -0.56824791431427,
                        -0.11303042620420456,
                        0.13155622780323029,
                        -0.7505043148994446,
                        -0.7983399629592896,
                        -1.2048566341400146,
                        -0.7624726891517639,
                        -1.5422565937042236,
                        -1.1372830867767334,
                        -2.03872013092041,
                        0.027133554220199585,
                        -1.571240782737732,
                        -0.7333884835243225,
                        -0.471630722284317,
                        -0.6668518781661987,
                        -0.030608564615249634,
                        -1.1471611261367798,
                        -1.8766932487487793,
                        -0.5356186032295227,
                        -0.6897487044334412,
                        0.1247212216258049,
                        0.22536274790763855,
                        -0.8242496848106384,
                        0.5960630178451538,
                        0.16976657509803772,
                        0.2577787935733795,
                        0.04739012196660042,
                        -0.2530202865600586,
                        -0.8783747553825378,
                        -1.1575559377670288,
                        -1.4261265993118286,
                        0.3660751283168793,
                        -1.0151180028915405,
                        -0.5918130278587341,
                        0.1440451443195343,
                        -0.7965402603149414,
                        -0.1469096839427948,
                        -0.42068418860435486,
                        0.30919796228408813,
                        0.3970201015472412,
                        0.2309759259223938,
                        -1.6109520196914673,
                        0.15341024100780487,
                        -1.7267718315124512,
                        -0.45818400382995605,
                        -0.024775955826044083,
                        -0.15142054855823517,
                        -0.06900389492511749,
                        -0.008291778154671192,
                        0.052351485937833786,
                        0.17118075489997864,
                        0.08434128761291504,
                        -0.02556053176522255,
                        -0.06026959791779518,
                        -0.6824511885643005,
                        0.07581430673599243,
                        1.1897324323654175,
                        -0.0723777636885643,
                        0.31610333919525146,
                        1.5022577047348022,
