{
    "in_shape": [
        null,
        null,
        1
    ],
    "layers": [
        {
            "type": "gru",
            "activation": "tanh",
            "shape": [
                null,
                null,
                64
            ],
            "weights": [
                [
                    [
                        0.09414920955896378,
                        -0.9444611072540283,
                        1.4309625625610352,
                        -0.13572607934474945,
                        0.14848704636096954,
                        -0.12086626142263412,
                        -0.18409331142902374,
                        -0.06589627265930176,
                        -0.0011071275221183896,
                        -0.09904799610376358,
                        0.08839301019906998,
                        0.0039206622168421745,
                        -0.6714484691619873,
                        -0.2482912689447403,
                        0.20688527822494507,
                        0.05562679097056389,
                        -1.0340766906738281,
                        -0.8462573289871216,
                        -0.20064856112003326,
                        -0.3807983100414276,
                        0.11467069387435913,
                        -0.21592551469802856,
                        -1.3459749221801758,
                        -0.5660175681114197,
                        -0.013061136938631535,
                        0.11930569261312485,
                        0.15376588702201843,
                        -0.42489874362945557,
                        0.6390634775161743,
                        0.11091192066669464,
                        -0.6501630544662476,
                        0.2504120469093323,
                        -1.0598167181015015,
                        -1.0233653783798218,
                        0.01672407239675522,
                        -0.11061160266399384,
                        0.2013281136751175,
                        -0.3174031972885132,
                        -1.8370511531829834,
                        -0.5310514569282532,
                        -0.21271556615829468,
                        -0.5355242490768433,
                        -0.1119721382856369,
                        -0.5521537065505981,
                        1.163043737411499,
                        0.10666370391845703,
                        -2.3376517295837402,
                        0.20574520528316498,
                        2.036951780319214,
                        -0.2982269823551178,
                        0.5588138699531555,
                        -0.21209892630577087,
                        0.23733797669410706,
                        -0.631872296333313,
                        1.7426683902740479,
                        0.32212573289871216,
                        0.07357822358608246,
                        -0.9744249582290649,
                        -0.8260416388511658,
                        0.9976813197135925,
                        0.2838478982448578,
                        0.20903854072093964,
                        -0.07119867205619812,
                        0.39883261919021606,
                        0.14971669018268585,
                        0.17002414166927338,
                        0.7377423048019409,
                        -1.3046176433563232,
                        0.14839017391204834,
                        -0.09898440539836884,
                        0.4216356575489044,
                        -0.6319895386695862,
                        0.34988605976104736,
                        0.3835009038448334,
                        -0.1304875910282135,
                        0.20910878479480743,
                        1.086044430732727,
                        -0.00539781991392374,
                        1.2159450054168701,
                        0.014095074497163296,
                        0.3000645339488983,
                        0.14709600806236267,
                        0.2617647349834442,
                        0.8541560769081116,
                        -0.07321617752313614,
                        -0.1701376736164093,
                        -2.7183215618133545,
                        0.7107704877853394,
                        -0.03667788207530975,
                        0.5019665956497192,
                        -0.1905195713043213,
                        -0.32802772521972656,
                        0.016695978119969368,
                        0.20283620059490204,
                        -0.10351601243019104,
                        -0.007037211675196886,
                        -0.6144087910652161,
                        -0.1575704663991928,
                        0.22332826256752014,
                        -0.21632283926010132,
                        -0.5687889456748962,
                        1.153456211090088,
                        -1.7263401746749878,
                        -0.39951178431510925,
                        -0.15008437633514404,
                        -0.4930401146411896,
                        0.5405636429786682,
                        -0.2847737669944763,
                        -0.17191992700099945,
                        0.003287980565801263,
                        -0.13154436647891998,
                        -0.12354737520217896,
                        2.4565985202789307,
                        0.7323919534683228,
                        0.9030842185020447,
                        0.0066726855002343655,
                        0.29928094148635864,
                        -0.03302539885044098,
                        1.4031322002410889,
                        -0.9061727523803711,
                        -0.6452817320823669,
                        1.1676424741744995,
                        0.5324116945266724,
                        0.5125070214271545,
                        0.27116692066192627,
                        -0.12288885563611984,
                        0.2359599769115448,
                        0.7796183824539185,
                        -0.00927736796438694,
                        0.01780167780816555,
                        -0.9140228629112244,
                        0.778927206993103,
                        -0.6518934369087219,
                        -0.44301149249076843,
                        -0.20277701318264008,
                        0.22202076017856598,
                        0.037425506860017776,
                        0.4027363061904907,
                        -0.05054207891225815,
                        -0.14253367483615875,
                        -1.39286470413208,
                        -0.27041730284690857,
                        -0.9804956912994385,
                        -0.18240128457546234,
                        0.2303089201450348,
                        -2.870314121246338,
                        0.7081679105758667,
                        -1.1759508848190308,
                        -0.002470845589414239,
                        0.27102309465408325,
                        -0.3732896149158478,
                        0.3231107294559479,
                        -0.0058283731341362,
                        -0.5263937711715698,
                        -0.12731711566448212,
                        0.09116889536380768,
                        -1.2459185123443604,
                        0.04759455472230911,
                        -0.1630941778421402,
                        -0.2036263644695282,
                        -0.7652623653411865,
                        -1.2602850198745728,
                        0.1569439321756363,
                        -0.8981209993362427,
                        0.3212219178676605,
                        -0.5019068121910095,
                        -1.1368757486343384,
                        0.7017660737037659,
                        -0.3106183111667633,
                        -1.4973887205123901,
                        1.5806958675384521,
                        -0.2831629812717438,
                        2.648256778717041,
                        0.04943009465932846,
                        -1.3349796533584595,
                        -0.24907688796520233,
                        -0.8335269689559937,
                        -0.3888278007507324,
                        -0.7800268530845642,
                        0.10680641233921051,
                        0.6329866647720337,
                        1.6176539659500122,
                        1.288636326789856,
                        0.5169761180877686,
                        1.1350806951522827,
                        -0.007958185859024525,
                        0.2680547833442688,
                        0.35021182894706726,
                        -0.7445964217185974,
                        -0.7149495482444763,
                        0.11806825548410416,
                        1.7590662240982056
                    ]
                ],
                [
                    [
                        0.05958272144198418,
                        -0.5047427415847778,
                        0.1546231359243393,
                        -0.2655585706233978,
                        0.0858796015381813,
                        0.12781871855258942,
                        -0.15753914415836334,
                        0.039649877697229385,
                        0.01636102795600891,
                        -0.23958656191825867,
                        0.2462441772222519,
                        0.10679947584867477,
                        -0.388650119304657,
                        -0.0327991247177124,
                        0.28428953886032104,
                        0.16579951345920563,
                        -0.581562876701355,
                        -0.4560667872428894,
                        -0.19073019921779633,
                        -0.047781992703676224,
                        0.08819791674613953,
                        0.021147605031728745,
                        -0.23113536834716797,
                        -0.39497509598731995,
                        0.19814196228981018,
                        -0.172445148229599,
                        0.23294991254806519,
                        -0.2615227699279785,
                        -0.4764273762702942,
                        0.11522191762924194,
                        -0.3300212323665619,
                        0.38328778743743896,
                        -0.14451290667057037,
                        -0.5408812761306763,
                        0.033795375376939774,
                        -0.2430310696363449,
                        -0.38873085379600525,
                        -0.2686973214149475,
                        -0.09365812689065933,
                        -0.29304900765419006,
                        -0.22522439062595367,
                        -0.557887613773346,
                        -0.2769858241081238,
                        -0.22345545887947083,
                        -0.11479033529758453,
                        0.028329860419034958,
                        -0.12512393295764923,
                        0.037693481892347336,
                        0.17232319712638855,
                        -0.46383896470069885,
                        0.09851288795471191,
                        -0.05591461807489395,
                        0.060683514922857285,
                        -0.5404152870178223,
                        -0.3428399860858917,
                        0.22176916897296906,
                        -0.16077396273612976,
                        -0.26751038432121277,
                        -0.5023635029792786,
                        0.039859212934970856,
                        0.03300231322646141,
                        -0.047485142946243286,
                        0.02768435701727867,
                        -0.12562355399131775,
                        0.05004294589161873,
                        0.2898048758506775,
                        0.06765040755271912,
                        0.1953364759683609,
                        -0.026697183027863503,
                        -0.11432073265314102,
                        0.30305299162864685,
                        -0.012717816978693008,
                        0.07292794436216354,
                        0.025492526590824127,
                        0.04735496640205383,
                        -0.03302345052361488,
                        0.20926931500434875,
                        -0.14766305685043335,
                        -0.06219406798481941,
                        0.09993282705545425,
                        0.1413758546113968,
                        -0.1817958801984787,
                        0.08971253782510757,
                        0.020855458453297615,
                        -0.017189687117934227,
                        0.009281428530812263,
                        -0.12633003294467926,
                        0.2647596299648285,
                        -0.010412602685391903,
                        0.14926917850971222,
                        0.00785071961581707,
                        0.29887285828590393,
                        0.055507510900497437,
                        0.006169041618704796,
                        0.06947661936283112,
                        -0.08993208408355713,
                        -0.11679883301258087,
                        0.1998938024044037,
                        0.07645159959793091,
                        0.0479227751493454,
                        0.10539878159761429,
                        0.1048286184668541,
                        0.29936397075653076,
                        0.08740226924419403,
                        0.09501086920499802,
                        -0.28244873881340027,
                        0.14000464975833893,
                        -0.08880972117185593,
                        0.04121595621109009,
                        -0.043384067714214325,
                        0.13355445861816406,
                        -0.07413288950920105,
                        0.026756402105093002,
                        0.3145212233066559,
                        -0.05361628532409668,
                        -0.14236515760421753,
                        0.0580538846552372,
                        0.11636869609355927,
                        0.20856693387031555,
                        -0.15498262643814087,
                        0.10861099511384964,
                        0.304930716753006,
                        -0.12850050628185272,
                        0.12321212142705917,
                        0.4215777814388275,
                        0.03544467315077782,
                        0.028627052903175354,
                        -0.08777821809053421,
                        0.03746667504310608,
                        0.013546300120651722,
                        0.05714096501469612,
                        -0.1570882797241211,
                        -0.12295788526535034,
                        0.07668080925941467,
                        -0.02436574175953865,
                        0.04671798273921013,
                        -0.06030573323369026,
                        -0.05381279066205025,
                        -0.040677446871995926,
                        -0.15595896542072296,
                        -0.05230601876974106,
                        0.04687953367829323,
                        -0.19174817204475403,
                        -0.043825943022966385,
                        -0.026466792449355125,
                        -0.278785765171051,
                        -0.04272890090942383,
                        -0.10929419845342636,
                        -0.020522138103842735,
                        0.022976074367761612,
                        0.000981481047347188,
                        -0.14288698136806488,
                        0.06840091943740845,
                        -0.034401848912239075,
                        -0.1470264345407486,
                        -0.06214315444231033,
                        -0.0880718007683754,
                        -0.08698195964097977,
                        0.10568823665380478,
                        0.02931196056306362,
                        -0.13628120720386505,
                        0.07384715974330902,
                        0.07388661801815033,
                        -0.10122063755989075,
                        -0.01669863797724247,
                        -0.17685304582118988,
                        0.06912534683942795,
                        -0.12412505596876144,
                        0.0744226947426796,
                        -0.0661376565694809,
                        0.1377120465040207,
                        0.09838026016950607,
                        0.19708646833896637,
                        -0.11024229973554611,
                        -0.14176104962825775,
                        -0.1473694145679474,
                        -0.20433971285820007,
                        -0.1279960572719574,
                        -0.0020012734457850456,
                        0.14782972633838654,
                        0.047817375510931015,
                        0.039893314242362976,
                        0.07017882168292999,
                        0.056271523237228394,
                        0.03602173924446106,
                        0.10109695047140121,
                        0.007054932415485382,
                        -0.087581105530262,
                        -0.2519187331199646,
                        -0.10494018346071243,
                        -0.07976927608251572,
                        0.182999387383461
                    ],
                    [
                        0.3953348696231842,
                        -0.40911972522735596,
                        -0.1868581771850586,
                        -0.5284829139709473,
                        -0.3435485064983368,
                        -0.1299092024564743,
                        -0.25973284244537354,
                        -0.2513216435909271,
                        -0.0092996247112751,
                        0.46171748638153076,
                        0.20966731011867523,
                        0.2099105417728424,
                        0.16300439834594727,
                        0.06680260598659515,
                        -0.6921051740646362,
                        0.6062523722648621,
                        -0.03690946474671364,
                        0.13667525351047516,
                        -0.24640651047229767,
                        -0.45256277918815613,
                        0.041432205587625504,
                        0.2592926323413849,
                        0.7899490594863892,
                        0.7771784663200378,
                        0.17376069724559784,
                        -0.28418684005737305,
                        0.29196658730506897,
                        0.057148903608322144,
                        -0.5814511179924011,
                        0.189657524228096,
                        -0.13970112800598145,
                        0.20133937895298004,
                        0.3891202509403229,
                        0.2952055335044861,
                        -0.1170177012681961,
                        -0.9483426213264465,
                        -0.035067539662122726,
                        -0.19780263304710388,
                        0.3919909596443176,
                        -0.0918474867939949,
                        -0.6783449053764343,
                        0.08484597504138947,
                        -0.30372291803359985,
                        0.2314220368862152,
                        -0.43109700083732605,
                        0.25793009996414185,
                        0.7456885576248169,
                        -0.12910142540931702,
                        -1.498583436012268,
                        0.13990220427513123,
                        -0.8270021080970764,
                        0.4699697196483612,
                        -0.5798095464706421,
                        -0.042530495673418045,
                        -1.1058419942855835,
                        -0.45008012652397156,
                        -1.0616605281829834,
                        -0.17340265214443207,
                        -0.13551782071590424,
                        -0.2589356303215027,
                        -1.0331681966781616,
                        -0.3568277955055237,
                        0.2812640070915222,
                        -1.6904666423797607,
                        0.028615664690732956,
                        0.00022026045189704746,
                        0.16980890929698944,
                        -0.012101033702492714,
                        -0.04504714161157608,
                        0.0678824707865715,
                        -0.1337752640247345,
                        0.22817085683345795,
                        0.04692594334483147,
                        0.008005687966942787,
                        0.12137681990861893,
                        -0.07552565634250641,
                        0.04614122211933136,
                        0.03600992262363434,
                        -0.12072505801916122,
                        0.10922253876924515,
                        0.1354401707649231,
                        0.4384533762931824,
                        0.12171628326177597,
                        0.2177330106496811,
                        0.05123564973473549,
                        0.0798531323671341,
                        0.40210217237472534,
                        -0.2819262444972992,
                        -0.06894189119338989,
                        -0.011743203736841679,
                        0.06134951859712601,
                        0.2645406723022461,
                        0.055868327617645264,
                        0.06140188127756119,
                        0.12246756255626678,
                        0.18233352899551392,
                        0.3988363444805145,
                        0.5109379291534424,
                        0.1593789905309677,
                        0.06973038613796234,
                        0.2608626186847687,
                        -0.13293877243995667,
                        1.0877405405044556,
                        0.1408744603395462,
                        0.15084227919578552,
                        0.3988853693008423,
                        0.15266050398349762,
                        0.17549940943717957,
                        0.19521692395210266,
                        0.05621328577399254,
                        0.12282077223062515,
                        -0.17752866446971893,
                        -0.3324558734893799,
                        0.0009114118292927742,
                        0.023467732593417168,
                        0.049789294600486755,
                        0.2399347722530365,
                        0.23205888271331787,
                        -0.4461401402950287,
                        0.15835437178611755,
                        0.06855559349060059,
                        -0.11370238661766052,
                        0.4156673848628998,
                        -0.07090692222118378,
                        -0.06601714342832565,
                        0.018706360831856728,
                        0.04544690251350403,
                        -0.3070707619190216,
                        0.18385013937950134,
                        -0.03023596666753292,
                        0.006751157343387604,
                        -0.1526205986738205,
                        0.05521521344780922,
                        0.1094151958823204,
                        -0.26064443588256836,
                        -0.16358475387096405,
                        -0.037627361714839935,
                        0.05048239976167679,
                        0.0630420371890068,
                        0.04817093908786774,
                        -0.20793285965919495,
                        0.04354984313249588,
                        0.08420183509588242,
                        -0.15860995650291443,
                        -0.3281780779361725,
                        0.11034661531448364,
                        -0.22825025022029877,
                        -0.14151683449745178,
                        -0.019296403974294662,
                        -0.06991591304540634,
                        -0.02562025561928749,
                        0.13387782871723175,
                        -0.09767445921897888,
                        -0.1487402766942978,
                        0.019099736586213112,
                        -0.14802034199237823,
                        -0.09240144491195679,
                        -0.050618477165699005,
                        0.10021444410085678,
                        0.04800640791654587,
                        0.04306850582361221,
                        -0.09517687559127808,
                        0.09289023280143738,
                        -0.06802365183830261,
                        -0.005179880652576685,
                        -0.1195906475186348,
                        -0.11019826680421829,
                        0.11645965278148651,
                        0.00012621463974937797,
                        -0.021704362705349922,
                        -0.03421860933303833,
                        -0.08858513087034225,
                        0.23250430822372437,
                        0.09958956390619278,
                        -0.01528974436223507,
                        0.01067254226654768,
                        0.03340217098593712,
                        -0.1728360950946808,
                        0.021802010014653206,
                        0.07823260128498077,
                        -0.04485023394227028,
                        0.05039749667048454,
                        0.1822659969329834,
                        -0.12614355981349945,
                        0.08639248460531235,
                        0.18845537304878235,
                        -0.041778188198804855,
                        0.18990564346313477,
                        -0.03147140517830849,
                        0.19424226880073547,
                        -0.05900242552161217,
                        0.11633242666721344
                    ],
                    [
                        -0.05006915703415871,
                        0.5209170579910278,
                        -0.43902963399887085,
                        -0.039617691189050674,
                        -0.3772204518318176,
                        -0.08587825298309326,
                        -0.9545553922653198,
                        0.4716660976409912,
                        -0.14684046804904938,
                        0.42309659719467163,
                        -0.7809580564498901,
                        0.1655653715133667,
                        0.6105693578720093,
                        -0.08934734016656876,
                        -1.0639877319335938,
                        0.14251667261123657,
                        0.7634751796722412,
                        0.5443578958511353,
                        0.43410515785217285,
                        0.04038221016526222,
                        0.026017198339104652,
                        0.16571205854415894,
                        1.2696346044540405,
                        1.0424636602401733,
                        -0.23577366769313812,
                        -0.21342042088508606,
                        0.044493936002254486,
                        0.552788496017456,
                        -0.8859277367591858,
                        -0.22491838037967682,
                        1.2453619241714478,
                        -0.08153916895389557,
                        -0.0053717344999313354,
                        1.424238920211792,
                        0.1397455781698227,
                        -0.8602349162101746,
                        -0.20965997874736786,
                        -0.2451801300048828,
                        0.979617714881897,
                        0.4711229205131531,
                        0.10710518062114716,
                        0.1387481838464737,
                        -0.09682517498731613,
                        0.262462854385376,
                        -1.036252498626709,
                        0.14276543259620667,
                        1.484358787536621,
                        -0.4642152488231659,
                        -2.4615163803100586,
                        -0.17618128657341003,
                        -0.6207966804504395,
                        -0.3153683543205261,
                        -0.629584014415741,
                        0.1294487565755844,
                        -1.1382381916046143,
                        -0.8790267705917358,
                        -0.8744587898254395,
                        0.8531771898269653,
                        -0.3580038249492645,
                        -0.7090542912483215,
                        -1.4031593799591064,
                        -0.3701355755329132,
                        0.09957977384328842,
                        -1.522613286972046,
                        0.04647808149456978,
                        -0.24089579284191132,
                        0.13703210651874542,
                        -0.23958340287208557,
                        0.26079562306404114,
                        0.01767711527645588,
                        0.05033164098858833,
                        0.196905717253685,
                        0.002369635971263051,
                        0.12202467024326324,
                        0.25042590498924255,
                        0.2971648573875427,
                        -0.13730846345424652,
                        0.28228721022605896,
                        -0.3978811204433441,
                        -0.05094638466835022,
                        -0.36520761251449585,
                        0.44831547141075134,
                        -0.450392484664917,
                        -0.2770121395587921,
                        0.17613159120082855,
                        -0.1419832855463028,
                        1.9380030632019043,
                        -0.41359010338783264,
                        0.24197132885456085,
                        0.1745569258928299,
                        0.1081819087266922,
                        -0.1533273160457611,
                        0.2668475806713104,
                        0.17090830206871033,
                        0.03503384068608284,
                        0.04940114915370941,
                        0.504021406173706,
                        0.08724045008420944,
                        0.2865746319293976,
                        0.14263726770877838,
                        -0.09332363307476044,
                        0.040703561156988144,
                        1.9734749794006348,
                        -0.01831032894551754,
                        0.06308034807443619,
                        0.41882652044296265,
                        0.20444704592227936,
                        -0.13729353249073029,
                        0.8356991410255432,
                        0.1965150237083435,
                        0.08726971596479416,
                        -0.13923239707946777,
                        -1.5844815969467163,
                        0.021733326837420464,
                        0.07697656750679016,
                        0.15387189388275146,
                        0.33414697647094727,
                        0.5595098733901978,
                        -1.0402976274490356,
                        0.46862173080444336,
                        -0.06517910212278366,
                        -0.42926985025405884,
                        0.11178019642829895,
                        -0.24097883701324463,
                        -1.1458195447921753,
                        -0.04577813297510147,
                        0.0753069669008255,
                        -0.16427166759967804,
                        -0.0790620744228363,
                        0.18038170039653778,
                        0.09854333847761154,
                        -0.0012205522507429123,
                        -0.23109588027000427,
                        -0.2151213139295578,
                        -0.11279112845659256,
                        0.28324204683303833,
                        0.0756739005446434,
                        0.16853061318397522,
                        -0.11297867447137833,
                        -0.16567710041999817,
                        -0.10842464864253998,
                        -0.09270147979259491,
                        0.4763229787349701,
                        0.201845183968544,
                        0.12922310829162598,
                        0.28737422823905945,
                        -0.022091271355748177,
                        0.018488306552171707,
                        -0.0878172442317009,
                        -0.09167329221963882,
                        0.5430189967155457,
                        0.5208593010902405,
                        0.04177837073802948,
                        0.12025362998247147,
                        -0.23329892754554749,
                        -0.066050685942173,
                        -0.02800605446100235,
                        -0.023336093872785568,
                        -0.1968054175376892,
                        -0.07686633616685867,
                        -0.012357710860669613,
                        0.048419639468193054,
                        0.01037190854549408,
                        -0.14668115973472595,
                        0.43349283933639526,
                        0.12705674767494202,
                        0.20243827998638153,
                        -0.0644426941871643,
                        0.008956147357821465,
                        0.1778310239315033,
                        0.13673260807991028,
                        0.005725235678255558,
                        0.0050472780130803585,
                        0.0568268746137619,
                        0.518071174621582,
                        -0.22591190040111542,
                        0.31938400864601135,
                        -0.071174256503582,
                        -0.009607067331671715,
                        0.23643329739570618,
                        -0.09711186587810516,
                        0.04071186110377312,
                        -0.22878049314022064,
                        0.06791658699512482,
                        0.15259400010108948,
                        -0.17466264963150024,
                        0.20788267254829407,
                        -0.036851800978183746,
                        0.17813684046268463,
                        0.007146186660975218,
                        -0.20449072122573853,
                        0.017689945176243782
                    ],
                    [
                        -0.4045661985874176,
                        -0.08348143100738525,
                        0.523242175579071,
                        1.2063509225845337,
                        0.2866554856300354,
                        -0.11453627049922943,
                        0.13183113932609558,
                        0.1506941318511963,
                        -0.14888088405132294,
                        0.27609729766845703,
                        -0.2981620728969574,
                        -0.23206160962581635,
                        1.1642574071884155,
                        0.01862066239118576,
                        0.2681594491004944,
                        -0.7498844265937805,
                        0.7989755272865295,
                        0.6019417643547058,
                        0.9700611233711243,
                        0.37943145632743835,
                        -0.1002587154507637,
                        -0.11428754031658173,
                        0.22094175219535828,
                        0.5342252850532532,
                        -0.4928097128868103,
                        0.3988195061683655,
                        -0.12810632586479187,
                        0.5868115425109863,
                        0.7799257636070251,
                        -0.7872117161750793,
                        0.37151893973350525,
                        -0.8079500198364258,
                        0.3235265910625458,
                        0.3753153383731842,
                        0.042691804468631744,
                        0.39840683341026306,
                        0.11129842698574066,
                        0.366084486246109,
                        -0.3694789409637451,
                        0.4537348449230194,
                        0.26572322845458984,
                        0.8875599503517151,
                        0.6341456174850464,
                        0.2759397327899933,
                        1.3206920623779297,
                        -0.5262373089790344,
                        0.22130239009857178,
                        -0.08208919316530228,
                        0.3661179840564728,
                        0.5779194235801697,
                        0.2733171284198761,
                        -0.1897648572921753,
                        0.3594886064529419,
                        0.9451468586921692,
                        0.8214706778526306,
                        0.054046399891376495,
                        0.4962955713272095,
                        -0.25237053632736206,
                        0.8510530591011047,
                        0.9081636071205139,
                        0.39164984226226807,
                        0.5580880641937256,
                        -0.00018064447795040905,
                        1.0598047971725464,
                        -0.0743660032749176,
                        -0.09963204711675644,
                        -0.10713698714971542,
                        -0.006260727997869253,
                        -0.09347179532051086,
                        -0.035688482224941254,
                        -0.20320937037467957,
                        0.07301825284957886,
                        0.001022477401420474,
                        0.11949894577264786,
                        -0.02257990650832653,
                        -0.12003771960735321,
                        0.002231438411399722,
                        0.1682659238576889,
                        -0.15208663046360016,
                        0.0034893807023763657,
                        -0.12772932648658752,
                        -0.15283827483654022,
                        0.08985970914363861,
                        -0.08458293229341507,
                        -0.00995368231087923,
                        -0.2840884327888489,
                        -0.16428574919700623,
                        -0.010952205397188663,
                        0.0675809308886528,
                        -0.09445633739233017,
                        0.09947378933429718,
                        -0.032670266926288605,
                        -0.14523428678512573,
                        -0.02552092634141445,
                        0.060596998780965805,
                        -0.06885229051113129,
                        -0.2878167927265167,
                        -0.2935212254524231,
                        -0.09162382036447525,
                        -0.031775619834661484,
                        -0.3527480363845825,
                        0.06715195626020432,
                        -0.6221098303794861,
                        0.025616565719246864,
                        -0.05950240045785904,
                        -0.132303848862648,
                        -0.0873066782951355,
                        -0.02658928371965885,
                        -0.13145387172698975,
                        -0.07085665315389633,
                        -0.4348387122154236,
                        -0.05102929472923279,
                        -0.036240845918655396,
                        0.16958951950073242,
                        -0.09110379964113235,
                        -0.08160468190908432,
                        -0.11714645475149155,
                        -0.13668905198574066,
                        -0.2772674858570099,
                        0.011714751832187176,
                        -0.15546436607837677,
                        -0.1899970918893814,
                        -0.12182142585515976,
                        -0.058418892323970795,
                        -0.4534563422203064,
                        -0.07919183373451233,
                        0.051347799599170685,
                        -0.02099890634417534,
                        0.12477100640535355,
                        -0.231794074177742,
                        -0.2640010416507721,
                        0.0642840787768364,
                        -0.12473923712968826,
                        0.15403638780117035,
                        0.011982676573097706,
                        -0.20571346580982208,
                        -0.0766698345541954,
                        -0.05768716335296631,
                        0.1675800085067749,
                        0.15609794855117798,
                        -0.26832717657089233,
                        0.0853811651468277,
                        -0.14575646817684174,
                        0.1550637185573578,
                        -0.2872338593006134,
                        -0.04026320204138756,
                        -0.1324683427810669,
                        -0.09579894691705704,
                        0.15974761545658112,
                        0.18087106943130493,
                        -0.2657183110713959,
                        -0.03669023886322975,
                        -0.12119654566049576,
                        -0.11704375594854355,
                        -0.03827361389994621,
                        0.029249196872115135,
                        -0.151987686753273,
                        -0.10333438962697983,
                        0.15692083537578583,
                        -0.12467043101787567,
                        -0.11613749712705612,
                        -0.07230609655380249,
                        0.11296514421701431,
                        0.06203176826238632,
                        0.17163151502609253,
                        -0.09529127180576324,
                        -0.3739114999771118,
                        0.1617453396320343,
                        0.06447786837816238,
                        -0.05656270682811737,
                        -0.04663354530930519,
                        -0.18555592000484467,
                        0.21495099365711212,
                        0.1350352019071579,
                        -0.09771566838026047,
                        -0.057857122272253036,
                        -0.13195934891700745,
                        -0.10398989915847778,
                        0.0042851571924984455,
                        -0.13463032245635986,
                        0.20123058557510376,
                        0.07502230256795883,
                        0.13680395483970642,
                        0.0551731213927269,
                        0.1699427366256714,
                        0.2307378649711609,
                        -0.25111642479896545,
                        0.15444126725196838,
                        -0.16286161541938782,
                        -0.23439066112041473,
                        0.24249807000160217,
                        -0.09343161433935165
                    ],
                    [
                        0.21609072387218475,
                        0.7443152666091919,
                        -0.926678478717804,
                        0.034691162407398224,
                        -0.1395462453365326,
                        -0.0037119826301932335,
                        -0.10119614005088806,
                        0.005372646264731884,
                        0.09216239303350449,
                        0.501568078994751,
                        -0.11739043891429901,
                        0.1514638364315033,
                        0.43362098932266235,
                        0.42811480164527893,
                        -0.38673698902130127,
                        0.3373582661151886,
                        0.2830126881599426,
                        0.6124858260154724,
                        -0.02855200320482254,
                        -0.046849288046360016,
                        0.17057618498802185,
                        -0.020749971270561218,
                        0.8612757921218872,
                        0.5718874931335449,
                        0.3200058341026306,
                        -0.0765281617641449,
                        0.12990280985832214,
                        0.27903440594673157,
                        -0.2645167410373688,
                        0.12125786393880844,
                        0.42728543281555176,
                        0.02398420311510563,
                        0.7989332675933838,
                        0.6515103578567505,
                        -0.06788987666368484,
                        -0.38805654644966125,
                        -0.09521415829658508,
                        0.40103936195373535,
                        0.7359980344772339,
                        0.2828967869281769,
                        0.03681947663426399,
                        0.736488938331604,
                        0.36539357900619507,
                        0.5135136842727661,
                        0.0911756157875061,
                        0.124262236058712,
                        0.9693992137908936,
                        -0.11502279341220856,
                        -0.8727620840072632,
                        0.30935004353523254,
                        -0.4776175022125244,
                        0.1710534393787384,
                        -0.5054509043693542,
                        0.5852753520011902,
                        -0.9290462732315063,
                        -0.2372550219297409,
                        -0.5818310379981995,
                        0.5228093862533569,
                        0.8957713842391968,
                        -0.25536811351776123,
                        -0.754082977771759,
                        -0.13237939774990082,
                        0.09696298837661743,
                        -0.6457383632659912,
                        0.023590488359332085,
                        -0.34272316098213196,
                        -0.06078677996993065,
                        0.05197140946984291,
                        0.09569398313760757,
                        0.19932140409946442,
                        0.028171882033348083,
                        0.026453427970409393,
                        -0.03917495906352997,
                        -0.050518300384283066,
                        0.10687363147735596,
                        0.1547660380601883,
                        -0.11865635961294174,
                        0.03038104623556137,
                        -0.24775870144367218,
                        0.25999540090560913,
                        0.09709887951612473,
                        0.15416361391544342,
                        0.04321587458252907,
                        -0.19426538050174713,
                        0.029678821563720703,
                        0.015647249296307564,
                        0.49775469303131104,
                        -0.12609893083572388,
                        0.02638091892004013,
                        0.034872423857450485,
                        0.05314663052558899,
                        0.033589065074920654,
                        0.0454367995262146,
                        0.11310429126024246,
                        -0.13909900188446045,
                        -0.05624929815530777,
                        0.15757033228874207,
                        -0.17483705282211304,
                        0.019431883469223976,
                        -0.07440625131130219,
                        0.016085179522633553,
                        -0.1989825963973999,
                        0.776517927646637,
                        0.012223239056766033,
                        0.13342882692813873,
                        0.2549467086791992,
                        -0.18151551485061646,
                        -0.11088084429502487,
                        0.11471983790397644,
                        0.06360311061143875,
                        -0.019936909899115562,
                        -0.05580626428127289,
                        -1.21200692653656,
                        0.1979108452796936,
                        -0.07398904860019684,
                        -0.12999625504016876,
                        0.08677665889263153,
                        -0.05472607910633087,
                        -0.6192319393157959,
                        0.03905129060149193,
                        0.009198442101478577,
                        -0.3812353014945984,
                        -0.03840332478284836,
                        -0.2638605237007141,
                        -0.4888635277748108,
                        -0.19523997604846954,
                        -0.06650418788194656,
                        0.13393591344356537,
                        -0.06115757301449776,
                        0.21415230631828308,
                        0.14421755075454712,
                        0.06435280293226242,
                        0.12680229544639587,
                        -0.09165193885564804,
                        -0.10760816186666489,
                        0.09267985820770264,
                        0.1275549978017807,
                        0.13641458749771118,
                        -0.05454007163643837,
                        0.06604280322790146,
                        0.013604995794594288,
                        -0.0786266028881073,
                        0.1591486632823944,
                        -0.04436119273304939,
                        0.12739451229572296,
                        0.16825446486473083,
                        -0.0251147523522377,
                        -0.05051727965474129,
                        0.0868941992521286,
                        -0.1845265030860901,
                        0.42118826508522034,
                        0.23837162554264069,
                        0.045740000903606415,
                        0.01991085149347782,
                        0.041634850203990936,
                        0.1557445377111435,
                        -0.04349414259195328,
                        0.0756671354174614,
                        -0.19679701328277588,
                        0.025790760293602943,
                        0.1552131474018097,
                        0.10957496613264084,
                        -0.04961831122636795,
                        -0.015072222799062729,
                        -0.04229387268424034,
                        0.0009702632669359446,
                        0.05554146692156792,
                        -0.13737525045871735,
                        -0.16769720613956451,
                        0.1297747790813446,
                        -0.14357782900333405,
                        -0.03174038976430893,
                        -0.1331779956817627,
                        0.06836550682783127,
                        -0.06668351590633392,
                        0.07516586035490036,
                        0.3300679326057434,
                        -0.13933305442333221,
                        0.07761111110448837,
                        0.04591749608516693,
                        -0.1295435130596161,
                        -0.15469695627689362,
                        -0.17454777657985687,
                        -0.2060375213623047,
                        -0.09512384980916977,
                        -0.25858274102211,
                        0.10565322637557983,
                        -0.009041333571076393,
                        0.12839215993881226,
                        -0.0296119786798954,
                        -0.02049754559993744,
                        -0.05045474320650101
                    ],
                    [
                        -0.35288020968437195,
                        0.29479172825813293,
                        0.28846392035484314,
                        -0.055081356316804886,
                        0.08625771850347519,
                        0.19647634029388428,
                        0.34115368127822876,
                        0.24955123662948608,
                        0.15172766149044037,
                        -0.10919607430696487,
                        0.08894336968660355,
                        0.03470442816615105,
                        -0.10665903240442276,
                        -0.10675439238548279,
                        0.17485041916370392,
                        0.00898477528244257,
                        -0.008511664345860481,
                        -0.042730461806058884,
                        -0.055451106280088425,
                        0.4480064809322357,
                        0.0297379270195961,
                        -0.1050252839922905,
                        0.06146972253918648,
                        0.0668056383728981,
                        0.04114904999732971,
                        0.02581159397959709,
                        0.0007220536353997886,
                        0.04029197618365288,
                        0.05091648921370506,
                        -0.14280210435390472,
                        -0.10653959959745407,
                        -0.06427090615034103,
                        -0.14975330233573914,
                        0.1131419986486435,
                        -0.029504625126719475,
                        0.24451036751270294,
                        0.09589739888906479,
                        -0.023243192583322525,
                        0.0700913593173027,
                        -0.08180421590805054,
                        -0.2230791300535202,
                        0.19139845669269562,
                        -0.08522774279117584,
                        -0.32341843843460083,
                        -0.21442365646362305,
                        -0.05027283355593681,
                        0.14716750383377075,
                        0.13057781755924225,
                        0.0615118071436882,
                        0.09061896055936813,
                        0.23357847332954407,
                        0.14763480424880981,
                        0.22897130250930786,
                        -0.07326804101467133,
                        0.029692964628338814,
                        0.2819691002368927,
                        0.298788458108902,
                        0.2191918045282364,
                        -0.27870360016822815,
                        -0.1183447316288948,
                        0.26699766516685486,
                        0.13939356803894043,
                        0.14406834542751312,
                        0.2548786699771881,
                        0.016934970393776894,
                        -0.03494593873620033,
                        0.16238851845264435,
                        -0.013308200053870678,
                        -0.0006591585697606206,
                        -0.07288887351751328,
                        0.05461261421442032,
                        -0.0724276527762413,
                        -0.045459676533937454,
                        -0.03453083708882332,
                        -0.02397712506353855,
                        -0.005484962370246649,
                        -0.1343432366847992,
                        -0.07131121307611465,
                        -0.15561231970787048,
                        -0.1015581488609314,
                        -0.25220373272895813,
                        -0.19633427262306213,
                        -0.015334093943238258,
                        0.07263050973415375,
                        -0.06486272811889648,
                        0.15365171432495117,
                        0.11414295434951782,
                        -0.10415906459093094,
                        1.847993189585395e-05,
                        -0.058843210339546204,
                        -0.06968750804662704,
                        0.04284591227769852,
                        -0.12062642723321915,
                        -0.03177468106150627,
                        0.052866723388433456,
                        -0.07633738964796066,
                        -0.1671876460313797,
                        0.15878039598464966,
                        0.09396519511938095,
                        -0.062153659760951996,
                        -0.08685021102428436,
                        -0.1063932329416275,
                        -0.0649334192276001,
                        0.01758340746164322,
                        -0.08863768726587296,
                        0.05051668733358383,
                        0.08852949738502502,
                        0.10278342664241791,
                        -0.07959017157554626,
                        -0.0004778211878146976,
                        0.13775309920310974,
                        -0.10865950584411621,
                        -0.06241921707987785,
                        0.0674760639667511,
                        -0.0997728779911995,
                        0.03518648445606232,
                        -0.05361001193523407,
                        0.09810531139373779,
                        -0.02009771019220352,
                        -0.009003776125609875,
                        0.09208405762910843,
                        0.03146990388631821,
                        -0.17783160507678986,
                        0.1277223527431488,
                        -0.19438035786151886,
                        0.08470619469881058,
                        0.02397805079817772,
                        -0.05327771231532097,
                        0.040223948657512665,
                        0.013098440133035183,
                        0.06892982125282288,
                        0.19710716605186462,
                        0.10315269976854324,
                        0.09518598765134811,
                        0.06506756693124771,
                        0.1075943186879158,
                        -0.14473141729831696,
                        0.10924755036830902,
                        -0.23150883615016937,
                        -0.13165657222270966,
                        0.057502854615449905,
                        -0.1563190221786499,
                        -0.04443837329745293,
                        -0.09092403948307037,
                        -0.035643935203552246,
                        0.026301881298422813,
                        0.22062724828720093,
                        -0.06467878073453903,
                        -0.15082819759845734,
                        -0.14112406969070435,
                        0.21884630620479584,
                        -0.0893537774682045,
                        0.2417091727256775,
                        -0.03512591868638992,
                        -0.13619382679462433,
                        0.07121770083904266,
                        -0.009060388430953026,
                        0.1674666851758957,
                        -0.13897451758384705,
                        0.16523894667625427,
                        0.11041319370269775,
                        0.10828518122434616,
                        -0.016318758949637413,
                        0.04903632402420044,
                        -0.17576001584529877,
                        0.0974285826086998,
                        0.3046063482761383,
                        -0.25337934494018555,
                        0.1239803284406662,
                        0.12926344573497772,
                        0.12615327537059784,
                        0.21092890202999115,
                        0.06426286697387695,
                        -0.2446984499692917,
                        0.03979208692908287,
                        -0.08134930580854416,
                        0.13863825798034668,
                        0.1442311704158783,
                        0.05575086548924446,
                        0.11171158403158188,
                        0.018458545207977295,
                        0.04388979822397232,
                        0.018845845013856888,
                        0.18259069323539734,
                        -0.034155357629060745,
                        -0.06308632344007492,
                        0.16937488317489624,
                        0.11007783561944962,
                        0.04449592903256416,
                        0.1462474912405014,
                        -0.18166066706180573,
                        -0.008287344127893448
                    ],
                    [
                        -0.4147985875606537,
                        0.9452577233314514,
                        -0.11255554109811783,
                        1.0430094003677368,
                        0.15375344455242157,
                        -0.14377093315124512,
                        0.46457549929618835,
                        0.535581648349762,
                        -0.3783540427684784,
                        -0.3060387670993805,
                        -0.27624374628067017,
                        -0.4573914408683777,
                        0.7916280031204224,
                        -0.0626109391450882,
                        0.176077201962471,
                        -1.5495631694793701,
                        0.49552929401397705,
                        0.904516875743866,
                        0.647240161895752,
                        0.21506763994693756,
                        -0.5100067257881165,
                        0.002867697272449732,
                        0.3965964615345001,
                        0.6993439197540283,
                        -0.5258530378341675,
                        0.2367609441280365,
                        -0.6142983436584473,
                        0.19696694612503052,
                        0.3378792405128479,
                        -0.6281459927558899,
                        0.6537912487983704,
                        -0.5764908194541931,
                        0.5247544646263123,
                        0.9079774022102356,
                        0.28443947434425354,
                        0.6880016922950745,
                        0.1890406608581543,
                        0.06132838502526283,
                        0.6220696568489075,
                        0.46838706731796265,
                        0.00930656585842371,
                        0.7200684547424316,
                        0.44527241587638855,
                        0.28097838163375854,
                        0.23982064425945282,
                        -0.5749659538269043,
                        0.48571252822875977,
                        0.058671023696660995,
                        -0.05460961535573006,
                        0.0877550020813942,
                        0.12158536911010742,
                        -0.36191457509994507,
                        0.3571365773677826,
                        0.7353276610374451,
                        0.2120688408613205,
                        0.9195689558982849,
                        0.7972573637962341,
                        0.7800194621086121,
                        0.7261789441108704,
                        0.10344956070184708,
                        0.01957969181239605,
                        0.34413906931877136,
                        0.2883363962173462,
                        1.1600035429000854,
                        -0.1314128339290619,
                        -0.19799454510211945,
                        -0.194526806473732,
                        -0.06386858969926834,
                        0.03840278089046478,
                        -0.0753617063164711,
                        -0.3120402991771698,
                        -0.020402656868100166,
                        -0.05145854130387306,
                        0.21537072956562042,
                        -0.0524427704513073,
                        0.05916688218712807,
                        -0.5674857497215271,
                        0.1006341427564621,
                        -0.2886843681335449,
                        -0.04984385147690773,
                        -0.3506651222705841,
                        -0.2766660749912262,
                        -0.4389841556549072,
                        0.02274484559893608,
                        0.18990956246852875,
                        0.0007924087112769485,
                        0.19976764917373657,
                        -0.28211742639541626,
                        -0.011638334952294827,
                        -0.027337796986103058,
                        0.08396996557712555,
                        -0.23667006194591522,
                        0.013709843158721924,
                        0.08517016470432281,
                        -0.0036671289708465338,
                        0.0055486843921244144,
                        -0.07639409601688385,
                        -0.2292191982269287,
                        -0.09714002907276154,
                        0.15112195909023285,
                        -0.11652567237615585,
                        -0.17282338440418243,
                        -0.3365938067436218,
                        0.09337320923805237,
                        -0.2397327572107315,
                        0.024764366447925568,
                        0.05156227946281433,
                        -0.09339117258787155,
                        -0.02370726503431797,
                        -0.1436416506767273,
                        0.06053575500845909,
                        0.27428877353668213,
                        -0.2180972844362259,
                        -0.11467301100492477,
                        -0.1103086769580841,
                        -0.02916320413351059,
                        -0.10560542345046997,
                        -0.315792053937912,
                        -0.16162870824337006,
                        0.12783829867839813,
                        -0.014883244410157204,
                        -0.3663008511066437,
                        -0.19297361373901367,
                        -0.11220806837081909,
                        -0.2568919062614441,
                        -0.07970235496759415,
                        -0.022991936653852463,
                        0.06163342297077179,
                        -0.10997101664543152,
                        0.06878654658794403,
                        0.041603945195674896,
                        0.028624428436160088,
                        -0.0395534411072731,
                        -0.01185536291450262,
                        0.058962829411029816,
                        0.23112834990024567,
                        -0.009649069048464298,
                        -0.03567354381084442,
                        -0.03573112562298775,
                        -0.05657103657722473,
                        -0.04561714828014374,
                        -0.07209116220474243,
                        0.26410749554634094,
                        -0.012496654875576496,
                        0.13610176742076874,
                        0.03288166970014572,
                        0.1351613700389862,
                        0.05615633726119995,
                        -0.1576043665409088,
                        -0.01588444970548153,
                        -0.020554587244987488,
                        0.074997179210186,
                        0.27672260999679565,
                        0.05401834100484848,
                        -0.10076475143432617,
                        0.278169184923172,
                        0.02187945879995823,
                        -0.10443480312824249,
                        -0.3215969204902649,
                        0.09853433817625046,
                        -0.008259451948106289,
                        0.11875481903553009,
                        -0.08307580649852753,
                        -0.17903190851211548,
                        0.004104443360120058,
                        0.1380007266998291,
                        0.09707266837358475,
                        0.09699061512947083,
                        -0.030245471745729446,
                        0.10178621113300323,
                        -0.015025327913463116,
                        0.06096452847123146,
                        -0.08660272508859634,
                        0.04007868096232414,
                        0.04678899422287941,
                        -0.11859103292226791,
                        0.16183887422084808,
                        0.11799904704093933,
                        0.0689132809638977,
                        0.0777539610862732,
                        0.026388507336378098,
                        0.010556395165622234,
                        0.03333905339241028,
                        0.24781006574630737,
                        0.11199166625738144,
                        0.095070980489254,
                        0.08371173590421677,
                        -0.0854988545179367,
                        -0.024889392778277397,
                        0.09709476679563522,
                        -0.014943461865186691,
                        -0.10580819845199585
                    ],
                    [
                        -0.3158842623233795,
                        -0.2151980698108673,
                        -0.23058860003948212,
                        0.27000465989112854,
                        0.2489713579416275,
                        0.010179474949836731,
                        0.06990401446819305,
                        0.40849247574806213,
                        -0.18665674328804016,
                        -0.15884116291999817,
                        -0.13300471007823944,
                        -0.14661778509616852,
                        0.9423335194587708,
                        -0.5104349851608276,
                        0.22985373437404633,
                        -0.37184786796569824,
                        0.4206375479698181,
                        0.7488631010055542,
                        0.029868893325328827,
                        0.4652118980884552,
                        -0.07704509794712067,
                        0.038923002779483795,
                        0.5068845748901367,
                        0.36645567417144775,
                        -0.5282030701637268,
                        0.03950678929686546,
                        -0.2740558385848999,
                        0.06703946739435196,
                        0.12725752592086792,
                        -0.5805796980857849,
                        0.25799593329429626,
                        -0.30430880188941956,
                        0.7956027984619141,
                        0.5352203845977783,
                        -0.22947457432746887,
                        0.5206413865089417,
                        -0.7350541353225708,
                        0.9537925124168396,
                        0.21153967082500458,
                        0.42862895131111145,
                        0.10468161851167679,
                        0.3772395849227905,
                        0.7124913334846497,
                        0.2686781585216522,
                        0.17230099439620972,
                        -0.29091525077819824,
                        0.8944443464279175,
                        -0.024039745330810547,
                        -0.7367671132087708,
                        0.3077017366886139,
                        -0.3200361430644989,
                        -0.09731447696685791,
                        -0.0008994139498099685,
                        0.9013535976409912,
                        -0.03444124385714531,
                        -0.11350847780704498,
                        0.21394018828868866,
                        0.02605656534433365,
                        1.134949803352356,
                        -0.1293279528617859,
                        -0.1240614801645279,
                        0.09292421489953995,
                        0.1168283149600029,
                        0.23723557591438293,
                        0.15612655878067017,
                        -0.07075050473213196,
                        -0.6967412233352661,
                        0.06390544772148132,
                        0.13717250525951385,
                        -0.09483348578214645,
                        -0.03406970575451851,
                        0.3104076385498047,
                        -0.12358812987804413,
                        0.13796591758728027,
                        0.2902993857860565,
                        0.26866307854652405,
                        -0.21244743466377258,
                        0.20973168313503265,
                        -0.4003922939300537,
                        -0.010801207274198532,
                        0.10346151888370514,
                        -0.23486676812171936,
                        -0.16690143942832947,
                        -0.13623343408107758,
                        0.2220623940229416,
                        -0.031541090458631516,
                        0.39621779322624207,
                        0.06688044220209122,
                        0.3031899631023407,
                        0.03161395341157913,
                        0.1957358717918396,
                        -0.10686367005109787,
                        0.1963733434677124,
                        0.09726548194885254,
                        0.00019913684809580445,
                        -0.06166697293519974,
                        -0.2822868824005127,
                        -0.4210291802883148,
                        0.13595816493034363,
                        0.09834161400794983,
                        -0.02662898786365986,
                        -0.070710688829422,
                        -0.5152982473373413,
                        0.04060104116797447,
                        -0.0004665847809519619,
                        -0.14314532279968262,
                        -0.15706704556941986,
                        -0.20031048357486725,
                        -0.11132057011127472,
                        0.18297208845615387,
                        -0.2989896237850189,
                        0.1855805367231369,
                        -0.479159951210022,
                        0.0055163525976240635,
                        -0.2873836159706116,
                        0.1889932006597519,
                        -0.08239734917879105,
                        -0.2379082292318344,
                        -0.35474714636802673,
                        0.3035285770893097,
                        -0.16974709928035736,
                        -0.34628480672836304,
                        -0.10247517377138138,
                        -0.2819703221321106,
                        -0.47795307636260986,
                        -0.10534822940826416,
                        0.09165391325950623,
                        0.1351979374885559,
                        0.23507867753505707,
                        -0.25102776288986206,
                        -0.12894219160079956,
                        -0.13763707876205444,
                        -0.17252980172634125,
                        -0.04470337927341461,
                        -0.040520891547203064,
                        -0.13909202814102173,
                        0.008390737697482109,
                        -0.12948426604270935,
                        0.01408175565302372,
                        0.13983769714832306,
                        -0.08448412269353867,
                        -0.005606853868812323,
                        -0.15994897484779358,
                        0.1381075233221054,
                        -0.24261850118637085,
                        -0.07870049774646759,
                        -0.007240284234285355,
                        -0.05560223385691643,
                        0.05263426899909973,
                        -0.04958007484674454,
                        -0.23783893883228302,
                        -0.17602363228797913,
                        -0.008418413810431957,
                        -0.03585271164774895,
                        -0.08438999205827713,
                        -0.04905547946691513,
                        -0.07938401401042938,
                        -0.03715810179710388,
                        0.172334685921669,
                        0.18320868909358978,
                        -0.17235319316387177,
                        -0.03495718911290169,
                        0.11814796179533005,
                        -0.14497141540050507,
                        0.24043555557727814,
                        0.056533332914114,
                        -0.1428765058517456,
                        0.15746156871318817,
                        0.04744108021259308,
                        -0.2198597639799118,
                        0.05942146107554436,
                        0.0013466819655150175,
                        0.33428090810775757,
                        0.12585483491420746,
                        -0.12299846857786179,
                        0.1395927369594574,
                        -0.15505628287792206,
                        -0.007063990458846092,
                        -0.01020658016204834,
                        0.004054821562021971,
                        0.1492920070886612,
                        0.1671207696199417,
                        0.25242164731025696,
                        0.08876830339431763,
                        0.20534445345401764,
                        0.3103964924812317,
                        -0.37124332785606384,
                        0.11689265072345734,
                        -0.2257910668849945,
                        -0.21697834134101868,
                        0.0808747336268425,
                        0.09587674587965012
                    ],
                    [
                        0.29043516516685486,
                        0.5441400408744812,
                        -0.3154447078704834,
                        0.6040776968002319,
                        0.39391177892684937,
                        0.20145846903324127,
                        0.011128947138786316,
                        0.13289183378219604,
                        0.0654565691947937,
                        0.3561404049396515,
                        -0.13133424520492554,
                        -0.09431736916303635,
                        0.6896836757659912,
                        0.16247376799583435,
                        -0.1797577291727066,
                        -0.07281338423490524,
                        0.3863523602485657,
                        0.6656060218811035,
                        0.4385058879852295,
                        -0.08573900163173676,
                        -0.01880818046629429,
                        -0.2152220606803894,
                        0.7573602199554443,
                        0.22598786652088165,
                        0.10410875827074051,
                        0.3413526713848114,
                        -0.019919784739613533,
                        0.28772401809692383,
                        0.1380675584077835,
                        -0.1447257250547409,
                        0.6251314878463745,
                        -0.3278355002403259,
                        0.8212507367134094,
                        0.6347207427024841,
                        0.07013090699911118,
                        -0.07101999223232269,
                        -0.010749093256890774,
                        0.5355126261711121,
                        0.6391875147819519,
                        0.5159177780151367,
                        -0.018162520602345467,
                        0.6793423295021057,
                        0.35581251978874207,
                        0.42585426568984985,
                        0.6118707656860352,
                        -0.021604595705866814,
                        0.6265259385108948,
                        -0.004745634738355875,
                        -0.3321250379085541,
                        0.5310407876968384,
                        -0.3308773338794708,
                        0.02601519413292408,
                        0.0032819670159369707,
                        0.6211206316947937,
                        -0.2979080379009247,
                        -0.10621059685945511,
                        0.14459511637687683,
                        0.6360856890678406,
                        0.6342047452926636,
                        0.0312897227704525,
                        0.04220782592892647,
                        0.13290730118751526,
                        -0.2843194007873535,
                        0.429671049118042,
                        0.11311551183462143,
                        -0.23176142573356628,
                        -0.151356041431427,
                        -0.03129914775490761,
                        0.08278345316648483,
                        0.002653803676366806,
                        -0.014870076440274715,
                        0.05117303505539894,
                        -0.14772085845470428,
                        0.05849224701523781,
                        0.05979730933904648,
                        0.14468343555927277,
                        0.008187813684344292,
                        0.02073816768825054,
                        0.05417954921722412,
                        0.08683571964502335,
                        0.11409728229045868,
                        0.14596381783485413,
                        -0.1825442910194397,
                        -0.17684781551361084,
                        0.002339320257306099,
                        -0.0212249755859375,
                        0.39234188199043274,
                        -0.025902148336172104,
                        0.2491166740655899,
                        -0.06028880923986435,
                        0.01541769877076149,
                        -0.10025545209646225,
                        0.00805825088173151,
                        0.12842552363872528,
                        -0.11870851367712021,
                        0.03499283269047737,
                        0.07096891105175018,
                        0.0013251644559204578,
                        0.00865236110985279,
                        -0.11366966366767883,
                        -0.19897396862506866,
                        -0.1237022802233696,
                        0.2144719809293747,
                        -0.08564484119415283,
                        0.05762424319982529,
                        0.06624700129032135,
                        0.057583287358284,
                        -0.05908398702740669,
                        0.03029290772974491,
                        0.035241711884737015,
                        0.015261231921613216,
                        0.0010688939364627004,
                        -0.07559677213430405,
                        -0.06341256201267242,
                        0.054259978234767914,
                        0.00973243173211813,
                        0.08687882870435715,
                        -0.04902728646993637,
                        -0.1516522467136383,
                        0.03947518393397331,
                        -0.11281947791576385,
                        -0.44684895873069763,
                        -0.276521235704422,
                        -0.26955950260162354,
                        -0.30734848976135254,
                        -0.11694780737161636,
                        0.0945734977722168,
                        0.06317009776830673,
                        -0.05861521139740944,
                        0.020002957433462143,
                        0.2162872850894928,
                        0.05826370045542717,
                        0.15120726823806763,
                        -0.049821145832538605,
                        0.006393014453351498,
                        -0.024518892168998718,
                        0.17140410840511322,
                        -0.21883320808410645,
                        0.09387703984975815,
                        0.1700921207666397,
                        -0.042536649852991104,
                        0.1612093597650528,
                        0.0485001802444458,
                        -0.011670204810798168,
                        0.050031792372465134,
                        0.055366650223731995,
                        0.12556558847427368,
                        0.10579777508974075,
                        0.10157015919685364,
                        0.06401903927326202,
                        -4.1283637983724475e-06,
                        0.08088767528533936,
                        -0.19990597665309906,
                        0.03271094337105751,
                        0.1721012443304062,
                        0.06340781599283218,
                        0.052199140191078186,
                        -0.14208351075649261,
                        -0.023713737726211548,
                        -0.08528047055006027,
                        0.10820888727903366,
                        0.04642999917268753,
                        -0.009682112373411655,
                        0.01689797267317772,
                        -0.0531589537858963,
                        -0.04141753166913986,
                        -0.016346924006938934,
                        -0.08083616197109222,
                        -0.15264776349067688,
                        0.03377871587872505,
                        -0.2331632673740387,
                        -0.09241174161434174,
                        0.032219596207141876,
                        0.03437086194753647,
                        0.05436635762453079,
                        -0.029162520542740822,
                        -0.058371711522340775,
                        0.03357793390750885,
                        0.17162327468395233,
                        -0.12703116238117218,
                        -0.2082209289073944,
                        -0.10952362418174744,
                        -0.11824338138103485,
                        -0.11280547827482224,
                        -0.04138622805476189,
                        0.061820123344659805,
                        -0.22878795862197876,
                        0.033242084085941315,
                        0.1491747796535492,
                        0.05373113602399826,
                        0.07591131329536438,
                        -0.08871456235647202
                    ],
                    [
                        0.012805628590285778,
                        -0.954292893409729,
                        0.7978271245956421,
                        -0.12774232029914856,
                        -0.3349722921848297,
                        0.0015999681781977415,
                        -0.12319262325763702,
                        0.12808051705360413,
                        0.09003337472677231,
                        -0.22000296413898468,
                        0.2485991269350052,
                        -0.06364388018846512,
                        -0.31516337394714355,
                        0.30684894323349,
                        0.5087859630584717,
                        -0.1829604059457779,
                        -0.35062694549560547,
                        -0.3773682415485382,
                        -0.23168326914310455,
                        0.13069696724414825,
                        0.032083895057439804,
                        -0.04775040224194527,
                        0.022027578204870224,
                        0.001976454397663474,
                        0.06768230348825455,
                        -0.24221061170101166,
                        0.5687785148620605,
                        0.0298750102519989,
                        -0.10004384070634842,
                        -0.07417462766170502,
                        -0.4621948301792145,
                        0.0984189361333847,
                        -0.11748006194829941,
                        -0.399509459733963,
                        -0.23234853148460388,
                        0.08054260909557343,
                        -0.2943108379840851,
                        0.03106297366321087,
                        -0.38454771041870117,
                        -0.5127735137939453,
                        -0.0569310262799263,
                        -0.504743218421936,
                        -0.09453241527080536,
                        -0.049586378037929535,
                        0.3404242694377899,
                        0.09876588732004166,
                        -0.3203861713409424,
                        0.23576678335666656,
                        0.014555574394762516,
                        -0.1540277600288391,
                        0.044538311660289764,
                        0.13530676066875458,
                        -0.1873868703842163,
                        -0.4041132926940918,
                        0.1178126186132431,
                        0.05301855131983757,
                        0.039706651121377945,
                        -0.6474817991256714,
                        0.09811931848526001,
                        0.4557701051235199,
                        0.428327351808548,
                        -0.07215748727321625,
                        0.09363479167222977,
                        0.3002678155899048,
                        -0.10734207928180695,
                        0.11268530040979385,
                        0.09490786492824554,
                        0.22986651957035065,
                        -0.08512391895055771,
                        0.0034053411800414324,
                        0.20742587745189667,
                        -0.2115621715784073,
                        0.06106129288673401,
                        -0.05898236483335495,
                        -0.16290715336799622,
                        -0.015634560957551003,
                        0.07353421300649643,
                        -0.05044170096516609,
                        0.13641807436943054,
                        0.12020355463027954,
                        -0.004073446150869131,
                        0.24427875876426697,
                        -0.07250481843948364,
                        0.14932028949260712,
                        -0.011489464901387691,
                        0.030236560851335526,
                        -0.06555896252393723,
                        0.0777103528380394,
                        -0.1264898180961609,
                        0.025537094101309776,
                        -0.15087184309959412,
                        0.15985992550849915,
                        -0.15153083205223083,
                        -0.07129492610692978,
                        0.11866231262683868,
                        -0.0830848217010498,
                        0.17941834032535553,
                        0.22075200080871582,
                        0.02102772146463394,
                        -0.1206691637635231,
                        0.10474396497011185,
                        0.18020614981651306,
                        0.24103884398937225,
                        0.03971007838845253,
                        0.13052141666412354,
                        -0.11644361168146133,
                        0.20192627608776093,
                        -0.1006847470998764,
                        0.2126004844903946,
                        0.0034918340388685465,
                        0.21284765005111694,
                        -0.23604652285575867,
                        0.34493789076805115,
                        0.14384208619594574,
                        0.08538593351840973,
                        -0.14020012319087982,
                        0.15261167287826538,
                        0.05108815059065819,
                        0.4405372142791748,
                        -0.038202010095119476,
                        0.03781739994883537,
                        0.16126200556755066,
                        -0.06088575720787048,
                        0.07535739988088608,
                        0.7418588995933533,
                        0.005102849565446377,
                        0.11090381443500519,
                        -0.04288283362984657,
                        0.156394824385643,
                        -0.22121071815490723,
                        -0.06073810160160065,
                        -0.0643770769238472,
                        -0.23726961016654968,
                        0.05460323020815849,
                        -0.0750623270869255,
                        -0.18532909452915192,
                        -0.22281426191329956,
                        0.09873442351818085,
                        0.04481339454650879,
                        0.08772241324186325,
                        -0.18649041652679443,
                        -0.01982995681464672,
                        -0.21803182363510132,
                        0.16923737525939941,
                        -0.12017183750867844,
                        0.024473557248711586,
                        -0.22080136835575104,
                        -0.14153704047203064,
                        -0.10807391256093979,
                        0.023660993203520775,
                        0.035764653235673904,
                        -0.11800680309534073,
                        0.020423633977770805,
                        -0.024367468431591988,
                        -0.08274156600236893,
                        -0.09179497510194778,
                        -0.3549603223800659,
                        0.025613639503717422,
                        0.11983425170183182,
                        0.16103053092956543,
                        -0.20113204419612885,
                        -0.10119529813528061,
                        0.020107589662075043,
                        -0.11203769594430923,
                        0.019380584359169006,
                        -0.21979427337646484,
                        -0.19784682989120483,
                        0.03940541297197342,
                        0.15297937393188477,
                        -0.3345412611961365,
                        0.1319214254617691,
                        -0.004827459808439016,
                        0.13543614745140076,
                        0.030030209571123123,
                        -0.16820797324180603,
                        -0.09981423616409302,
                        -0.07819877564907074,
                        -0.08134496212005615,
                        0.02860690839588642,
                        0.03552864119410515,
                        0.11320055276155472,
                        0.19514748454093933,
                        0.26246151328086853,
                        0.11487289518117905,
                        0.18765991926193237,
                        0.23935391008853912,
                        -0.4324401021003723,
                        -0.009988662786781788,
                        -0.19325383007526398,
                        0.0074490150436758995,
                        0.11750095337629318,
                        0.19294632971286774
                    ],
                    [
                        0.5012041330337524,
                        -0.010218512266874313,
                        0.20971491932868958,
                        -0.2309628576040268,
                        -0.06263752281665802,
                        -0.14945681393146515,
                        -0.11687372624874115,
                        -0.1979386955499649,
                        0.00047437677858397365,
                        0.4690439999103546,
                        0.11665920168161392,
                        0.06421604007482529,
                        0.40609225630760193,
                        0.33455026149749756,
                        -0.24463437497615814,
                        -0.5184298753738403,
                        0.013722684234380722,
                        -0.08377561718225479,
                        -0.0434577502310276,
                        -0.12726086378097534,
                        0.013205725699663162,
                        -0.09876970946788788,
                        -0.014586261473596096,
                        0.23947429656982422,
                        0.30796217918395996,
                        0.04960190877318382,
                        0.3907475471496582,
                        -0.023800957947969437,
                        0.3603092133998871,
                        0.3459823429584503,
                        0.1533752977848053,
                        0.3650253117084503,
                        0.29872068762779236,
                        0.05369650200009346,
                        -0.08787242323160172,
                        0.06912750750780106,
                        -0.05020621418952942,
                        0.33956316113471985,
                        -0.0034701135009527206,
                        0.11376039683818817,
                        0.14554107189178467,
                        0.1737797111272812,
                        0.05732725188136101,
                        0.2697014808654785,
                        0.7770428657531738,
                        0.16072647273540497,
                        -0.17296600341796875,
                        -0.24740302562713623,
                        -0.011220547370612621,
                        0.3869044780731201,
                        -0.10547227412462234,
                        0.14226442575454712,
                        -0.04683190584182739,
                        0.2757253348827362,
                        -0.1001865491271019,
                        -0.16717834770679474,
                        -0.06174640357494354,
                        0.07715112715959549,
                        0.2756229341030121,
                        0.14136837422847748,
                        0.12154936045408249,
                        0.00967792421579361,
                        -0.09917934983968735,
                        0.29484713077545166,
                        -0.028121616691350937,
                        0.044874828308820724,
                        0.04255598410964012,
                        0.02583743818104267,
                        -0.004310900345444679,
                        0.12482727319002151,
                        -0.13843929767608643,
                        -0.012058185413479805,
                        0.014427795074880123,
                        -0.1813662201166153,
                        -0.10607431828975677,
                        -0.04318110644817352,
                        0.1118801087141037,
                        -0.043728023767471313,
