{
    "in_shape": [
        null,
        null,
        2
    ],
    "layers": [
        {
            "type": "gru",
            "activation": "tanh",
            "shape": [
                null,
                null,
                32
            ],
            "weights": [
                [
                    [
                        -0.08442752063274384,
                        0.9049273729324341,
                        -0.14461608231067657,
                        -0.06154174730181694,
                        -0.18269114196300507,
                        -0.16717135906219482,
                        0.2667197585105896,
                        -0.10206803679466248,
                        -0.17654818296432495,
                        0.19934731721878052,
                        0.21375441551208496,
                        -0.03810294345021248,
                        0.14810308814048767,
                        0.21058259904384613,
                        -0.024867096915841103,
                        0.23387400805950165,
                        0.2059609442949295,
                        -0.03586575388908386,
                        -0.15684445202350616,
                        -0.2511792778968811,
                        0.03617534786462784,
                        -0.17077817022800446,
                        -0.0005981131107546389,
                        -0.16159182786941528,
                        -0.20945611596107483,
                        -0.06486139446496964,
                        0.17843081057071686,
                        0.09722737967967987,
                        0.2414971888065338,
                        0.13666321337223053,
                        0.11447980254888535,
                        0.24685272574424744,
                        0.04368576407432556,
                        -0.05613357946276665,
                        0.3237828016281128,
                        0.16504284739494324,
                        0.025143831968307495,
                        0.010128372348845005,
                        0.17562590539455414,
                        0.2945452332496643,
                        0.07130689918994904,
                        -0.22845138609409332,
                        -0.20042100548744202,
                        -0.02540166676044464,
                        0.09500270336866379,
                        0.011445139534771442,
                        0.05219167470932007,
                        -0.11914227902889252,
                        0.2483680099248886,
                        0.2644480764865875,
                        -0.1953900307416916,
                        0.09047888964414597,
                        0.052401889115571976,
                        -0.1880030632019043,
                        -0.061254434287548065,
                        0.3876654803752899,
                        -0.17162005603313446,
                        0.23291344940662384,
                        0.039771903306245804,
                        0.059884004294872284,
                        0.3100617229938507,
                        0.24214617908000946,
                        0.03786909952759743,
                        0.12459052354097366,
                        0.12686268985271454,
                        -0.06975795328617096,
                        0.088323675096035,
                        -0.12096687406301498,
                        -0.07733131945133209,
                        -0.11803751438856125,
                        0.16458122432231903,
                        0.10397112369537354,
                        0.08680060505867004,
                        0.027198905125260353,
                        0.20508110523223877,
                        -0.00808012019842863,
                        1.1799877882003784,
                        -0.121259905397892,
                        0.3677227795124054,
                        0.1600513905286789,
                        -0.14200890064239502,
                        -0.1989365667104721,
                        0.014081069268286228,
                        0.21070177853107452,
                        -0.1265900880098343,
                        -0.08223731070756912,
                        0.08836635947227478,
                        -0.09099870920181274,
                        -0.013314437121152878,
                        0.05088753625750542,
                        -0.2323831468820572,
                        0.1286010891199112,
                        0.05975712090730667,
                        -0.2380768209695816,
                        -0.09369262307882309,
                        -0.24276350438594818
                    ],
                    [
                        -0.424873024225235,
                        -0.10823240876197815,
                        0.17165295779705048,
                        -0.14915087819099426,
                        0.17214076220989227,
                        -0.5104343295097351,
                        -0.2966775894165039,
                        -1.8770197629928589,
                        -0.6621748805046082,
                        -0.33428916335105896,
                        -0.45437929034233093,
                        -0.2733920216560364,
                        -2.1885249614715576,
                        -0.49284127354621887,
                        -0.5632860660552979,
                        -1.445071816444397,
                        0.5808804631233215,
                        -1.61143958568573,
                        0.18736283481121063,
                        0.5468241572380066,
                        0.22698388993740082,
                        -0.7369028925895691,
                        0.5399815440177917,
                        1.2537535429000854,
                        0.7403768301010132,
                        0.9751179218292236,
                        -0.455976277589798,
                        0.8086006045341492,
                        -0.03343081846833229,
                        0.7339838147163391,
                        -0.12725114822387695,
                        -1.1299012899398804,
                        -0.40570783615112305,
                        0.13066087663173676,
                        -0.1264054924249649,
                        -0.9842589497566223,
                        0.053275711834430695,
                        0.7977955341339111,
                        -0.13322027027606964,
                        0.895493745803833,
                        -1.9515334367752075,
                        -0.2554304301738739,
                        0.26945653557777405,
                        0.41284212470054626,
                        4.408247947692871,
                        0.8558691143989563,
                        0.03751613572239876,
                        1.966164469718933,
                        0.3528754711151123,
                        -0.33284130692481995,
                        -0.13691161572933197,
                        -0.052047740668058395,
                        1.7916927337646484,
                        -1.2352828979492188,
                        1.9975014925003052,
                        0.994289755821228,
                        -0.8636099696159363,
                        0.44909313321113586,
                        2.4127204418182373,
                        1.0316972732543945,
                        0.14479613304138184,
                        0.7459410429000854,
                        2.1005115509033203,
                        2.2664129734039307,
                        0.4277071952819824,
                        -0.33896368741989136,
                        0.158899188041687,
                        -0.7821341156959534,
                        0.063275545835495,
                        1.5089432001113892,
                        -0.258335143327713,
                        -1.9565601348876953,
                        -0.699854850769043,
                        -0.7868793606758118,
                        -0.2687869966030121,
                        -0.0863758996129036,
                        -1.008406162261963,
                        3.0103626251220703,
                        -0.16848112642765045,
                        1.9303991794586182,
                        -0.500495195388794,
                        -0.03652185946702957,
                        -1.0740505456924438,
                        0.5024862885475159,
                        1.2863842248916626,
                        -0.44192564487457275,
                        0.8222216367721558,
                        0.735298752784729,
                        -0.08229903876781464,
                        0.051143426448106766,
                        2.3422584533691406,
                        -1.1361289024353027,
                        0.43474701046943665,
                        -1.911586880683899,
                        1.1267361640930176,
                        -1.0426576137542725
                    ]
                ],
                [
                    [
                        0.41101014614105225,
                        -0.774806559085846,
                        -0.2803286612033844,
                        -0.01983604207634926,
                        0.02144538424909115,
                        1.27792227268219,
                        -0.27609437704086304,
                        0.22848011553287506,
                        0.4061755836009979,
                        0.7817760109901428,
                        -0.6898680329322815,
                        0.30777791142463684,
                        -0.05346513167023659,
                        0.31035712361335754,
                        0.2189478576183319,
                        0.26523134112358093,
                        0.8277713656425476,
                        0.22738005220890045,
                        0.7767933011054993,
                        0.5112568140029907,
                        0.2017080932855606,
                        0.06174612045288086,
                        0.2729153633117676,
                        0.31383785605430603,
                        0.11917471140623093,
                        0.5959752798080444,
                        0.07066762447357178,
                        0.5761187076568604,
                        -0.3086594343185425,
                        0.9781626462936401,
                        0.3564096689224243,
                        0.3722100853919983,
                        -0.2661195695400238,
                        -0.371285080909729,
                        -0.36681827902793884,
                        -0.15230832993984222,
                        -0.1961662620306015,
                        -0.4371010363101959,
                        -0.29342013597488403,
                        -0.4181065559387207,
                        0.042828064411878586,
                        -0.08802609145641327,
                        0.023846503347158432,
                        -0.02304336056113243,
                        0.12831734120845795,
                        -0.10425187647342682,
                        -0.1263575404882431,
                        0.12237034738063812,
                        -0.18466293811798096,
                        -0.1947779804468155,
                        -0.23236225545406342,
                        -0.6486520767211914,
                        -0.01165616512298584,
                        -0.005729254800826311,
                        -0.14492686092853546,
                        -0.3794485628604889,
                        -0.2656170725822449,
                        -0.20679886639118195,
                        0.06706066429615021,
                        -0.159225732088089,
                        -0.2609168291091919,
                        -0.40866732597351074,
                        -0.02876886911690235,
                        0.058645471930503845,
                        0.2641960084438324,
                        -0.2936837673187256,
                        0.05417126417160034,
                        -0.22181810438632965,
                        0.32098767161369324,
                        0.24250884354114532,
                        -0.14252640306949615,
                        -0.27292221784591675,
                        -0.20201706886291504,
                        -0.23129601776599884,
                        0.2455601543188095,
                        0.04720623418688774,
                        0.15139137208461761,
                        0.0962592288851738,
                        -0.00818570051342249,
                        0.11186567693948746,
                        0.1417030245065689,
                        -0.1496695727109909,
                        -0.06021583452820778,
                        0.17295412719249725,
                        0.27051058411598206,
                        -0.2741536498069763,
                        -0.1624038815498352,
                        -0.3403029441833496,
                        -0.11739201843738556,
                        0.21368998289108276,
                        0.2037503868341446,
                        -0.22881264984607697,
                        0.022723354399204254,
                        -0.4127473831176758,
                        0.05950508639216423,
                        -0.22369229793548584
                    ],
                    [
                        -1.1226016283035278,
                        0.46939530968666077,
                        0.4535943865776062,
                        0.11509667336940765,
                        0.2607043981552124,
                        -1.043373942375183,
                        0.3136579096317291,
                        0.3685178756713867,
                        0.004856443032622337,
                        -0.14388461410999298,
                        1.0564007759094238,
                        0.03370824456214905,
                        0.06783518940210342,
                        0.14526493847370148,
                        -0.21408270299434662,
                        0.5288770198822021,
                        -0.6148120760917664,
                        0.10360868275165558,
                        -0.8283215761184692,
                        -0.8265138268470764,
                        -0.2793360650539398,
                        0.24354185163974762,
                        -0.22349177300930023,
                        0.0918997973203659,
                        -0.594802975654602,
                        -0.7089696526527405,
                        0.16171477735042572,
                        0.7427786588668823,
                        0.5414057970046997,
                        -1.1808322668075562,
                        0.0684894323348999,
                        -0.0704074278473854,
                        0.16975927352905273,
                        0.00858777854591608,
                        0.14560341835021973,
                        0.03391231596469879,
                        -0.004492287524044514,
                        0.0030707798432558775,
                        -0.17415030300617218,
                        0.287524551153183,
                        -0.015465257689356804,
                        -0.07676780223846436,
                        -0.348479688167572,
                        -0.13901346921920776,
                        -0.2193896472454071,
                        0.16241537034511566,
                        0.08797955513000488,
                        -0.02477414160966873,
                        -0.02130608633160591,
                        -0.251299113035202,
                        0.3515072464942932,
                        0.5204049348831177,
                        0.6181104183197021,
                        -0.10459700226783752,
                        -0.00622315751388669,
                        -0.25494155287742615,
                        0.1509779393672943,
                        -0.008538633584976196,
                        -0.45289281010627747,
                        0.24028939008712769,
                        0.1257411241531372,
                        0.5570495128631592,
                        -0.028657762333750725,
                        -0.4714100658893585,
                        -0.14857245981693268,
                        0.17906510829925537,
                        0.29120323061943054,
                        -0.21361736953258514,
                        0.22158022224903107,
                        0.27352476119995117,
                        -0.16342461109161377,
                        -0.10946214944124222,
                        -0.017091212794184685,
                        0.20633471012115479,
                        0.27440911531448364,
                        -0.005532311275601387,
                        -0.19571270048618317,
                        0.13258978724479675,
                        -0.008871610276401043,
                        0.33523356914520264,
                        0.22660714387893677,
                        -0.2941003441810608,
                        -0.06143772602081299,
                        0.06734395772218704,
                        0.3035198152065277,
                        -0.17892290651798248,
                        0.10544200986623764,
                        -0.21033547818660736,
                        0.022816607728600502,
                        0.28806832432746887,
                        -0.139628067612648,
                        0.2353653907775879,
                        0.13665871322155,
                        0.18961529433727264,
                        0.1916450560092926,
                        -0.004012031946331263
                    ],
                    [
                        -0.0024535360280424356,
                        1.4443715810775757,
                        0.8133835196495056,
                        0.07858940958976746,
                        0.5372511148452759,
                        0.3015592694282532,
                        0.397933691740036,
                        0.4031442105770111,
                        0.6006681323051453,
                        0.515603244304657,
                        0.050235480070114136,
                        0.3862963020801544,
                        0.18979693949222565,
                        0.7445198893547058,
                        0.5264047980308533,
                        0.6362494230270386,
                        0.10728078335523605,
                        -0.2060585469007492,
                        -0.11361278593540192,
                        0.5018724799156189,
                        0.43471890687942505,
                        0.16140224039554596,
                        0.41723868250846863,
                        1.7119243144989014,
                        0.4015193581581116,
                        -0.14315107464790344,
                        0.8856911063194275,
                        2.073025703430176,
                        0.19082413613796234,
                        -0.3891131281852722,
                        0.6110619306564331,
                        0.7113263010978699,
                        0.3496379256248474,
                        0.26652470231056213,
                        0.08649483323097229,
                        0.004043492954224348,
                        -0.46652349829673767,
                        0.05453028902411461,
                        -0.14045138657093048,
                        -0.4358201324939728,
                        -0.02872755378484726,
                        -0.4411568343639374,
                        -0.7929307222366333,
                        -0.5559850335121155,
                        -0.8875243067741394,
                        0.16802965104579926,
                        0.0789569690823555,
                        0.00459619564935565,
                        -0.10098323971033096,
                        -0.6065453290939331,
                        -0.1946755349636078,
                        0.1735079139471054,
                        0.14546693861484528,
                        -0.13907384872436523,
                        -0.24712753295898438,
                        -0.33691343665122986,
                        -0.3426178991794586,
                        -0.1600310057401657,
                        -0.721104621887207,
                        -0.4040537178516388,
                        -0.30018940567970276,
                        -0.3082878589630127,
                        0.04830050840973854,
                        -0.7909083366394043,
                        -0.4066099226474762,
                        0.36741283535957336,
                        0.4386238157749176,
                        -0.01609182544052601,
                        0.07461593300104141,
                        -0.2220284640789032,
                        -0.1091357171535492,
                        0.8110300302505493,
                        0.3722847104072571,
                        0.5028929114341736,
                        0.4425223767757416,
                        -0.09535796195268631,
                        0.11675561219453812,
                        -0.1396566778421402,
                        0.5958920121192932,
                        -0.05321599543094635,
                        0.23985962569713593,
                        0.023814376443624496,
                        0.27626731991767883,
                        0.21039293706417084,
                        -0.37576809525489807,
                        0.09178603440523148,
                        0.01600608229637146,
                        -0.4752374589443207,
                        0.4665727913379669,
                        0.3821440637111664,
                        -0.5062034130096436,
                        0.5372670292854309,
                        0.024148322641849518,
                        0.591540515422821,
                        0.05521419644355774,
                        0.4583742618560791
                    ],
                    [
                        -0.003608216065913439,
                        0.4948854148387909,
                        0.5473989844322205,
                        0.5677582621574402,
                        -0.25604090094566345,
                        -0.8627505302429199,
                        0.2149263471364975,
                        -1.0232222080230713,
                        0.3228744566440582,
                        0.13034813106060028,
                        0.592789888381958,
                        -0.054088328033685684,
                        0.6182488799095154,
                        -0.19630898535251617,
                        0.32008394598960876,
                        0.3883611261844635,
                        -0.6875499486923218,
                        0.5819133520126343,
                        -0.9489224553108215,
                        -0.9462584853172302,
                        -1.185158133506775,
                        0.5340015888214111,
                        -0.4908777177333832,
                        -0.25581979751586914,
                        -1.006339430809021,
                        -0.4469049572944641,
                        0.14945535361766815,
                        -0.5638140439987183,
                        0.41174209117889404,
                        -1.0133328437805176,
                        -0.26635172963142395,
                        -0.28106093406677246,
                        -0.16208796203136444,
                        -0.10739702731370926,
                        0.18220868706703186,
                        0.35429951548576355,
                        -0.12537358701229095,
                        -0.2549693286418915,
                        0.2503022849559784,
                        0.27425283193588257,
                        0.24018576741218567,
                        0.01868474669754505,
                        0.40163829922676086,
                        -0.27056050300598145,
                        -1.1753411293029785,
                        -0.10563451051712036,
                        -0.5805887579917908,
                        -0.1296481341123581,
                        0.08679214119911194,
                        0.27566924691200256,
                        0.18844527006149292,
                        0.2701103389263153,
                        -0.18706130981445312,
                        0.18107374012470245,
                        -0.17590488493442535,
                        0.08168946951627731,
                        0.14939816296100616,
                        0.2997397184371948,
                        -0.11176498234272003,
                        0.1692519336938858,
                        0.2923402786254883,
                        0.13604167103767395,
                        -0.2178957760334015,
                        -0.24338474869728088,
                        0.1822388917207718,
                        -0.011746830306947231,
                        -0.16466975212097168,
                        0.05751436576247215,
                        -0.24434654414653778,
                        0.06561406701803207,
                        0.17447230219841003,
                        0.048964377492666245,
                        0.3043237030506134,
                        0.02066746912896633,
                        -0.34662625193595886,
                        -0.19157858192920685,
                        0.11640933156013489,
                        -0.19428852200508118,
                        -0.03531694412231445,
                        0.07340946048498154,
                        -0.36160263419151306,
                        -0.141575887799263,
                        -0.12106639891862869,
                        -0.2516067624092102,
                        -0.13858558237552643,
                        0.29576972126960754,
                        -0.008258908055722713,
                        0.0405706912279129,
                        -0.013878824189305305,
                        -0.12083461880683899,
                        -0.16666722297668457,
                        -0.18544185161590576,
                        -0.03963451087474823,
                        0.0907101109623909,
                        -0.16218437254428864,
                        0.27686619758605957
                    ],
                    [
                        0.38331493735313416,
                        -0.7699236869812012,
                        -0.39492562413215637,
                        -0.28048455715179443,
                        0.6134531497955322,
                        1.147310733795166,
                        -0.3616753816604614,
                        0.47627729177474976,
                        0.2287002056837082,
                        0.4305771589279175,
                        -0.31313350796699524,
                        0.10209405422210693,
                        0.177742138504982,
                        0.03175344690680504,
                        -0.2602687478065491,
                        0.058242324739694595,
                        0.4895106554031372,
                        -0.4079045355319977,
                        0.781309187412262,
                        0.9834231734275818,
                        0.45593997836112976,
                        -0.3211864233016968,
                        0.6318632960319519,
                        0.41056257486343384,
                        0.2044016420841217,
                        0.5203298926353455,
                        0.9039115905761719,
                        0.04772116243839264,
                        -0.7153570652008057,
                        1.1157723665237427,
                        0.5116843581199646,
                        0.42256197333335876,
                        -0.07574789226055145,
                        0.4226021468639374,
                        -0.1605808287858963,
                        -0.3663400709629059,
                        0.04495410993695259,
                        0.017385127022862434,
                        0.04032816365361214,
                        -0.21753905713558197,
                        -0.34161099791526794,
                        -0.2480994462966919,
                        -0.15258091688156128,
                        -0.08679056167602539,
                        0.24322929978370667,
                        0.15179625153541565,
                        -0.15555237233638763,
                        0.08050777018070221,
                        -0.1611199975013733,
                        -0.6871882081031799,
                        -0.3502953350543976,
                        -0.5046048760414124,
                        0.09268530458211899,
                        -0.43479999899864197,
                        0.06045321375131607,
                        -0.06356459856033325,
                        0.4412195682525635,
                        -0.11846983432769775,
                        0.03125818446278572,
                        0.037023305892944336,
                        -0.22243136167526245,
                        -0.4273150861263275,
                        0.0737864226102829,
                        0.12050830572843552,
                        0.07373611629009247,
                        0.22814343869686127,
                        0.17992907762527466,
                        0.08114804327487946,
                        0.041255172342061996,
                        -0.39381176233291626,
                        -0.019819075241684914,
                        0.2507953941822052,
                        -0.08052656799554825,
                        0.11094389855861664,
                        0.12667174637317657,
                        -0.26310256123542786,
                        0.8001846671104431,
                        -0.03363791108131409,
                        -0.0734129324555397,
                        -0.0829673632979393,
                        0.10592970252037048,
                        0.30086496472358704,
                        0.2484489232301712,
                        -0.0796152874827385,
                        -0.12823577225208282,
                        -0.04925252124667168,
                        -0.3097119927406311,
                        -0.0625387504696846,
                        0.24606409668922424,
                        0.12088800966739655,
                        0.04898873716592789,
                        0.04393252357840538,
                        0.02642454393208027,
                        0.2375199794769287,
                        -0.12158891558647156,
                        0.37710630893707275
                    ],
                    [
                        -0.6464757919311523,
                        0.11564469337463379,
                        0.2917219400405884,
                        -0.9850893616676331,
                        0.523514986038208,
                        0.2976471185684204,
                        0.29316258430480957,
                        -2.218498706817627,
                        -0.3374535143375397,
                        -0.006790065672248602,
                        -0.4337475001811981,
                        -0.2698286473751068,
                        -1.9572806358337402,
                        0.4882846772670746,
                        -0.1274968534708023,
                        -1.0787204504013062,
                        -0.0003114794089924544,
                        -1.7934097051620483,
                        0.42497217655181885,
                        0.36029723286628723,
                        0.7225852012634277,
                        -0.6675500869750977,
                        0.4894580543041229,
                        1.1066052913665771,
                        -0.7196799516677856,
                        0.18510349094867706,
                        -0.6388776302337646,
                        1.417311191558838,
                        0.32852232456207275,
                        0.6780046820640564,
                        -0.4775323271751404,
                        -1.2184702157974243,
                        0.1660442352294922,
                        -0.15734781324863434,
                        -0.06314612925052643,
                        0.009000051766633987,
                        -0.010001367889344692,
                        -0.15381653606891632,
                        -0.0865134447813034,
                        -0.05859975144267082,
                        -0.18633884191513062,
                        0.4844711422920227,
                        0.5260563492774963,
                        0.3053137958049774,
                        2.9180216789245605,
                        -0.03686319664120674,
                        0.02821563556790352,
                        0.2102590948343277,
                        0.10796745866537094,
                        0.1799110770225525,
                        -0.3677824139595032,
                        0.09579403698444366,
                        0.462420791387558,
                        -0.05803661420941353,
                        -0.09286651760339737,
                        0.10344069451093674,
                        0.12491827458143234,
                        -0.11391133069992065,
                        0.9211752414703369,
                        0.26962170004844666,
                        -0.01696423627436161,
                        -0.02911158837378025,
                        0.0906597375869751,
                        1.2548600435256958,
                        -0.2918427586555481,
                        -0.20172680914402008,
                        -0.03378486633300781,
                        -0.01452772505581379,
                        0.38319316506385803,
                        -0.03275768831372261,
                        -0.5181195735931396,
                        -0.14417384564876556,
                        0.07695681601762772,
                        0.017956100404262543,
                        -0.006731636822223663,
                        0.054315026849508286,
                        -1.1198084354400635,
                        -0.18794254958629608,
                        0.2756906747817993,
                        0.2352304756641388,
                        0.40219876170158386,
                        0.5059186220169067,
                        0.24536959826946259,
                        0.621673583984375,
                        0.3490152657032013,
                        0.056535542011260986,
                        -0.14276224374771118,
                        0.1365911364555359,
                        0.6932406425476074,
                        0.20076408982276917,
                        0.0651954635977745,
                        0.07765122503042221,
                        0.7502028942108154,
                        -0.07363200187683105,
                        -0.08074267953634262,
                        -0.27073511481285095
                    ],
                    [
                        -0.11301561444997787,
                        0.4385678172111511,
                        0.3189083933830261,
                        0.24321052432060242,
                        -0.9866757392883301,
                        -1.0839250087738037,
                        0.345944344997406,
                        0.307679682970047,
                        -0.25605764985084534,
                        -0.46271607279777527,
                        0.45226794481277466,
                        0.027328606694936752,
                        0.3193533718585968,
                        -0.46419838070869446,
                        0.015952233225107193,
                        -0.4243731200695038,
                        -0.8553234934806824,
                        0.23879925906658173,
                        -0.34630703926086426,
                        -1.3278206586837769,
                        0.07227732986211777,
                        0.19591592252254486,
                        -0.6070079803466797,
                        -0.49995726346969604,
                        0.20212936401367188,
                        -0.4782610833644867,
                        -0.6640864610671997,
                        -0.23923684656620026,
                        0.47303107380867004,
                        -0.6788795590400696,
                        -1.1873284578323364,
                        -0.11311483383178711,
                        -0.17640405893325806,
                        -0.32659047842025757,
                        0.19635188579559326,
                        0.17914898693561554,
                        0.02906649187207222,
                        0.34517213702201843,
                        0.07072435319423676,
                        0.07864297926425934,
                        -0.0935526043176651,
                        0.3517344892024994,
                        -0.03572351485490799,
                        0.2779957950115204,
                        -0.09448185563087463,
                        -0.2710629403591156,
                        0.07974082976579666,
                        0.025184957310557365,
                        0.27624231576919556,
                        0.42173007130622864,
                        -0.33840855956077576,
                        0.6933591961860657,
                        -0.09103308618068695,
                        0.19512824714183807,
                        -0.06106087565422058,
                        0.3335036039352417,
                        0.0282234288752079,
                        -0.01870911195874214,
                        -0.1333160549402237,
                        0.3344392478466034,
                        0.09693608433008194,
                        0.371043860912323,
                        -0.18485566973686218,
                        -0.06486217677593231,
                        0.09904656559228897,
                        -0.15794384479522705,
                        -0.08466603606939316,
                        -0.14097526669502258,
                        -0.07817365974187851,
                        -0.07984309643507004,
                        0.3013450801372528,
                        -0.36653247475624084,
                        -0.00525969872251153,
                        -0.05691895633935928,
                        -0.12773126363754272,
                        0.2975524961948395,
                        -1.0410804748535156,
                        0.3526800870895386,
                        0.030054282397031784,
                        0.1957295686006546,
                        -0.09855657815933228,
                        -0.20977851748466492,
                        -0.36110419034957886,
                        -0.14754849672317505,
                        0.6563030481338501,
                        -0.2657545506954193,
                        0.20324274897575378,
                        0.2781873941421509,
                        -0.15821479260921478,
                        -0.12021773308515549,
                        0.2642795741558075,
                        -0.17571060359477997,
                        -0.048592764884233475,
                        -0.941845715045929,
                        0.04809476435184479,
                        -0.5864827036857605
                    ],
                    [
                        0.5720459222793579,
                        -0.09994851052761078,
                        0.04280208796262741,
                        1.2898988723754883,
                        0.1446956992149353,
                        -0.016285762190818787,
                        0.23617272078990936,
                        1.0012024641036987,
                        0.7430633902549744,
                        0.7614707946777344,
                        0.3341979384422302,
                        0.8788060545921326,
                        2.0481345653533936,
                        1.14018976688385,
                        1.098180890083313,
                        1.0572115182876587,
                        0.06688892096281052,
                        2.5385913848876953,
                        0.04369139298796654,
                        0.14665763080120087,
                        0.07674945890903473,
                        1.2101490497589111,
                        0.5587639212608337,
                        0.002733303466811776,
                        1.145068883895874,
                        -0.13884112238883972,
                        1.1731761693954468,
                        0.3938249945640564,
                        0.032636646181344986,
                        -0.3372774124145508,
                        0.7893142104148865,
                        1.5513174533843994,
                        -0.2000446319580078,
                        -0.08693231642246246,
                        0.37668466567993164,
                        0.2138984501361847,
                        -0.35439980030059814,
                        -0.9248982667922974,
                        -0.15556058287620544,
                        -0.21214653551578522,
                        0.23534941673278809,
                        -0.36886873841285706,
                        -0.17218124866485596,
                        -0.4120699465274811,
                        -3.2850022315979004,
                        0.04826796054840088,
                        -0.41424962878227234,
                        -0.3270505666732788,
                        -0.22361420094966888,
                        -0.10561887919902802,
                        0.40835681557655334,
                        -0.1420513093471527,
                        -0.1468396782875061,
                        0.3878222107887268,
                        -0.2127065807580948,
                        -0.14256316423416138,
                        -0.39669254422187805,
                        0.07630562782287598,
                        -1.0869863033294678,
                        0.18273285031318665,
                        0.055094242095947266,
                        -0.31177055835723877,
                        -0.16884954273700714,
                        -1.4943931102752686,
                        -0.0649930015206337,
                        -0.24620801210403442,
                        -0.14515778422355652,
                        0.22726184129714966,
                        -0.04239862412214279,
                        -0.0026261203456670046,
                        0.3927614688873291,
                        0.316754013299942,
                        0.23244965076446533,
                        0.011849735863506794,
                        -0.08421766012907028,
                        -0.06404877454042435,
                        1.0491094589233398,
                        -0.32053160667419434,
                        0.14767426252365112,
                        -0.08442883938550949,
                        -0.41705575585365295,
                        -0.6551327109336853,
                        0.0617617703974247,
                        -0.3904705345630646,
                        -0.21970322728157043,
                        0.02594522014260292,
                        -0.1991380751132965,
                        0.11575598269701004,
                        -0.4395574629306793,
                        -0.12618771195411682,
                        -0.715705156326294,
                        0.17392845451831818,
                        -0.01989028975367546,
                        0.07442975044250488,
                        -0.1764395385980606,
                        0.11410568654537201
                    ],
                    [
                        -0.3919774293899536,
                        0.6943945288658142,
                        0.4930327236652374,
                        0.6906507611274719,
                        -0.15357694029808044,
                        -0.8604090213775635,
                        0.1950090527534485,
                        0.11475741863250732,
                        0.39289969205856323,
                        0.0716458112001419,
                        0.843494713306427,
                        -0.19033968448638916,
                        0.5639890432357788,
                        0.31749892234802246,
                        0.40276214480400085,
                        0.632765531539917,
                        -0.3157479166984558,
                        0.6148073077201843,
                        -0.6188219785690308,
                        -1.2358503341674805,
                        -0.5829604864120483,
                        0.8566471338272095,
                        -0.4877972900867462,
                        -0.20314054191112518,
                        -0.13887865841388702,
                        -0.6215227842330933,
                        0.22572767734527588,
                        -0.09443957358598709,
                        0.4300644099712372,
                        -1.0779204368591309,
                        0.15846994519233704,
                        0.24236823618412018,
                        -0.12234912812709808,
                        0.15821072459220886,
                        0.3905012011528015,
                        0.16182708740234375,
                        0.03966471180319786,
                        -0.1768335998058319,
                        0.3331734836101532,
                        -0.05946183577179909,
                        -0.029088890179991722,
                        0.08199029415845871,
                        -0.019290372729301453,
                        -0.18139389157295227,
                        -1.1561208963394165,
                        0.05963735654950142,
                        -0.1465849131345749,
                        -0.3255632519721985,
                        -0.02617567405104637,
                        0.5593253374099731,
                        0.20727919042110443,
                        0.0744398906826973,
                        -0.181024968624115,
                        0.09692583978176117,
                        -0.3276435434818268,
                        -0.07501674443483353,
                        -0.16688679158687592,
                        0.11814749985933304,
                        -0.3323679268360138,
                        0.09537655860185623,
                        0.25956735014915466,
                        0.15489248931407928,
                        -0.24973958730697632,
                        -0.5838521122932434,
                        -0.031122302636504173,
                        -0.13059504330158234,
                        0.077882319688797,
                        0.1574183851480484,
                        -0.11862542480230331,
                        -0.07184935361146927,
                        0.29004940390586853,
                        0.1543228179216385,
                        0.2643076181411743,
                        0.10789888352155685,
                        -0.2359095811843872,
                        -0.03300582617521286,
                        -0.0994950532913208,
                        -0.14369207620620728,
                        0.17646154761314392,
                        -0.07753533124923706,
                        -0.08800438046455383,
                        -0.11549815535545349,
                        -0.17151489853858948,
                        -0.3114646077156067,
                        -0.14641354978084564,
                        0.07955484092235565,
                        0.06567548960447311,
                        -0.09023471921682358,
                        0.07034967094659805,
                        -0.19518378376960754,
                        -0.24413231015205383,
                        -0.2023097574710846,
                        -0.17178042232990265,
                        0.30040696263313293,
                        -0.11087559163570404,
                        0.04685276374220848
                    ],
                    [
                        -0.4722749590873718,
                        0.6652355790138245,
                        0.25231724977493286,
                        0.4040619730949402,
                        0.22926464676856995,
                        -0.6254100203514099,
                        0.2661888003349304,
                        1.5528775453567505,
                        0.4410269260406494,
                        -0.21707554161548615,
                        0.8292250633239746,
                        -0.009167627431452274,
                        0.8804022669792175,
                        0.40333589911460876,
                        -0.4340101182460785,
                        0.4228333532810211,
                        -0.2716800272464752,
                        0.8940439820289612,
                        -0.411717027425766,
                        -0.05107546225190163,
                        -0.262460321187973,
                        0.6906095743179321,
                        -0.3080521821975708,
                        -0.21546047925949097,
                        0.7176663279533386,
                        -0.4291042685508728,
                        0.12041256576776505,
                        0.1798558384180069,
                        0.16684181988239288,
                        -0.5641757249832153,
                        0.5067618489265442,
                        0.0338468924164772,
                        0.03915904834866524,
                        0.30424222350120544,
                        0.19860492646694183,
                        -0.02832023613154888,
                        -0.13950181007385254,
                        -0.0717608779668808,
                        -0.015420321375131607,
                        -0.2750074565410614,
                        -0.2506025433540344,
                        -0.45622414350509644,
                        -0.49984636902809143,
                        -0.1816992312669754,
                        -1.0389689207077026,
                        0.19853661954402924,
                        -0.1573224514722824,
                        0.11507602035999298,
                        -0.20417538285255432,
                        -0.4631347358226776,
                        0.32298436760902405,
                        0.3401277959346771,
                        -0.21213392913341522,
                        -0.061080288141965866,
                        -0.10182803869247437,
                        -0.27121758460998535,
                        -0.2697634994983673,
                        0.03963923454284668,
                        -0.7645850777626038,
                        0.17132511734962463,
                        -0.014568675309419632,
                        -0.13559837639331818,
                        -0.16603276133537292,
                        -0.8438946604728699,
                        -0.09737822413444519,
                        0.3486424684524536,
                        0.22067545354366302,
                        -0.23529410362243652,
                        -0.11075933277606964,
                        0.20701290667057037,
                        -0.04019210860133171,
                        0.08052738010883331,
                        -0.16958478093147278,
                        -0.15033911168575287,
                        0.19620965421199799,
                        -0.009835842065513134,
                        -0.15582652390003204,
                        0.16243402659893036,
                        0.2675032317638397,
                        -0.09948659688234329,
                        -0.29892244935035706,
                        -0.4082270860671997,
                        0.13223552703857422,
                        -0.2768756151199341,
                        -0.21403461694717407,
                        -0.22134709358215332,
                        -0.006200170144438744,
                        -0.032221898436546326,
                        -0.18021747469902039,
                        -0.20517772436141968,
                        -0.43155157566070557,
                        0.06084150820970535,
                        -0.09892931580543518,
                        -0.13544486463069916,
                        0.023134231567382812,
                        0.235857754945755
                    ],
                    [
                        0.2578287124633789,
                        -1.4962575435638428,
                        -0.4892742335796356,
                        -0.27229419350624084,
                        0.36196884512901306,
                        1.0366780757904053,
                        -0.21361130475997925,
                        0.5104756355285645,
                        0.7760375738143921,
                        0.48558053374290466,
                        -1.3181114196777344,
                        0.06174342334270477,
                        0.06610219925642014,
                        0.4893282651901245,
                        0.3722161650657654,
                        0.13409240543842316,
                        0.7755402326583862,
                        -0.23338750004768372,
                        0.6993025541305542,
                        0.9164972305297852,
                        0.5112686157226562,
                        -0.07442431151866913,
                        0.5213135480880737,
                        0.38848963379859924,
                        0.262350469827652,
                        0.5749815702438354,
                        1.3521288633346558,
                        0.5124729871749878,
                        -0.4846767485141754,
                        1.1441055536270142,
                        0.7145689725875854,
                        0.48233044147491455,
                        -0.01088913157582283,
                        -0.07113467901945114,
                        -0.41148969531059265,
                        -0.12332563102245331,
                        -0.10286431014537811,
                        -0.002453306457027793,
                        -0.06955817341804504,
                        -0.6875035166740417,
                        -0.09501943737268448,
                        -0.4856293797492981,
                        0.03955534100532532,
                        -0.05128513276576996,
                        0.22270724177360535,
                        -0.056798357516527176,
                        0.04276752099394798,
                        0.07346082478761673,
                        -0.034138139337301254,
                        -0.6741353273391724,
                        8.321180212078616e-05,
                        -0.3472069501876831,
                        -0.13996976613998413,
                        -0.3407353460788727,
                        0.1271844357252121,
                        -0.2756231725215912,
                        -0.10210421681404114,
                        -0.2835277020931244,
                        0.012961585074663162,
                        -0.3663817346096039,
                        -0.35521090030670166,
                        -0.3959721028804779,
                        0.06908157467842102,
                        -0.1465580016374588,
                        0.11855035275220871,
                        0.06738641113042831,
                        0.3547475337982178,
                        -0.12430431693792343,
                        0.38996946811676025,
                        -0.07237525284290314,
                        -0.03316488116979599,
                        -0.007381922099739313,
                        -0.1601029932498932,
                        0.05601364001631737,
                        0.05698782578110695,
                        -0.18196845054626465,
                        0.47647175192832947,
                        -0.09580135345458984,
                        0.024919485673308372,
                        0.07761721312999725,
                        0.37085258960723877,
                        -0.30669623613357544,
                        -0.21077531576156616,
                        0.14129583537578583,
                        0.042036157101392746,
                        -0.1742648184299469,
                        -0.03731747344136238,
                        -0.3841855823993683,
                        0.031093543395400047,
                        0.17909248173236847,
                        0.014279779978096485,
                        0.0590219609439373,
                        0.19168132543563843,
                        0.14628636837005615,
                        0.0663093701004982,
                        -0.037061188369989395
                    ],
                    [
                        -0.35088780522346497,
                        1.0893869400024414,
                        0.44940993189811707,
                        -0.6400684118270874,
                        -0.5477885603904724,
                        -1.4404667615890503,
                        0.34738391637802124,
                        -0.4528585970401764,
                        -0.342007040977478,
                        -0.6247192621231079,
                        0.5583337545394897,
                        -0.15915000438690186,
                        -0.19929882884025574,
                        -0.8497669100761414,
                        -0.24665534496307373,
                        -0.8181121945381165,
                        -0.9283214807510376,
                        -0.5128591656684875,
                        -0.7388330101966858,
                        -1.0651843547821045,
                        -0.2167174518108368,
                        -0.6752315163612366,
                        -0.5235431790351868,
                        -0.48088139295578003,
                        -0.19258052110671997,
                        -0.33933311700820923,
                        -0.7562609314918518,
                        -0.35348519682884216,
                        0.3002326786518097,
                        -1.077791690826416,
                        -1.0129139423370361,
                        -0.429364413022995,
                        0.10584565997123718,
                        -0.198332741856575,
                        0.3914198875427246,
                        0.21058915555477142,
                        0.20652416348457336,
                        0.33506888151168823,
                        -0.023554230108857155,
                        0.36818158626556396,
                        0.12326332181692123,
                        0.20382408797740936,
                        0.08740915358066559,
                        0.18613123893737793,
                        0.05395418405532837,
                        0.17129477858543396,
                        0.2108786255121231,
                        0.0038505918346345425,
                        0.3001207113265991,
                        0.3335781991481781,
                        -0.07848290354013443,
                        0.3072347640991211,
                        0.11657587438821793,
                        0.06423531472682953,
                        0.08221299201250076,
                        0.630004346370697,
                        0.0069741616025567055,
                        -0.00042281870264559984,
                        0.21924294531345367,
                        0.21661466360092163,
                        0.12139371782541275,
                        0.3888509273529053,
                        0.021456900984048843,
                        0.09606454521417618,
                        -0.30329734086990356,
                        0.11073025315999985,
                        -0.12583611905574799,
                        0.07080035656690598,
                        -0.18189366161823273,
                        -0.15271426737308502,
                        0.06074010580778122,
                        -0.037378471344709396,
                        -0.08662033826112747,
                        0.08165650069713593,
                        -0.21721722185611725,
                        0.13261379301548004,
                        -0.4527336061000824,
                        0.0521467849612236,
                        0.003753903554752469,
                        0.09381667524576187,
                        -0.046270132064819336,
                        0.11267053335905075,
                        0.003225094173103571,
                        -0.10068923234939575,
                        0.15167324244976044,
                        0.12622405588626862,
                        0.08393439650535583,
                        0.2856888771057129,
                        0.2125108540058136,
                        -0.038286998867988586,
                        0.22803780436515808,
                        -0.057661883533000946,
                        0.14053373038768768,
                        0.10002882033586502,
                        0.11548604816198349,
                        0.03167154639959335
                    ],
                    [
                        0.7796579599380493,
                        -0.28150275349617004,
                        -0.23174019157886505,
                        1.540677785873413,
                        0.27562621235847473,
                        0.5881127715110779,
                        -0.020690307021141052,
                        0.4645903408527374,
                        0.6963164806365967,
                        1.0167930126190186,
                        0.12958072125911713,
                        0.3972029387950897,
                        1.6153249740600586,
                        1.4117735624313354,
                        1.4085050821304321,
                        1.582935094833374,
                        0.542132556438446,
                        1.1799242496490479,
                        0.11928360909223557,
                        -0.05374109745025635,
                        0.40211203694343567,
                        1.6511414051055908,
                        0.9354349374771118,
                        1.0144972801208496,
                        1.1988369226455688,
                        0.5481849312782288,
                        1.840824007987976,
                        0.4062999188899994,
                        -0.007032450754195452,
                        1.214774489402771,
                        1.2569350004196167,
                        0.9559059739112854,
                        -0.13789761066436768,
                        -0.2586502134799957,
                        -0.07943437993526459,
                        0.044940285384655,
                        0.0652552992105484,
                        -0.6873656511306763,
                        0.2983519732952118,
                        -0.31794917583465576,
                        -0.04430999234318733,
                        -0.6060448884963989,
                        0.198907271027565,
                        -0.013429197482764721,
                        -0.5708320140838623,
                        -0.05719060078263283,
                        -0.8910648822784424,
                        -0.007412496022880077,
                        -0.294291228055954,
                        0.140365332365036,
                        0.42439496517181396,
                        -0.23889273405075073,
                        0.02849203534424305,
                        -0.03639652952551842,
                        -0.059299662709236145,
                        -0.2544941306114197,
                        -0.5960659980773926,
                        -0.19030213356018066,
                        -0.4869678020477295,
                        -0.027429064735770226,
                        0.01054155919700861,
                        -0.5981761813163757,
                        -0.12888506054878235,
                        -0.48559701442718506,
                        0.2997699975967407,
                        -0.28845712542533875,
                        -0.040545910596847534,
                        -0.0833904817700386,
                        -0.054944850504398346,
                        0.15579333901405334,
                        0.010624273680150509,
                        0.12293767929077148,
                        0.04021185636520386,
                        -0.18276581168174744,
                        -0.042561084032058716,
                        -0.11720532178878784,
                        0.4952087700366974,
                        0.07897643744945526,
                        0.11616688221693039,
                        -0.21482975780963898,
                        -0.24409715831279755,
                        -0.4360505938529968,
                        -0.09922569245100021,
                        0.13864387571811676,
                        -0.059775568544864655,
                        0.03194694221019745,
                        -0.11385101079940796,
                        0.1018613874912262,
                        -0.2178400605916977,
                        0.10117251425981522,
                        -0.23379337787628174,
                        -0.0859854519367218,
                        0.04080155864357948,
                        -0.008691898547112942,
                        -0.05998024344444275,
                        0.12743768095970154
                    ],
                    [
                        -0.13960938155651093,
                        -0.002451682696118951,
                        0.17194250226020813,
                        -1.485822319984436,
                        0.1595909148454666,
                        -0.3952363133430481,
                        -0.003358524525538087,
                        -1.4022502899169922,
                        -0.9390885829925537,
                        -0.41083183884620667,
                        0.1433807611465454,
                        -0.7847490906715393,
                        -1.810752272605896,
                        -1.3682067394256592,
                        -0.8063610792160034,
                        -1.3578143119812012,
                        -0.07493041455745697,
                        -1.2173205614089966,
                        -0.24908223748207092,
                        0.6243783831596375,
                        -0.8926858305931091,
                        -0.9340507388114929,
                        -0.1669151335954666,
                        -0.6054299473762512,
                        0.009243141859769821,
                        0.4319044351577759,
                        -0.7992158532142639,
                        -0.3369474411010742,
                        0.037020519375801086,
                        -1.0353140830993652,
                        0.027240736410021782,
                        -1.1229989528656006,
                        0.46591731905937195,
                        0.074081189930439,
                        0.23860251903533936,
                        -0.3897269368171692,
                        -0.3166622519493103,
                        0.29525962471961975,
                        0.1440388411283493,
                        0.577155351638794,
                        -0.34480738639831543,
                        0.29301512241363525,
                        -0.02767990157008171,
                        0.3073280155658722,
                        2.2522969245910645,
                        0.2846705913543701,
                        0.39969152212142944,
                        0.22124040126800537,
                        -0.10559653490781784,
                        -0.1318839192390442,
                        -0.1531522423028946,
                        0.12997819483280182,
                        0.46584463119506836,
                        -0.4456552267074585,
                        0.12469323724508286,
                        -0.42372387647628784,
                        0.3526221215724945,
                        -0.0336017832159996,
                        0.811558723449707,
                        0.1645074039697647,
                        0.3143555521965027,
                        0.13255368173122406,
                        0.09107956290245056,
                        1.081068754196167,
                        -0.07789134234189987,
                        0.08087670803070068,
                        0.3515755236148834,
                        0.0004914233577437699,
                        0.062067825347185135,
                        0.2681370675563812,
                        -0.15386708080768585,
                        -0.14949984848499298,
                        -0.18433131277561188,
                        -0.11527194827795029,
                        0.14577798545360565,
                        0.22488941252231598,
                        -0.9940021634101868,
                        -0.22600091993808746,
                        0.375291645526886,
                        0.2756381034851074,
                        0.4002957344055176,
                        0.44014596939086914,
                        -0.05678375065326691,
                        0.47389015555381775,
                        0.1423218995332718,
                        -0.15188919007778168,
                        -0.07777615636587143,
                        0.05695180594921112,
                        0.06800718605518341,
                        0.19538018107414246,
                        0.20149481296539307,
                        -0.15261854231357574,
                        0.22077174484729767,
                        -0.2794559597969055,
                        0.099319688975811,
                        -0.5401248931884766
                    ],
                    [
                        -0.743574321269989,
                        0.44107964634895325,
                        0.4474393129348755,
                        -0.5555647015571594,
                        0.13196641206741333,
                        -1.4315903186798096,
                        0.4011058211326599,
                        -1.464819073677063,
                        -0.40869277715682983,
                        -0.1129540428519249,
                        0.18009315431118011,
                        -0.44461938738822937,
                        -0.8187386989593506,
                        -0.4487083852291107,
                        -0.27549952268600464,
                        -0.5370816588401794,
                        -0.8856527805328369,
                        -0.5195801854133606,
                        -0.7718959450721741,
                        -0.36824217438697815,
                        -1.1645481586456299,
                        -0.5981854796409607,
                        -0.14192959666252136,
                        -0.4844921827316284,
                        -0.9371930360794067,
                        -0.5421385765075684,
                        -0.1999603658914566,
                        -0.8664526343345642,
                        0.22998011112213135,
                        -1.105677604675293,
                        -0.3391341269016266,
                        -0.31311556696891785,
                        0.057074591517448425,
                        0.019430527463555336,
                        0.41536766290664673,
                        0.1177932396531105,
                        0.3008820116519928,
                        0.2549959421157837,
                        0.2974337339401245,
                        0.4070596694946289,
                        -0.032880645245313644,
                        0.23536084592342377,
                        0.31102240085601807,
                        0.11730866879224777,
                        -0.07063179463148117,
                        -0.0533645860850811,
                        0.18956372141838074,
                        -0.1978529393672943,
                        0.1480109989643097,
                        0.22648730874061584,
                        -0.29421329498291016,
                        0.6176981329917908,
                        0.3012228012084961,
                        -0.028558656573295593,
                        -0.04239366576075554,
                        0.34185582399368286,
                        0.13101819157600403,
                        0.37389639019966125,
                        0.37149667739868164,
                        0.3088906705379486,
                        0.2869870662689209,
                        0.33933502435684204,
                        -0.029465744271874428,
                        0.18503424525260925,
                        -0.24477097392082214,
                        0.039977677166461945,
                        0.07187908887863159,
                        0.08175543695688248,
                        -0.08115144073963165,
                        -0.27539077401161194,
                        -0.17403458058834076,
                        0.05998561158776283,
                        0.30131199955940247,
                        0.06611524522304535,
                        0.03386124595999718,
                        -0.05978836119174957,
                        -0.4196416139602661,
                        -0.1554168313741684,
                        -0.1045728400349617,
                        -0.21618720889091492,
                        -0.04818277806043625,
                        0.15721267461776733,
                        0.21077418327331543,
                        -0.22645467519760132,
                        0.09046066552400589,
                        0.1404612958431244,
                        0.08986835181713104,
                        0.2828509211540222,
                        0.10209987312555313,
                        -0.14228694140911102,
                        -0.10312957316637039,
                        0.2875617444515228,
                        0.11118800193071365,
                        0.3621613681316376,
                        0.06779170781373978,
                        0.11105861514806747
                    ],
                    [
                        -0.25829026103019714,
                        0.23608657717704773,
                        0.03524484485387802,
                        -1.5419118404388428,
                        0.10610350221395493,
                        -0.7310031056404114,
                        0.2292957454919815,
                        -1.3674209117889404,
                        -0.9402336478233337,
                        -0.36484020948410034,
                        0.14827482402324677,
                        -0.6095596551895142,
                        -0.8107417225837708,
                        -1.2618964910507202,
                        -1.227871298789978,
                        -1.1549700498580933,
                        -0.6769798994064331,
                        -1.4037296772003174,
                        -1.1171232461929321,
                        -0.06342437863349915,
                        -1.6871088743209839,
                        -1.2282114028930664,
                        -0.39617934823036194,
                        0.14767895638942719,
                        -0.6171556711196899,
                        -0.2984180152416229,
                        -0.42634281516075134,
                        -1.5757849216461182,
                        -0.09228943288326263,
                        -1.5037908554077148,
                        -0.5426192283630371,
                        -1.1117663383483887,
                        0.2091282606124878,
                        0.2252814918756485,
                        0.36697131395339966,
                        -0.008122172206640244,
                        -0.23056665062904358,
                        0.2063843309879303,
                        0.20609557628631592,
                        0.44030073285102844,
                        -0.00403665890917182,
                        0.5791520476341248,
                        0.10494254529476166,
                        0.0940508097410202,
                        0.9540846347808838,
                        0.22421899437904358,
                        0.08146976679563522,
                        0.2759760916233063,
                        0.11013370752334595,
                        -0.09943845868110657,
                        -0.1698393076658249,
                        0.3714432120323181,
                        0.11915893107652664,
                        -0.20878881216049194,
                        -0.3396914005279541,
                        -0.01982269436120987,
                        0.5987969040870667,
                        -0.03226388990879059,
                        0.6959835886955261,
                        0.09594207257032394,
                        0.1353369802236557,
                        -0.18253116309642792,
                        0.1537606120109558,
                        0.8221791386604309,
                        -0.37623104453086853,
                        0.05344530567526817,
                        0.1671821027994156,
                        -0.11848309636116028,
                        0.19398187100887299,
                        0.001501957536675036,
                        -0.15652623772621155,
                        -0.007940934970974922,
                        -0.04240787401795387,
                        -0.091412253677845,
                        0.012516255490481853,
                        -0.09499791264533997,
                        -0.9647766351699829,
                        -0.03784853219985962,
                        0.1707582324743271,
                        0.1951921284198761,
                        0.2591460049152374,
                        0.13424843549728394,
                        -0.08400202542543411,
                        0.30353495478630066,
                        0.03971792757511139,
                        -0.3267253041267395,
                        -0.06789358705282211,
                        0.03483981266617775,
                        0.10679689794778824,
                        0.1366867572069168,
                        0.2496674656867981,
                        -0.015613880008459091,
                        -0.12039805203676224,
                        -0.21265429258346558,
                        0.10286949574947357,
                        -0.2833603322505951
                    ],
                    [
                        0.11754156649112701,
                        -0.6992331147193909,
                        -0.381557822227478,
                        -0.5403616428375244,
                        0.08014392107725143,
                        1.2864125967025757,
                        -0.3545079529285431,
                        1.199753999710083,
                        -0.14489343762397766,
                        0.33610114455223083,
                        -0.4074080288410187,
                        0.40287578105926514,
                        0.2140883058309555,
                        -0.3114597499370575,
                        -0.41232407093048096,
                        -0.23448100686073303,
                        0.5390406250953674,
                        -0.4484838843345642,
                        0.6506271958351135,
                        1.0286085605621338,
                        0.5678106546401978,
                        -0.46891194581985474,
                        0.2757548391819,
                        0.03643378987908363,
                        0.5644330978393555,
                        0.4374794661998749,
                        0.08050545305013657,
                        -0.11098165810108185,
                        -0.7452079057693481,
                        1.1310818195343018,
                        0.2792215943336487,
                        0.26897257566452026,
                        -0.10535682737827301,
                        0.40357550978660583,
                        -0.34343087673187256,
                        -0.3565945029258728,
                        -0.06463345885276794,
                        0.1409606635570526,
                        -0.1449940800666809,
                        -0.36916226148605347,
                        -0.31877467036247253,
                        -0.21349385380744934,
                        -0.3048100173473358,
                        -0.28504833579063416,
                        0.05440728738903999,
                        0.012286203913390636,
                        -0.28859418630599976,
                        0.16227954626083374,
                        -0.37263384461402893,
                        -0.3587961196899414,
                        -0.5429709553718567,
                        -0.29472705721855164,
                        -0.3567503094673157,
                        -0.277286559343338,
                        0.08413620293140411,
                        0.10597449541091919,
                        -0.035630013793706894,
                        -0.39975839853286743,
                        0.033178310841321945,
                        -0.13196831941604614,
                        -0.16336286067962646,
                        -0.32926955819129944,
                        -0.25836315751075745,
                        0.01778642274439335,
                        0.08075222373008728,
                        0.35601186752319336,
                        -0.17087812721729279,
                        -0.15157940983772278,
                        0.10260524600744247,
                        -0.2414415329694748,
                        0.102500319480896,
                        0.26424968242645264,
                        0.00894617848098278,
                        0.2608976364135742,
                        0.09421323239803314,
                        -0.28317126631736755,
                        1.0065706968307495,
                        0.04823848605155945,
                        -0.3177494704723358,
                        0.07466234266757965,
                        0.01770978607237339,
                        0.2919824719429016,
                        0.19633591175079346,
                        -0.34692731499671936,
                        -0.3615873456001282,
                        0.04554939270019531,
                        -0.06683405488729477,
                        -0.12552525103092194,
                        0.060213763266801834,
                        -0.09190189093351364,
                        -0.10851986706256866,
                        0.11764690279960632,
                        -0.03910209611058235,
                        0.34010836482048035,
                        -0.13428619503974915,
                        0.1666501760482788
                    ],
                    [
                        -0.37390005588531494,
                        0.16098883748054504,
                        0.30414077639579773,
                        0.6570056676864624,
                        -0.48318448662757874,
                        -0.758644163608551,
                        0.00044600715045817196,
                        0.8123441338539124,
                        -0.9509290456771851,
                        -1.2416582107543945,
                        1.0012619495391846,
                        -0.612885057926178,
                        0.7938483953475952,
                        -0.5426795482635498,
                        -0.01717452146112919,
                        -0.4008157253265381,
                        -0.3761066794395447,
                        -0.05795743688941002,
                        0.0837387666106224,
                        -0.6395199298858643,
                        0.41238027811050415,
                        0.1158624067902565,
                        -0.4205242395401001,
                        -0.5562217831611633,
                        0.3640565574169159,
                        -0.2934994101524353,
                        -1.2610454559326172,
                        -0.5003693103790283,
                        0.3583988845348358,
                        -0.6535106301307678,
                        -0.03526807948946953,
                        -0.09827357530593872,
                        0.1088653951883316,
                        0.17816990613937378,
                        0.043887849897146225,
                        0.13823725283145905,
                        -0.1665279120206833,
                        0.004036914557218552,
                        0.14723949134349823,
                        0.032947733998298645,
                        -0.14909420907497406,
                        0.15485630929470062,
                        -0.12783509492874146,
                        -0.054309744387865067,
                        -0.4222545921802521,
                        0.0751054435968399,
                        -0.44172507524490356,
                        -0.11191752552986145,
                        0.002930376911535859,
                        0.25954124331474304,
                        0.092351533472538,
                        0.1000257357954979,
                        -0.02244802936911583,
                        0.024015193805098534,
                        -0.09522540122270584,
                        0.06051594391465187,
                        0.20248161256313324,
                        0.17538365721702576,
                        -0.3301836848258972,
                        -0.051719892770051956,
                        0.10329191386699677,
                        0.47372767329216003,
                        0.028778498992323875,
                        -0.32945382595062256,
                        0.09840326756238937,
                        0.04853975027799606,
                        -0.2580164968967438,
                        -0.06197194382548332,
                        0.001931072911247611,
                        -0.0030605734791606665,
                        -0.00014182066661305726,
                        0.14857079088687897,
                        0.05239370837807655,
                        -0.026359977200627327,
                        -0.3186860978603363,
                        0.014350815676152706,
                        -0.12974503636360168,
                        0.11995378136634827,
                        -0.11546958982944489,
                        -0.08869028091430664,
                        0.09790364652872086,
                        0.11106953024864197,
                        -0.02471577562391758,
                        -0.38759326934814453,
                        0.10071497410535812,
                        0.09264843165874481,
                        0.0157480351626873,
                        -0.1448628157377243,
                        0.16229447722434998,
                        -0.08989795297384262,
                        -0.026072239503264427,
                        0.03151623532176018,
                        0.15410524606704712,
                        0.08257636427879333,
                        -0.04871150851249695,
                        0.03811005502939224
                    ],
                    [
                        0.28369155526161194,
                        -0.5078760385513306,
                        -0.2826673686504364,
                        0.9826427102088928,
                        0.33693376183509827,
                        0.844470739364624,
                        -0.04177789017558098,
                        2.3449437618255615,
                        0.4022262990474701,
                        1.2445406913757324,
                        0.39721524715423584,
                        0.33934006094932556,
                        0.7801497578620911,
                        0.49833518266677856,
                        0.35017433762550354,
                        0.8008073568344116,
                        0.7616994380950928,
                        1.0714915990829468,
                        0.7549050450325012,
                        0.5654442310333252,
                        1.1607389450073242,
                        0.8069939613342285,
                        0.44343847036361694,
                        -0.4172103703022003,
                        1.2163772583007812,
                        0.6589423418045044,
                        0.1600402295589447,
                        0.008830809034407139,
                        -0.0930948257446289,
                        1.5932050943374634,
                        1.0418353080749512,
                        0.9225651025772095,
                        -0.16125187277793884,
                        0.06557995826005936,
                        -0.20576231181621552,
                        0.17110584676265717,
                        -0.2008022964000702,
                        -0.5272047519683838,
                        -0.5018426775932312,
                        -0.3592848777770996,
                        -0.06841213256120682,
                        -0.6245054006576538,
                        -0.12190347909927368,
                        -0.6013268828392029,
                        -1.3200469017028809,
                        -0.09503627568483353,
                        -0.3816279172897339,
                        -0.1168987825512886,
                        -0.6140719652175903,
                        -0.8670994639396667,
                        -0.22982609272003174,
                        -0.7629029750823975,
                        -0.5797712802886963,
                        0.009015250019729137,
                        -0.29933783411979675,
                        -0.5884873867034912,
                        -0.5459496378898621,
                        -0.4217812418937683,
                        -0.5692922472953796,
                        -0.4132312834262848,
                        -0.49972158670425415,
                        -0.3993522822856903,
                        -0.06590762734413147,
                        -0.6701270937919617,
                        0.2352425456047058,
                        -0.11124566197395325,
                        -0.17053154110908508,
                        0.05959828197956085,
                        -0.35340946912765503,
                        0.17763885855674744,
                        -0.06694056838750839,
                        0.13863737881183624,
                        0.08745972067117691,
                        -0.2236352562904358,
                        -0.16274526715278625,
                        -0.10477488487958908,
                        0.7561382055282593,
                        0.07422050833702087,
                        -0.019864961504936218,
                        -0.17441827058792114,
                        -0.32875320315361023,
                        -0.26060158014297485,
                        0.16924753785133362,
                        -0.2077150195837021,
                        -0.43941444158554077,
                        -0.06728818267583847,
                        -0.1894562691450119,
                        -0.045695967972278595,
                        -0.2107933908700943,
                        -0.11876941472291946,
                        -0.28374919295310974,
                        0.11041513830423355,
                        -0.2090529501438141,
                        0.21515946090221405,
                        -0.18586455285549164,
                        0.11886033415794373
                    ],
                    [
                        -0.9463509917259216,
                        0.16755683720111847,
                        0.1690959483385086,
                        -0.920176088809967,
                        0.26251113414764404,
                        -0.4229344129562378,
                        0.07351227849721909,
                        -1.9110561609268188,
                        -0.5314491391181946,
                        -1.1434916257858276,
                        0.5370618104934692,
                        -0.975738525390625,
                        -0.822320818901062,
                        -0.8457698225975037,
                        -0.4972335994243622,
                        -0.8072763681411743,
                        -0.41741079092025757,
                        -2.762521505355835,
                        -0.7948523163795471,
                        0.37112700939178467,
                        -0.9619075655937195,
                        -0.7662583589553833,
                        -0.11123117059469223,
                        -1.1244407892227173,
                        -1.9159191846847534,
                        0.05667715147137642,
                        -0.8000451326370239,
                        -1.3713762760162354,
                        0.214207261800766,
                        -0.5869750380516052,
                        -0.004726414103060961,
                        -1.0786128044128418,
                        -0.09009183943271637,
                        0.36752983927726746,
                        0.05512614548206329,
                        0.014096102677285671,
                        0.44143563508987427,
                        0.2679366171360016,
                        0.05189315602183342,
                        -0.0649392381310463,
                        -0.2875663638114929,
                        0.13832040131092072,
                        -0.20052146911621094,
                        0.20100004971027374,
                        -0.07407499104738235,
                        0.11923660337924957,
                        -0.4119817912578583,
                        0.19714894890785217,
                        0.5677101612091064,
                        0.09367942810058594,
                        -0.2754147946834564,
                        0.48691898584365845,
                        -0.4758526086807251,
                        -0.2826286852359772,
                        -0.07301703095436096,
                        0.2086949348449707,
                        0.26877644658088684,
                        0.2857820689678192,
                        -0.24382229149341583,
                        -0.16523295640945435,
                        0.34598448872566223,
                        0.33558252453804016,
                        -0.4039251506328583,
                        -0.3601531982421875,
                        0.02648475021123886,
                        0.18410514295101166,
                        -0.1049906313419342,
                        -0.05061470344662666,
                        -0.0043211220763623714,
                        -0.19714084267616272,
                        -0.08129116892814636,
                        0.2426854819059372,
                        0.1754274070262909,
                        0.5370822548866272,
                        -0.22451567649841309,
                        0.030763400718569756,
                        0.2609582543373108,
                        0.22042210400104523,
                        -0.23754145205020905,
                        0.1747150719165802,
                        -0.045162007212638855,
                        1.1594852209091187,
                        0.29723769426345825,
                        -1.0275704860687256,
                        -0.3216376304626465,
                        0.05463092774152756,
                        0.01595940627157688,
                        -0.3395717144012451,
                        0.07798882573843002,
                        -0.1680920273065567,
                        -0.23462454974651337,
                        0.046047914773225784,
                        0.1634552925825119,
                        0.4289361536502838,
                        0.08090897649526596,
                        0.3642374873161316
                    ],
                    [
                        -0.7340477108955383,
                        0.1869034767150879,
                        0.16065850853919983,
                        -1.0993244647979736,
                        -0.14728808403015137,
                        -0.8424484729766846,
                        0.3320521414279938,
                        -0.2522187829017639,
                        -0.7093764543533325,
                        -0.968139111995697,
                        0.22402863204479218,
                        -0.40259289741516113,
                        -1.4371830224990845,
                        -1.1810635328292847,
                        -0.8686771988868713,
                        -1.3616087436676025,
                        -0.22642169892787933,
                        -2.221930980682373,
                        -0.5727072358131409,
                        -0.7578628659248352,
                        -0.5491161942481995,
                        -1.1399264335632324,
                        -0.6379019618034363,
                        -0.5328043103218079,
                        -0.698991060256958,
                        -0.41464850306510925,
                        -1.3994778394699097,
                        -0.2920699417591095,
                        0.3505353331565857,
                        -0.6524520516395569,
                        -0.8893483281135559,
                        -1.1643301248550415,
                        0.23781602084636688,
                        0.01310779433697462,
                        0.12790343165397644,
                        -0.196672260761261,
                        0.20869284868240356,
                        0.4641796052455902,
                        -0.020794032141566277,
                        0.2773092985153198,
                        -0.5152351260185242,
                        0.30408188700675964,
                        -0.24246782064437866,
                        0.1892116516828537,
                        0.8778578042984009,
                        0.2508254647254944,
                        0.4446389973163605,
                        0.10933659225702286,
                        0.18492023646831512,
                        -0.007017022464424372,
                        -0.09702898561954498,
                        0.4075669050216675,
                        -0.09081001579761505,
                        -0.3270871341228485,
                        0.055504295974969864,
                        0.06021210178732872,
                        0.07686934620141983,
                        0.08856534957885742,
                        0.282814621925354,
                        0.16405855119228363,
                        -0.242459237575531,
                        0.23308436572551727,
                        -0.06638120859861374,
                        0.5853298902511597,
                        -0.2292969822883606,
                        0.07914457470178604,
                        0.2055811583995819,
                        -0.2706136405467987,
                        0.05845183506608009,
                        0.027653081342577934,
                        -0.1538631021976471,
                        -0.07940377295017242,
                        0.00010244331497233361,
                        0.028874916955828667,
                        0.15782950818538666,
                        0.14741340279579163,
