{
    "in_shape": [
        null,
        null,
        1
    ],
    "layers": [
        {
            "type": "gru",
            "activation": "tanh",
            "shape": [
                null,
                null,
                32
            ],
            "weights": [
                [
                    [
                        -0.689547061920166,
                        1.5320128202438354,
                        -0.4294951856136322,
                        -0.27486085891723633,
                        -0.214370995759964,
                        0.019466979429125786,
                        -0.09277095645666122,
                        -0.11448848247528076,
                        0.24626098573207855,
                        0.025166593492031097,
                        0.06420700252056122,
                        0.3594115376472473,
                        -0.13919633626937866,
                        0.2880391776561737,
                        0.12976692616939545,
                        -0.9858162999153137,
                        2.2011055946350098,
                        -0.5872825384140015,
                        1.9937281608581543,
                        -0.13739535212516785,
                        0.13078859448432922,
                        2.218846321105957,
                        0.7898792624473572,
                        0.381104439496994,
                        -0.8011231422424316,
                        -0.2747577130794525,
                        -0.548749566078186,
                        0.24835798144340515,
                        -1.7926490306854248,
                        0.5368226170539856,
                        -1.6128758192062378,
                        -0.6014004349708557,
                        -0.2249317169189453,
                        -0.17190560698509216,
                        0.53123539686203,
                        -0.32683107256889343,
                        0.3406524658203125,
                        -0.36888277530670166,
                        0.14303606748580933,
                        -0.4090082347393036,
                        -0.4454108774662018,
                        0.01656363345682621,
                        0.12959785759449005,
                        -0.17775990068912506,
                        0.19983790814876556,
                        0.5973014831542969,
                        -0.1620984673500061,
                        -1.292955994606018,
                        0.6610413193702698,
                        0.0596022754907608,
                        -0.17004643380641937,
                        0.010224303230643272,
                        -0.23552289605140686,
                        4.241950988769531,
                        1.73285973072052,
                        -0.6959944367408752,
                        0.22105494141578674,
                        -0.699150025844574,
                        0.981814980506897,
                        0.6596094965934753,
                        0.34133508801460266,
                        0.018390148878097534,
                        -0.17988155782222748,
                        0.24236145615577698,
                        -1.268797516822815,
                        0.16673408448696136,
                        -1.6215521097183228,
                        0.8884791135787964,
                        -0.16993068158626556,
                        -0.19597657024860382,
                        0.5348148345947266,
                        1.215978980064392,
                        -1.0692427158355713,
                        -0.0018046705517917871,
                        -0.17648360133171082,
                        -0.35298943519592285,
                        0.005956314969807863,
                        1.033337116241455,
                        0.2678127586841583,
                        0.886623203754425,
                        1.0193054676055908,
                        0.8174404501914978,
                        1.6615142822265625,
                        -0.15534506738185883,
                        -1.2243304252624512,
                        -1.1901012659072876,
                        -0.9680518507957458,
                        1.3071106672286987,
                        0.9578426480293274,
                        1.1395457983016968,
                        2.846519947052002,
                        -0.5189543962478638,
                        2.6233062744140625,
                        -0.5243034362792969,
                        -0.26625946164131165,
                        0.3975549638271332
                    ]
                ],
                [
                    [
                        0.46184584498405457,
                        -1.359597086906433,
                        0.3762843608856201,
                        0.4794435501098633,
                        0.15786424279212952,
                        0.16153393685817719,
                        -0.563347578048706,
                        0.08534849435091019,
                        -0.3827044367790222,
                        -0.06572948396205902,
                        -0.04734218493103981,
                        -0.0742151066660881,
                        -0.05019460991024971,
                        -0.3553570806980133,
                        -0.30590301752090454,
                        0.6207990050315857,
                        -2.097954511642456,
                        0.577791690826416,
                        -1.188004732131958,
                        0.2809320390224457,
                        -0.7734109163284302,
                        -1.970923900604248,
                        -0.789310097694397,
                        -0.10594378411769867,
                        0.867191731929779,
                        0.007672685664147139,
                        -0.03990056738257408,
                        0.06689176708459854,
                        1.1179559230804443,
                        -0.25600653886795044,
                        1.3902124166488647,
                        0.5218976736068726,
                        0.11925279349088669,
                        0.004157152492552996,
                        -0.08514437824487686,
                        0.14257678389549255,
                        -0.20006605982780457,
                        0.07048237323760986,
                        0.13428837060928345,
                        0.19863563776016235,
                        0.134941965341568,
                        -0.21524877846240997,
                        0.12427982687950134,
                        0.46307459473609924,
                        0.1647641956806183,
                        -0.2067566066980362,
                        0.1924562007188797,
                        0.2778222858905792,
                        -0.7292193174362183,
                        0.026293547824025154,
                        -0.012602083384990692,
                        0.1302100569009781,
                        -0.37267374992370605,
                        -3.224673271179199,
                        0.050720568746328354,
                        0.23156845569610596,
                        0.16717979311943054,
                        0.27848026156425476,
                        0.25966838002204895,
                        -0.2344266027212143,
                        -0.6320057511329651,
                        0.004151946399360895,
                        -0.37890565395355225,
                        0.020920395851135254,
                        0.09766684472560883,
                        0.08703145384788513,
                        -0.29379186034202576,
                        -0.17789167165756226,
                        0.1325506865978241,
                        -0.11688273400068283,
                        0.2813396453857422,
                        0.17610163986682892,
                        -0.1317446231842041,
                        0.1927783489227295,
                        0.07937779277563095,
                        -0.388180136680603,
                        0.2189408838748932,
                        0.2540166974067688,
                        0.5962142944335938,
                        -0.19441477954387665,
                        -0.28631791472435,
                        -0.030886763706803322,
                        -0.24277301132678986,
                        -0.1654726266860962,
                        -0.23027516901493073,
                        1.2955152988433838,
                        -0.13176801800727844,
                        0.08205299079418182,
                        -0.11973656713962555,
                        -0.07107359915971756,
                        0.10514625161886215,
                        -0.12350457906723022,
                        -0.25527888536453247,
                        -0.07187896221876144,
                        0.15530286729335785,
                        -0.222236767411232
                    ],
                    [
                        0.22222661972045898,
                        -0.5603973865509033,
                        0.3189314901828766,
                        0.023842496797442436,
                        0.16196982562541962,
                        0.12289257347583771,
                        0.22175094485282898,
                        0.17772690951824188,
                        -0.12142299115657806,
                        0.07231120765209198,
                        0.3755495548248291,
                        -0.8460593819618225,
                        0.011733449064195156,
                        -0.41099873185157776,
                        -0.8191325664520264,
                        -0.41670483350753784,
                        -0.02379193715751171,
                        0.08059398084878922,
                        0.4224964678287506,
                        -0.07221560925245285,
                        -0.30908042192459106,
                        0.14439740777015686,
                        0.7692345976829529,
                        -0.13516506552696228,
                        -0.3221798837184906,
                        -0.057909607887268066,
                        -0.6866378784179688,
                        0.09756527841091156,
                        0.06322286278009415,
                        -0.44214147329330444,
                        0.21349775791168213,
                        -0.30844372510910034,
                        0.03095826879143715,
                        0.2250305712223053,
                        0.2596265971660614,
                        -0.017194829881191254,
                        0.04261184483766556,
                        0.20481501519680023,
                        0.336907297372818,
                        0.16457049548625946,
                        0.24311146140098572,
                        0.07557472586631775,
                        0.015310052782297134,
                        0.11795052886009216,
                        -0.15012811124324799,
                        0.3315203785896301,
                        0.5274913311004639,
                        -0.1099136546254158,
                        1.0567489862442017,
                        0.38395795226097107,
                        0.04562467709183693,
                        -0.08947277069091797,
                        -0.031370680779218674,
                        1.193580150604248,
                        0.009154637344181538,
                        0.12595811486244202,
                        -0.16561852395534515,
                        0.34462952613830566,
                        0.11618672311306,
                        0.2204333394765854,
                        0.5316129326820374,
                        0.4590928852558136,
                        -0.07626385241746902,
                        0.1802288144826889,
                        0.13559313118457794,
                        0.0645364299416542,
                        -0.014843214303255081,
                        0.0356154702603817,
                        -0.0944935604929924,
                        -0.00690501881763339,
                        -0.07721371203660965,
                        0.12375910580158234,
                        -0.07528775930404663,
                        0.05231359973549843,
                        0.12914633750915527,
                        0.17516101896762848,
                        -0.03216371685266495,
                        -0.09367596358060837,
                        -0.1149391159415245,
                        -0.14915154874324799,
                        0.2370004653930664,
                        0.04025699943304062,
                        -0.11102437973022461,
                        0.0900893285870552,
                        -0.15066879987716675,
                        -0.059410639107227325,
                        0.3197474777698517,
                        0.23152659833431244,
                        0.07128272950649261,
                        0.015348757617175579,
                        0.11510441452264786,
                        0.11279763281345367,
                        0.11845915019512177,
                        -0.2596113085746765,
                        0.17871998250484467,
                        0.06927306950092316
                    ],
                    [
                        0.24016977846622467,
                        -2.808584690093994,
                        0.6422632932662964,
                        0.11440663784742355,
                        -0.20313988626003265,
                        -0.17252063751220703,
                        -1.6960033178329468,
                        -0.4866412281990051,
                        -0.16710297763347626,
                        -0.12094668298959732,
                        -0.16191734373569489,
                        -0.06612809747457504,
                        -0.5466246604919434,
                        0.11273104697465897,
                        0.8766826391220093,
                        0.5757549405097961,
                        -2.2629621028900146,
                        -0.7095233201980591,
                        -1.171293020248413,
                        -0.20709891617298126,
                        -2.1943247318267822,
                        -2.3234174251556396,
                        -0.1473715603351593,
                        0.36293914914131165,
                        0.5387163758277893,
                        -0.0942753478884697,
                        0.853874146938324,
                        -0.41452014446258545,
                        1.28652822971344,
                        -0.313125342130661,
                        0.21568256616592407,
                        0.2705300748348236,
                        0.6608012914657593,
                        0.019307179376482964,
                        0.37530064582824707,
                        -0.044777385890483856,
                        -0.027567727491259575,
                        -0.2521875500679016,
                        0.5189557075500488,
                        0.3907506763935089,
                        -0.38814252614974976,
                        0.025921722874045372,
                        -0.09805784374475479,
                        -0.21220837533473969,
                        0.1876913160085678,
                        -0.3823818266391754,
                        0.1392296850681305,
                        -0.31766313314437866,
                        -1.2336937189102173,
                        0.12102888524532318,
                        0.11295986920595169,
                        0.11987927556037903,
                        0.2661811411380768,
                        -3.4382617473602295,
                        -0.007351606152951717,
                        0.6778061389923096,
                        -0.41449055075645447,
                        -1.107193946838379,
                        0.052724841982126236,
                        -0.1859959363937378,
                        -0.31051623821258545,
                        0.12991945445537567,
                        -0.40542569756507874,
                        0.09535975754261017,
                        -0.0642165020108223,
                        0.2107163369655609,
                        0.17800183594226837,
                        0.10873214900493622,
                        0.031417977064847946,
                        0.008624584414064884,
                        -0.06518227607011795,
                        -0.16699399054050446,
                        0.3991236984729767,
                        0.04529788717627525,
                        0.1884126365184784,
                        -0.01619972474873066,
                        0.03930382803082466,
                        0.13222409784793854,
                        0.16514898836612701,
                        0.05037977546453476,
                        -0.9924947619438171,
                        -0.20214800536632538,
                        -0.42079055309295654,
                        -0.09306225925683975,
                        0.09539162367582321,
                        1.246309518814087,
                        -0.06305384635925293,
                        -0.48396921157836914,
                        -0.2590135633945465,
                        -0.2251715362071991,
                        -0.02513355389237404,
                        -0.13348053395748138,
                        -0.28414562344551086,
                        0.08173680305480957,
                        0.08388964086771011,
                        -0.217834934592247
                    ],
                    [
                        -0.7061231136322021,
                        0.9142494797706604,
                        0.14891864359378815,
                        -0.5623748302459717,
                        -0.5968054533004761,
                        0.07180903851985931,
                        -0.4998173415660858,
                        -0.21813826262950897,
                        0.015117433853447437,
                        0.17237205803394318,
                        -0.1431373506784439,
                        0.6931820511817932,
                        0.2560540437698364,
                        -0.1277349293231964,
                        0.3632486164569855,
                        -0.48262548446655273,
                        -0.03295064717531204,
                        -0.7929719090461731,
                        0.7696210741996765,
                        0.38912686705589294,
                        -0.3339408040046692,
                        1.0856928825378418,
                        0.5854306817054749,
                        0.1466875821352005,
                        -0.8828343152999878,
                        -0.3179045021533966,
                        -0.41148054599761963,
                        0.010583663359284401,
                        -0.9572145938873291,
                        -0.04433681070804596,
                        -1.1712234020233154,
                        -0.43257731199264526,
                        0.11461985111236572,
                        -0.08094818890094757,
                        -0.19645783305168152,
                        -0.0910237580537796,
                        0.3059251308441162,
                        0.023055091500282288,
                        0.12154276669025421,
                        -0.2671757638454437,
                        0.03815830498933792,
                        -0.049885161221027374,
                        0.19126127660274506,
                        -0.12761391699314117,
                        -0.15162019431591034,
                        -0.12755660712718964,
                        -0.041035618633031845,
                        -0.10909315943717957,
                        0.43487972021102905,
                        -0.005802129860967398,
                        0.31105732917785645,
                        -0.14438438415527344,
                        0.10934285074472427,
                        0.9239410758018494,
                        0.23569227755069733,
                        -0.14524416625499725,
                        0.04637309908866882,
                        -0.34327733516693115,
                        -0.09513544291257858,
                        0.1892731487751007,
                        -0.24305838346481323,
                        0.0063986945897340775,
                        0.07476609945297241,
                        -0.08128821849822998,
                        -0.14725403487682343,
                        0.028942376375198364,
                        -0.08152494579553604,
                        0.20589271187782288,
                        -0.2823192775249481,
                        0.08102986961603165,
                        -0.2317001223564148,
                        -0.21474634110927582,
                        0.19721752405166626,
                        0.024381626397371292,
                        -0.1793079823255539,
                        0.19643691182136536,
                        -0.08503115922212601,
                        0.09590046852827072,
                        -0.2824237644672394,
                        0.04773405194282532,
                        0.21967384219169617,
                        0.0020861828234046698,
                        0.18720094859600067,
                        0.033450882881879807,
                        -0.09699755162000656,
                        -0.49775007367134094,
                        -0.15658092498779297,
                        0.004803695250302553,
                        0.059056930243968964,
                        0.40853434801101685,
                        0.06888885051012039,
                        0.02003438211977482,
                        0.34921813011169434,
                        0.21425169706344604,
                        0.16124095022678375,
                        0.13331198692321777
                    ],
                    [
                        1.2380365133285522,
                        0.17365603148937225,
                        0.6776463389396667,
                        0.44561487436294556,
                        -0.11744340509176254,
                        -0.6106340885162354,
                        0.8835309743881226,
                        0.906862735748291,
                        1.0679740905761719,
                        -0.2691567838191986,
                        -0.2651522159576416,
                        0.3782390058040619,
                        -0.23280079662799835,
                        0.4970383048057556,
                        0.8663317561149597,
                        0.5390540957450867,
                        -0.2869183421134949,
                        0.8906854391098022,
                        0.09115130454301834,
                        -0.015071796253323555,
                        0.025743180885910988,
                        -0.754673957824707,
                        -0.3675135672092438,
                        0.3549271821975708,
                        0.7091280817985535,
                        0.5544065237045288,
                        0.9879364371299744,
                        -0.21152804791927338,
                        0.48589518666267395,
                        0.4522045850753784,
                        0.8447822332382202,
                        0.9575034379959106,
                        0.041559040546417236,
                        -0.008870890364050865,
                        0.06007837504148483,
                        0.06992863863706589,
                        -0.011336704716086388,
                        -0.06018649414181709,
                        -0.01693410985171795,
                        0.028625857084989548,
                        0.17466945946216583,
                        -0.1953994631767273,
                        -0.13116765022277832,
                        0.07847652584314346,
                        -0.06617139279842377,
                        -0.15060542523860931,
                        -0.3860624432563782,
                        0.034158144146203995,
                        -0.286207914352417,
                        0.05539971962571144,
                        -0.03369970992207527,
                        -0.13320069015026093,
                        -0.08871575444936752,
                        -0.47899603843688965,
                        -0.1357702910900116,
                        -0.09954771399497986,
                        -0.0036461614072322845,
                        0.14130353927612305,
                        -0.11932962387800217,
                        -0.13165630400180817,
                        0.02940421551465988,
                        0.0011130603961646557,
                        0.029052656143903732,
                        0.05274172127246857,
                        -0.07985714077949524,
                        0.017879776656627655,
                        -0.12029420584440231,
                        -0.12546782195568085,
                        0.15546271204948425,
                        -0.011478335596621037,
                        0.37878406047821045,
                        0.052032217383384705,
                        -0.21082258224487305,
                        0.2162136435508728,
                        0.1461293250322342,
                        -0.09397273510694504,
                        0.3106429874897003,
                        0.14095568656921387,
                        -0.03766869753599167,
                        0.18326139450073242,
                        0.07778101414442062,
                        0.009362305514514446,
                        0.06518618762493134,
                        -0.24575476348400116,
                        -0.06081412732601166,
                        -0.00986083596944809,
                        0.01982240006327629,
                        0.08718236535787582,
                        -0.21612446010112762,
                        -0.0719318762421608,
                        -0.07752460241317749,
                        0.08962010592222214,
                        0.1456512063741684,
                        -0.08959989249706268,
                        0.040747907012701035,
                        0.05261097475886345
                    ],
                    [
                        -0.4681130349636078,
                        0.12246000021696091,
                        -0.45127829909324646,
                        0.25378045439720154,
                        0.304732084274292,
                        -0.017890801653265953,
                        -0.11481163650751114,
                        -0.19623728096485138,
                        -0.7547900676727295,
                        -0.4072551727294922,
                        0.2660712003707886,
                        -0.39182960987091064,
                        -0.3497316241264343,
                        -0.7447801232337952,
                        -1.0310611724853516,
                        -0.4196545481681824,
                        -0.48328742384910583,
                        -0.1410236358642578,
                        -0.011215046979486942,
                        -0.24696777760982513,
                        -0.9929291605949402,
                        -0.5139774680137634,
                        -0.04070634767413139,
                        -0.29681241512298584,
                        0.2364913821220398,
                        -0.816459596157074,
                        -0.6573246717453003,
                        0.03266780078411102,
                        0.2667776644229889,
                        -0.1649034321308136,
                        0.2847993075847626,
                        -0.15392540395259857,
                        0.12619507312774658,
                        0.12672796845436096,
                        -0.3479580581188202,
                        0.16964982450008392,
                        0.07615672796964645,
                        -0.0611695796251297,
                        -0.06917738169431686,
                        -0.04691392928361893,
                        0.3557998836040497,
                        0.10850385576486588,
                        -0.08239079266786575,
                        0.26838549971580505,
                        0.008802578784525394,
                        0.16918127238750458,
                        0.015302184037864208,
                        0.006089231465011835,
                        0.02050958015024662,
                        -0.4238823652267456,
                        -0.30963820219039917,
                        -0.021676963195204735,
                        -0.12719325721263885,
                        0.003859973046928644,
                        0.2517209053039551,
                        -0.21271419525146484,
                        -0.013905643485486507,
                        0.25173643231391907,
                        0.25560539960861206,
                        -0.06382008641958237,
                        -0.14487534761428833,
                        0.07519923895597458,
                        -0.5404762029647827,
                        0.23167958855628967,
                        0.0763206034898758,
                        0.17827913165092468,
                        -0.2333354651927948,
                        -0.006327690090984106,
                        0.04514870420098305,
                        0.5695457458496094,
                        0.0242741871625185,
                        0.23205243051052094,
                        -0.27651381492614746,
                        0.21588698029518127,
                        0.28059566020965576,
                        -0.38700395822525024,
                        0.06612051278352737,
                        0.23909607529640198,
                        0.34095072746276855,
                        -0.24001137912273407,
                        0.03922441229224205,
                        -0.0001753669057507068,
                        0.15567167103290558,
                        0.047489337623119354,
                        -0.22054420411586761,
                        0.11148813366889954,
                        -0.09602382034063339,
                        -0.05187760666012764,
                        -0.26467958092689514,
                        -0.37966540455818176,
                        0.7260006666183472,
                        0.15248101949691772,
                        -0.041845809668302536,
                        -0.06428024917840958,
                        0.44802266359329224,
                        -0.0032227113842964172
                    ],
                    [
                        0.3076023459434509,
                        0.6683894395828247,
                        0.1524384319782257,
                        -0.05787821114063263,
                        -0.16929109394550323,
                        0.41526857018470764,
                        1.1283403635025024,
                        0.5550243854522705,
                        0.2153698354959488,
                        0.15066616237163544,
                        0.2792080342769623,
                        0.11900392919778824,
                        0.3024873435497284,
                        -0.33194926381111145,
                        -1.1560975313186646,
                        -0.42793676257133484,
                        1.5825496912002563,
                        0.6898595690727234,
                        1.0035896301269531,
                        0.16110463440418243,
                        1.1659233570098877,
                        1.514183521270752,
                        0.12846849858760834,
                        0.2161642163991928,
                        -0.5619617700576782,
                        -0.2864037752151489,
                        -0.11351583153009415,
                        0.03285999968647957,
                        -0.9196407794952393,
                        0.4565191864967346,
                        -0.19237399101257324,
                        -0.013479487039148808,
                        -0.08242057263851166,
                        0.32073304057121277,
                        0.12872542440891266,
                        0.012571490369737148,
                        -0.09632618725299835,
                        0.2225903570652008,
                        0.2757481038570404,
                        0.06602788716554642,
                        0.17180584371089935,
                        0.15955613553524017,
                        0.08281093835830688,
                        0.36964699625968933,
                        -0.14292733371257782,
                        0.27840885519981384,
                        0.16109594702720642,
                        0.3267398774623871,
                        0.791252076625824,
                        0.09317280352115631,
                        0.09675329178571701,
                        -0.13784411549568176,
                        -0.1889113187789917,
                        1.8837851285934448,
                        0.1110241636633873,
                        0.04709223285317421,
                        0.12815292179584503,
                        0.3719784617424011,
                        0.1905231773853302,
                        0.364190936088562,
                        -0.4283035099506378,
                        0.06633937358856201,
                        0.13505950570106506,
                        0.021079884842038155,
                        -0.12167491763830185,
                        0.12880536913871765,
                        -0.3904770314693451,
                        0.1710846871137619,
                        0.07788790017366409,
                        -0.47593727707862854,
                        0.17593537271022797,
                        0.20719097554683685,
                        -0.20404592156410217,
                        -0.08028349280357361,
                        0.018572894856333733,
                        0.05231722071766853,
                        -0.08314363658428192,
                        -0.15598079562187195,
                        -0.16707296669483185,
                        -0.06378431618213654,
                        0.4106222093105316,
                        0.1842658966779709,
                        0.26773974299430847,
                        -0.2130252867937088,
                        -0.1891404390335083,
                        -0.6988789439201355,
                        -0.03954608365893364,
                        0.48329636454582214,
                        0.06595177948474884,
                        -0.022248094901442528,
                        0.22417014837265015,
                        0.24082998931407928,
                        0.07715415954589844,
                        0.002318532904610038,
                        -0.021306611597537994,
                        0.23963911831378937
                    ],
                    [
                        0.2298889011144638,
                        0.8177824020385742,
                        0.035034384578466415,
                        0.06161389872431755,
                        -0.05556018278002739,
                        0.19304591417312622,
                        0.5834383964538574,
                        0.48169228434562683,
                        -0.7604838013648987,
                        -0.23675695061683655,
                        -0.032613277435302734,
                        0.17616969347000122,
                        -0.31721389293670654,
                        -0.7489790916442871,
                        -0.9423146843910217,
                        -0.919183075428009,
                        1.808148741722107,
                        0.270698219537735,
                        1.8865327835083008,
                        -0.49018341302871704,
                        0.021213261410593987,
                        1.721203327178955,
                        0.517371654510498,
                        -0.010202012956142426,
                        -0.28765320777893066,
                        -0.20016631484031677,
                        -0.17050471901893616,
                        0.5693089962005615,
                        -1.2601168155670166,
                        0.6496751308441162,
                        -0.41251683235168457,
                        0.5880066752433777,
                        0.10309739410877228,
                        0.298563688993454,
                        0.4991433620452881,
                        -0.1749168187379837,
                        0.3814937472343445,
                        0.18163782358169556,
                        0.3659548759460449,
                        0.2816081643104553,
                        0.31545963883399963,
                        0.12359069287776947,
                        0.1521729677915573,
                        0.2535070478916168,
                        0.13858650624752045,
                        0.6916425824165344,
                        0.4625208377838135,
                        0.1115420013666153,
                        0.6891063451766968,
                        0.13654941320419312,
                        0.07297740876674652,
                        0.27378392219543457,
                        0.26785120368003845,
                        3.008554220199585,
                        0.14078225195407867,
                        -0.06408360600471497,
                        0.09783370047807693,
                        -0.07582183182239532,
                        0.3132694363594055,
                        0.33164310455322266,
                        -0.7572926878929138,
                        0.36361163854599,
                        -0.0038964052218943834,
                        0.3577336072921753,
                        -0.09601084887981415,
                        -0.021250225603580475,
                        -0.2370353490114212,
                        0.1374083161354065,
                        -0.07557210326194763,
                        -0.069290392100811,
                        0.15038201212882996,
                        0.4635080099105835,
                        -0.19149097800254822,
                        0.06804454326629639,
                        0.13170510530471802,
                        0.06706156581640244,
                        0.01611008495092392,
                        -0.2159687578678131,
                        -0.10683272778987885,
                        0.01499132625758648,
                        0.871774435043335,
                        -0.08212731033563614,
                        0.22819139063358307,
                        0.08254168927669525,
                        -0.23272940516471863,
                        -1.2986040115356445,
                        -0.23817035555839539,
                        0.5743952393531799,
                        0.22232851386070251,
                        0.17345258593559265,
                        0.5210050940513611,
                        0.012533711269497871,
                        0.5282726883888245,
                        -0.24354924261569977,
                        -0.14824973046779633,
                        0.23207710683345795
                    ],
                    [
                        -0.16555123031139374,
                        -0.5371870398521423,
                        -0.03463870286941528,
                        -0.09086787700653076,
                        -0.27007171511650085,
                        0.8400272130966187,
                        -0.027256909757852554,
                        -0.4989166557788849,
                        0.33336323499679565,
                        1.361244559288025,
                        -0.09102009236812592,
                        0.14484606683254242,
                        1.041323184967041,
                        0.15825709700584412,
                        0.22113901376724243,
                        0.6592115163803101,
                        0.056879740208387375,
                        -0.3510899543762207,
                        -0.14163517951965332,
                        1.5993798971176147,
                        1.1096681356430054,
                        0.15089653432369232,
                        -0.6384342908859253,
                        0.1153513491153717,
                        -0.7273393273353577,
                        0.08481396734714508,
                        0.41532158851623535,
                        -0.11364297568798065,
                        0.672480583190918,
                        -0.18041253089904785,
                        -0.38015300035476685,
                        -0.788531482219696,
                        -0.3124239444732666,
                        -0.3504326045513153,
                        -0.6859661936759949,
                        -0.10384035855531693,
                        -0.3549179434776306,
                        0.07619817554950714,
                        -0.3575913608074188,
                        -0.33799925446510315,
                        0.0677148699760437,
                        -0.2172248512506485,
                        -0.0355357900261879,
                        -0.09902601689100266,
                        -0.3247075378894806,
                        -0.46374425292015076,
                        -0.2743043005466461,
                        0.4745820462703705,
                        -0.6421869397163391,
                        -0.004586832597851753,
                        -0.20706497132778168,
                        -0.4569222629070282,
                        -0.4567294716835022,
                        -1.3051702976226807,
                        -0.25224190950393677,
                        -0.3226604759693146,
                        0.30213555693626404,
                        0.3497808277606964,
                        -0.44740092754364014,
                        -0.041397057473659515,
                        0.3206096291542053,
                        -0.30528518557548523,
                        0.11413854360580444,
                        -0.3831849992275238,
                        0.24413026869297028,
                        -0.2641836106777191,
                        -0.020583830773830414,
                        0.1399470716714859,
                        0.1585407257080078,
                        0.2124769538640976,
                        0.11943274736404419,
                        0.007140099070966244,
                        -0.020168663933873177,
                        0.0622597336769104,
                        -0.10098733007907867,
                        -0.1653924137353897,
                        0.29789841175079346,
                        0.27911946177482605,
                        0.36505717039108276,
                        -0.1355562061071396,
                        -0.7506459355354309,
                        0.12113884836435318,
                        0.058414194732904434,
                        -0.17942897975444794,
                        -0.1286758929491043,
                        0.3573412299156189,
                        -0.17219005525112152,
                        -0.14046160876750946,
                        -0.03100602701306343,
                        -0.26047274470329285,
                        -0.25570932030677795,
                        -0.09361919015645981,
                        -0.043563228100538254,
                        0.1167183667421341,
                        0.13121020793914795,
                        -0.3072216212749481
                    ],
                    [
                        0.5944888591766357,
                        0.8025143146514893,
                        1.2574067115783691,
                        0.07313080132007599,
                        -0.25363144278526306,
                        -0.7510616183280945,
                        1.040783166885376,
                        1.0648555755615234,
                        1.1293911933898926,
                        0.019709061831235886,
                        -0.058558400720357895,
                        0.16706547141075134,
                        0.31142759323120117,
                        -0.09555479139089584,
                        0.6878030300140381,
                        -0.11419951915740967,
                        1.0248401165008545,
                        0.34349021315574646,
                        1.0568645000457764,
                        0.09521420300006866,
                        1.2457325458526611,
                        0.9122852087020874,
                        0.9469911456108093,
                        0.7635818123817444,
                        -0.51890629529953,
                        -0.30370208621025085,
                        0.6929426789283752,
                        0.018968315795063972,
                        -0.4119630455970764,
                        0.6499737501144409,
                        -0.39303067326545715,
                        0.9416073560714722,
                        0.1322137862443924,
                        0.05442681908607483,
                        -0.13553158938884735,
                        -0.1052037924528122,
                        -0.01701377145946026,
                        -0.18493419885635376,
                        0.1551261693239212,
                        -0.38636085391044617,
                        0.04399789497256279,
                        -0.1417040079832077,
                        -0.1595408171415329,
                        0.03879890963435173,
                        -0.14509433507919312,
                        -0.021724015474319458,
                        -0.33891651034355164,
                        0.26596498489379883,
                        0.09776753932237625,
                        -0.20447871088981628,
                        -0.32357895374298096,
                        -0.11241792887449265,
                        -0.10182759165763855,
                        0.9024965167045593,
                        -0.008407462388277054,
                        -0.21933101117610931,
                        0.028693420812487602,
                        0.167759507894516,
                        0.09784428775310516,
                        0.07069741934537888,
                        -0.06796766817569733,
                        -0.026560219004750252,
                        -0.20737144351005554,
                        -0.138569176197052,
                        -0.0427803173661232,
                        0.11600650101900101,
                        -0.23171035945415497,
                        0.04912273958325386,
                        0.07851932942867279,
                        -0.09779997169971466,
                        0.15892137587070465,
                        0.25419995188713074,
                        0.059334538877010345,
                        0.19484680891036987,
                        0.12311751395463943,
                        -0.019348405301570892,
                        0.1727406084537506,
                        -0.06945961713790894,
                        0.05566321685910225,
                        0.011036484502255917,
                        0.2488148808479309,
                        0.060567017644643784,
                        0.2101363241672516,
                        -0.2839527428150177,
                        -0.29707854986190796,
                        -0.09636589139699936,
                        0.02647462859749794,
                        0.18445611000061035,
                        -0.1517786681652069,
                        0.03625142201781273,
                        -0.04201243817806244,
                        0.1989898979663849,
                        0.2644076943397522,
                        -0.166925847530365,
                        0.27313488721847534,
                        0.15462136268615723
                    ],
                    [
                        0.858574628829956,
                        0.4632411599159241,
                        1.0634866952896118,
                        0.09532821178436279,
                        -0.01668897457420826,
                        -1.1171172857284546,
                        1.15833580493927,
                        1.0758426189422607,
                        1.1486339569091797,
                        -0.2658485472202301,
                        -0.4363096058368683,
                        -0.1998850256204605,
                        -0.3229464292526245,
                        0.1058272123336792,
                        0.8201512694358826,
                        0.04028337448835373,
                        0.43352848291397095,
                        0.5966101884841919,
                        1.0920004844665527,
                        -0.34253254532814026,
                        0.7264823317527771,
                        0.9347497224807739,
                        1.0010979175567627,
                        1.4061506986618042,
                        0.25045984983444214,
                        0.09538884460926056,
                        0.9273638129234314,
                        -0.2631433606147766,
                        0.17258469760417938,
                        1.4430636167526245,
                        0.11072249710559845,
                        0.6928320527076721,
                        0.07452819496393204,
                        0.07256476581096649,
                        0.08183933794498444,
                        0.1390046775341034,
                        -0.1316142976284027,
                        -0.15412986278533936,
                        0.029788553714752197,
                        0.015986764803528786,
                        0.1489647626876831,
                        -0.29215288162231445,
                        -0.08127088099718094,
                        0.2030937820672989,
                        -0.19063572585582733,
                        0.11885303258895874,
                        -0.16894370317459106,
                        -0.08196177333593369,
                        -0.5307830572128296,
                        -0.014193964190781116,
                        -0.3114710748195648,
                        -0.06715653091669083,
                        -0.4153093695640564,
                        0.017856266349554062,
                        -0.21219703555107117,
                        -0.007039003539830446,
                        0.034206025302410126,
                        -0.37312644720077515,
                        -0.2488745152950287,
                        -0.13636085391044617,
                        -0.5406270623207092,
                        0.01759505458176136,
                        -0.10724595934152603,
                        -0.07255148887634277,
                        -0.13242407143115997,
                        -0.04808032512664795,
                        -0.16779333353042603,
                        -0.07582002878189087,
                        0.25256597995758057,
                        0.2957145571708679,
                        0.1727687269449234,
                        0.3410419523715973,
                        -0.09596217423677444,
                        0.26774945855140686,
                        0.2867879569530487,
                        0.09221340715885162,
                        0.14869900047779083,
                        -0.17853231728076935,
                        0.04069666191935539,
                        0.2621074318885803,
                        0.018896983936429024,
                        -0.10189420729875565,
                        0.31660929322242737,
                        -0.0311217550188303,
                        -0.03116508200764656,
                        0.2251398116350174,
                        0.3181675970554352,
                        0.26676085591316223,
                        -0.09937778115272522,
                        0.00777056347578764,
                        0.17250001430511475,
                        0.30127018690109253,
                        0.2525746822357178,
                        -0.29548385739326477,
                        0.1342938393354416,
                        -0.23979884386062622
                    ],
                    [
                        1.0715594291687012,
                        0.9809233546257019,
                        1.9670089483261108,
                        0.2498142570257187,
                        0.1491498202085495,
                        -0.9352018237113953,
                        0.6942116618156433,
                        0.2603912353515625,
                        1.3076187372207642,
                        0.17037121951580048,
                        -0.5302509069442749,
                        0.8060518503189087,
                        0.15922662615776062,
                        1.0507621765136719,
                        1.5946731567382812,
                        0.52694171667099,
                        0.1606561839580536,
                        0.6761279106140137,
                        1.368517279624939,
                        0.26331695914268494,
                        0.4182276129722595,
                        -0.3153657019138336,
                        1.0013493299484253,
                        0.9973186254501343,
                        0.017278602346777916,
                        0.5877105593681335,
                        1.5639251470565796,
                        -0.01699923723936081,
                        0.4970708191394806,
                        0.7616032361984253,
                        -0.3637154698371887,
                        0.6008318066596985,
                        -0.15867547690868378,
                        -0.34738805890083313,
                        -0.1798979789018631,
                        -0.2907973825931549,
                        -0.5247839689254761,
                        0.04862256720662117,
                        -0.5002578496932983,
                        -0.26449376344680786,
                        -0.2580246925354004,
                        -0.4109983742237091,
                        -0.3473193943500519,
                        -0.07044022530317307,
                        0.12893611192703247,
                        0.12756352126598358,
                        -0.6174619197845459,
                        -0.05705336108803749,
                        -0.6399510502815247,
                        -0.24921537935733795,
                        -0.18282951414585114,
                        -0.3433191478252411,
                        -0.07962872087955475,
                        0.27333587408065796,
                        0.14202119410037994,
                        -0.3139871656894684,
                        -0.4385424554347992,
                        -0.3375234007835388,
                        -0.5091288089752197,
                        -0.14972731471061707,
                        -0.8020384907722473,
                        -0.3737758994102478,
                        0.3746994435787201,
                        -0.7934556007385254,
                        0.07234477996826172,
                        -0.18146337568759918,
                        0.06569334864616394,
                        -0.1069885641336441,
                        0.25694942474365234,
                        -0.20528993010520935,
                        -0.15191860496997833,
                        -0.14399679005146027,
                        -0.04094643518328667,
                        -0.12820644676685333,
                        -0.021852370351552963,
                        0.08471284806728363,
                        0.2097191959619522,
                        -0.20207104086875916,
                        0.04385385289788246,
                        0.17810972034931183,
                        -0.5987170934677124,
                        -0.2530170679092407,
                        0.1556728631258011,
                        0.00301257218234241,
                        -0.032176658511161804,
                        0.144388347864151,
                        0.0930451899766922,
                        -0.16171444952487946,
                        -0.2375210076570511,
                        -0.10213866829872131,
                        -0.47106650471687317,
                        -0.12196094542741776,
                        -0.2309144139289856,
                        0.131008118391037,
                        -0.09648836404085159,
                        -0.265941858291626
                    ],
                    [
                        0.789052426815033,
                        0.3401106595993042,
                        0.942634642124176,
                        0.21494558453559875,
                        -0.29145872592926025,
                        -0.11027893424034119,
                        0.9828247427940369,
                        1.1080132722854614,
                        1.1364833116531372,
                        0.00988040491938591,
                        -0.17408457398414612,
                        0.19373735785484314,
                        0.0045248945243656635,
                        0.09589573740959167,
                        1.1653870344161987,
                        0.33851030468940735,
                        1.3749420642852783,
                        0.8287542462348938,
                        0.5974633097648621,
                        -0.0058189257979393005,
                        1.0638611316680908,
                        0.7631901502609253,
                        0.5839930176734924,
                        1.0216636657714844,
                        -0.355080783367157,
                        0.4791124165058136,
                        1.0603845119476318,
                        -0.18133696913719177,
                        0.7050187587738037,
                        0.382641464471817,
                        0.2129254937171936,
                        0.2793435752391815,
                        -0.02512102574110031,
                        -0.07179313898086548,
                        -0.4902643859386444,
                        0.1331433355808258,
                        -0.09557217359542847,
                        -0.13523730635643005,
                        -0.29913416504859924,
                        -0.5476089715957642,
                        0.02391199767589569,
                        -0.007083917036652565,
                        -0.22526420652866364,
                        0.18291589617729187,
                        -0.2552278935909271,
                        0.2519088685512543,
                        -0.6508774757385254,
                        0.11882322281599045,
                        -0.6764931678771973,
                        0.11390851438045502,
                        -0.6589337587356567,
                        -0.14534875750541687,
                        -0.22053469717502594,
                        0.24530214071273804,
                        -0.13783133029937744,
                        -0.7203843593597412,
                        0.2926522493362427,
                        0.2907381057739258,
                        -0.23772558569908142,
                        -0.030173366889357567,
                        0.07544664293527603,
                        0.05315891280770302,
                        0.05521126464009285,
                        -0.16133566200733185,
                        -0.16117551922798157,
                        0.24086321890354156,
                        -0.405556857585907,
                        -0.06307317316532135,
                        0.014066403731703758,
                        -0.03616255521774292,
                        0.10369758307933807,
                        0.2730672061443329,
                        -0.08786843717098236,
                        0.3166966140270233,
                        0.07046107202768326,
                        0.1564566195011139,
                        0.08508463203907013,
                        0.08442056179046631,
                        -0.12582209706306458,
                        0.31169775128364563,
                        0.11113398522138596,
                        0.09667252749204636,
                        0.04030698165297508,
                        -0.26098906993865967,
                        -0.39817142486572266,
                        -0.37015125155448914,
                        0.04689914360642433,
                        0.22693859040737152,
                        -0.1099240854382515,
                        0.016498686745762825,
                        0.1322268545627594,
                        0.11591341346502304,
                        0.34253373742103577,
                        -0.21891185641288757,
                        -0.05941963940858841,
                        -0.043184224516153336
                    ],
                    [
                        -1.8075060844421387,
                        -0.39067476987838745,
                        -1.4949530363082886,
                        -0.4663209021091461,
                        -0.1540103703737259,
                        0.44439464807510376,
                        -0.10133984684944153,
                        -0.27553609013557434,
                        -0.3141583502292633,
                        0.5893162488937378,
                        0.5114999413490295,
                        -0.7282005548477173,
                        0.9146729707717896,
                        0.32309263944625854,
                        -0.054579731076955795,
                        -0.1363728940486908,
                        0.5521525740623474,
                        -0.23965880274772644,
                        -0.7429802417755127,
                        0.7540462017059326,
                        0.37192055583000183,
                        0.5986208319664001,
                        -0.8014428019523621,
                        -1.0087567567825317,
                        -1.1263717412948608,
                        -0.022859305143356323,
                        -2.2292418479919434,
                        0.18031522631645203,
                        0.11540104448795319,
                        -0.1796824336051941,
                        -0.31003138422966003,
                        -1.0339282751083374,
                        0.09660165011882782,
                        -0.1946442425251007,
                        0.025542717427015305,
                        -0.3566182255744934,
                        0.15036597847938538,
                        -0.3012527823448181,
                        -0.16645748913288116,
                        -0.5737196803092957,
                        0.13564461469650269,
                        0.0824582651257515,
                        -0.3438306748867035,
                        -0.7293954491615295,
                        -0.30729156732559204,
                        -0.011400251649320126,
                        -0.49045345187187195,
                        0.040814802050590515,
                        0.668796181678772,
                        0.3797667324542999,
                        0.18694698810577393,
                        -0.10312137752771378,
                        0.20663224160671234,
                        1.4722322225570679,
                        0.09882674366235733,
                        -0.1340683400630951,
                        -0.02026764303445816,
                        0.25690820813179016,
                        0.16295655071735382,
                        0.30429330468177795,
                        1.5971978902816772,
                        -0.08188764750957489,
                        -0.15068216621875763,
                        -0.25090932846069336,
                        -0.21075439453125,
                        0.07912971079349518,
                        -0.5003754496574402,
                        -0.13696503639221191,
                        0.09121277183294296,
                        -0.02399766817688942,
                        0.06708486378192902,
                        -0.04525158554315567,
                        0.28512313961982727,
                        0.1311456561088562,
                        -0.3516989052295685,
                        0.2614079713821411,
                        -0.1220199316740036,
                        -0.10190564393997192,
                        -0.3807058334350586,
                        -0.5032570958137512,
                        0.5689247846603394,
                        0.04652068018913269,
                        0.05468962714076042,
                        0.03458529710769653,
                        -0.028447650372982025,
                        -0.7603185772895813,
                        -0.09167107194662094,
                        0.11850837618112564,
                        0.046344414353370667,
                        -0.18437625467777252,
                        0.07611589878797531,
                        0.1528063416481018,
                        0.04724216088652611,
                        -0.1464993953704834,
                        0.15547341108322144,
                        0.3118802011013031
                    ],
                    [
                        -0.5016297101974487,
                        -1.450277328491211,
                        -1.463499903678894,
                        0.27482926845550537,
                        0.2914794981479645,
                        0.3352534770965576,
                        -0.9493234753608704,
                        -0.2930733561515808,
                        -1.6168550252914429,
                        -0.01681891456246376,
                        0.3894347846508026,
                        -0.13864825665950775,
                        0.07453038543462753,
                        -0.5526118278503418,
                        -1.0504488945007324,
                        0.1360444873571396,
                        -1.1344242095947266,
                        0.2513582706451416,
                        -1.029197335243225,
                        0.18807728588581085,
                        -1.5340005159378052,
                        -1.0770938396453857,
                        -0.8896746635437012,
                        -0.7856695055961609,
                        1.0482739210128784,
                        -0.01051119714975357,
                        -1.2722222805023193,
                        0.0379229336977005,
                        0.419099897146225,
                        -0.33513641357421875,
                        1.207700252532959,
                        0.1149478629231453,
                        0.48520052433013916,
                        0.22278079390525818,
                        0.1653018742799759,
                        0.0610000416636467,
                        0.16383127868175507,
                        0.012034201994538307,
                        0.4452001750469208,
                        -0.009118344634771347,
                        0.20999979972839355,
                        0.1762322634458542,
                        0.08266828954219818,
                        -0.014899573288857937,
                        -0.083440862596035,
                        -0.4412338435649872,
                        0.4020161032676697,
                        -0.22318916022777557,
                        0.37592360377311707,
                        0.3009010851383209,
                        0.41790008544921875,
                        0.02806277945637703,
                        0.2682593762874603,
                        -1.4922858476638794,
                        -0.2428775578737259,
                        0.5311909317970276,
                        -0.08882664144039154,
                        0.052915409207344055,
                        0.5726842284202576,
                        0.11006628721952438,
                        -0.7854152917861938,
                        0.48868146538734436,
                        -0.5639358758926392,
                        0.5101020932197571,
                        -0.19681720435619354,
                        0.4067157506942749,
                        -0.3563258647918701,
                        0.030363474041223526,
                        -0.15147282183170319,
                        -0.054223496466875076,
                        0.38427022099494934,
                        0.1860467493534088,
                        0.20058631896972656,
                        0.228799507021904,
                        -0.12812484800815582,
                        -0.05552854388952255,
                        -0.04403020069003105,
                        0.30050766468048096,
                        -0.4856277406215668,
                        -0.05014747381210327,
                        0.3718584477901459,
                        0.25829464197158813,
                        -0.00300126476213336,
                        -0.19046229124069214,
                        -0.11357814818620682,
                        -0.5031219124794006,
                        -0.0260977353900671,
                        0.06858622282743454,
                        0.2450592964887619,
                        0.29876330494880676,
                        0.6813114881515503,
                        0.279143750667572,
                        0.744745671749115,
                        -0.19739224016666412,
                        0.11492786556482315,
                        0.5955134034156799
                    ],
                    [
                        -0.30248236656188965,
                        0.8466554284095764,
                        -0.04141116887331009,
                        -0.9966307878494263,
                        -0.5525309443473816,
                        -0.23174774646759033,
                        -0.11565227061510086,
                        -0.10556390881538391,
                        0.3551981747150421,
                        0.06658941507339478,
                        0.0012548959348350763,
                        0.5261910557746887,
                        0.5162956714630127,
                        0.33953824639320374,
                        0.8193908333778381,
                        -0.06274028867483139,
                        1.3962047100067139,
                        -0.6625075340270996,
                        0.9387530088424683,
                        -0.062383268028497696,
                        0.7260633707046509,
                        1.557458519935608,
                        0.6075208783149719,
                        0.454628050327301,
                        -1.2310510873794556,
                        -0.7254654765129089,
                        0.9691131711006165,
                        0.03294767439365387,
                        -1.1087596416473389,
                        0.23973926901817322,
                        -1.307751178741455,
                        0.5333830118179321,
                        0.039860036224126816,
                        0.01227005384862423,
                        0.004195963963866234,
                        -0.2676910161972046,
                        0.14030681550502777,
                        -0.06027023121714592,
                        0.14912797510623932,
                        -0.03964060917496681,
                        -0.1976795792579651,
                        -0.06462536752223969,
                        0.07961510866880417,
                        0.13071775436401367,
                        0.042587727308273315,
                        0.44940274953842163,
                        0.009102894924581051,
                        -0.28321373462677,
                        -0.7809609770774841,
                        0.037182148545980453,
                        0.3399684429168701,
                        -0.06838487088680267,
                        0.20014654099941254,
                        1.2017951011657715,
                        -0.09226587414741516,
                        -0.08239319920539856,
                        -0.07363872230052948,
                        -0.5156707167625427,
                        -0.0047678276896476746,
                        0.09266772121191025,
                        -0.8459721803665161,
                        0.14818216860294342,
                        0.478301078081131,
                        -0.041850097477436066,
                        -0.1830022633075714,
                        0.17084573209285736,
                        -0.04815417155623436,
                        0.2087230384349823,
                        -0.07609852403402328,
                        -0.24942564964294434,
                        0.22529885172843933,
                        -0.05019909888505936,
                        0.17861010134220123,
                        0.23196478188037872,
                        0.053967151790857315,
                        0.33424103260040283,
                        -0.04634783789515495,
                        -0.4799976944923401,
                        -0.3829568326473236,
                        -0.005881523713469505,
                        0.35988420248031616,
                        -0.00024773157201707363,
                        0.26563215255737305,
                        0.022280104458332062,
                        -0.07207032293081284,
                        -0.4817298948764801,
                        -0.023024778813123703,
                        0.12315110117197037,
                        0.15256059169769287,
                        0.05695633217692375,
                        -0.11644194275140762,
                        -0.1747150719165802,
                        0.055464982986450195,
                        -0.14787183701992035,
                        -0.004892678465694189,
                        0.3054342567920685
                    ],
                    [
                        -0.7892519235610962,
                        1.4149340391159058,
                        0.8594526648521423,
                        -0.397903710603714,
                        -0.25644272565841675,
                        0.007595607545226812,
                        1.070540428161621,
                        0.7750542759895325,
                        -0.20484083890914917,
                        0.20960235595703125,
                        0.17111937701702118,
                        0.7808634042739868,
                        0.046319399029016495,
                        -1.8726121187210083,
                        -0.7616668939590454,
                        -1.6018967628479004,
                        0.6576297879219055,
                        -0.2850883901119232,
                        1.1871129274368286,
                        0.00044839913607575,
                        1.0337148904800415,
                        2.632779598236084,
                        0.5149792432785034,
                        0.96980881690979,
                        -0.7870029211044312,
                        -1.1089903116226196,
                        -0.9754512310028076,
                        0.4357541799545288,
                        -2.116245985031128,
                        0.5986641645431519,
                        -0.583736777305603,
                        -0.48323217034339905,
                        -0.2987896800041199,
                        0.9598007202148438,
                        0.11388029158115387,
                        0.020522357895970345,
                        -0.45627227425575256,
                        0.07385305315256119,
                        0.24768321216106415,
                        -0.11401800066232681,
                        0.02620670758187771,
                        0.03661772236227989,
                        -0.0642516165971756,
                        0.2233724296092987,
                        0.3499007821083069,
                        0.6276280879974365,
                        0.09607509523630142,
                        0.007940420880913734,
                        0.6932469010353088,
                        -0.33994677662849426,
                        0.23286394774913788,
                        0.24812158942222595,
                        0.35598838329315186,
                        3.5112216472625732,
                        0.48489871621131897,
                        -0.08185545355081558,
                        -0.27417078614234924,
                        -0.3435279428958893,
                        0.28340697288513184,
                        0.16237092018127441,
                        -1.1072183847427368,
                        0.3377590775489807,
                        -0.4029337167739868,
                        -0.18767859041690826,
                        0.10850044339895248,
                        -0.46736088395118713,
                        0.21549712121486664,
                        0.02854018658399582,
                        0.1988270878791809,
                        -0.07130948454141617,
                        -0.01557457447052002,
                        -0.0996265560388565,
                        -0.30877673625946045,
                        -0.16741812229156494,
                        0.08170866221189499,
                        0.21041710674762726,
                        -0.03769098222255707,
                        -0.2555108368396759,
                        0.2440405786037445,
                        0.052140142768621445,
                        0.1482349932193756,
                        -0.2050040364265442,
                        0.11945991218090057,
                        0.08462730050086975,
                        0.49925515055656433,
                        -0.38951221108436584,
                        -0.2035178542137146,
                        0.06515771150588989,
                        0.012881935574114323,
                        -0.17355677485466003,
                        -0.007000950630754232,
                        -0.1882648915052414,
                        0.021102583035826683,
                        0.23035438358783722,
                        0.03387893736362457,
                        0.10259637236595154
                    ],
                    [
                        -1.29867422580719,
                        -0.4418996572494507,
                        -1.7107123136520386,
                        -0.12138951569795609,
                        -0.163808673620224,
                        0.6877431869506836,
                        -0.5348703861236572,
                        -1.0651085376739502,
                        -1.5355596542358398,
                        0.06292880326509476,
                        0.5330639481544495,
                        -0.5041988492012024,
                        0.1257455199956894,
                        0.033456142991781235,
                        -1.0706367492675781,
                        0.15562492609024048,
                        0.918953001499176,
                        -0.3356306552886963,
                        -0.23458896577358246,
                        0.08550029993057251,
                        -0.17360050976276398,
                        0.7286320328712463,
                        0.12396806478500366,
                        -1.4354246854782104,
                        -0.7904986143112183,
                        0.12334802746772766,
                        -1.3320468664169312,
                        0.31843024492263794,
                        -0.03365544602274895,
                        -1.0659047365188599,
                        -0.08187836408615112,
                        -1.9483414888381958,
                        -0.11067425459623337,
                        -0.05251298472285271,
                        0.1632189303636551,
                        0.08780494332313538,
                        0.14176252484321594,
                        0.144989013671875,
                        0.03229939565062523,
                        -0.18498516082763672,
                        -0.0713714212179184,
                        0.182816743850708,
                        0.03420837223529816,
                        -0.21738173067569733,
                        0.12396159768104553,
                        0.1899453103542328,
                        0.15156307816505432,
                        -0.09467818588018417,
                        0.6701384782791138,
                        0.14661434292793274,
                        0.013320317491889,
                        0.20565202832221985,
                        0.08447771519422531,
                        1.4328447580337524,
                        -0.21234460175037384,
                        -0.26403990387916565,
                        0.29548487067222595,
                        0.4251755177974701,
                        -0.09964650124311447,
                        0.23676735162734985,
                        0.26030993461608887,
                        0.03709617257118225,
                        0.5328661799430847,
                        0.2093593031167984,
                        -0.18225547671318054,
                        -0.036820512264966965,
                        -0.17838279902935028,
                        -0.037041276693344116,
                        -0.16035163402557373,
                        -0.11271651089191437,
                        -0.08037196844816208,
                        0.052524834871292114,
                        0.10319125652313232,
                        -0.09468784928321838,
                        -0.10495944321155548,
                        0.18088771402835846,
                        -0.010029398836195469,
                        -0.07542584836483002,
                        -0.16456876695156097,
                        -0.03470365330576897,
                        0.10431642085313797,
                        0.2472766637802124,
                        0.08687133342027664,
                        0.1118270754814148,
                        0.02387922629714012,
                        -0.6031970381736755,
                        0.06081155315041542,
                        -0.05356200784444809,
                        0.27967095375061035,
                        0.03198978677392006,
                        0.057108599692583084,
                        0.1060626208782196,
                        0.11839043349027634,
                        -0.06847560405731201,
                        -0.020195359364151955,
                        0.061192721128463745
                    ],
                    [
                        0.038459599018096924,
                        2.203723430633545,
                        1.4417396783828735,
                        -0.13936106860637665,
                        -0.46313977241516113,
                        -0.17083901166915894,
                        0.8432797193527222,
                        0.9214615225791931,
                        0.5399683117866516,
                        -0.055999740958213806,
                        -0.200818732380867,
                        1.3686248064041138,
                        0.046575598418712616,
                        -0.14170584082603455,
                        0.36702898144721985,
                        -0.8006247878074646,
                        1.1893763542175293,
                        -0.27799728512763977,
                        2.4033610820770264,
                        -0.09497254341840744,
                        1.502742886543274,
                        2.3255910873413086,
                        0.6184097528457642,
                        1.4222300052642822,
                        -0.6983018517494202,
                        -0.43805497884750366,
                        0.2943297326564789,
                        0.3406077027320862,
                        -1.5604933500289917,
                        1.1930354833602905,
                        -0.564201295375824,
                        0.16227953135967255,
                        -0.19069483876228333,
                        0.2599826753139496,
                        -0.3908442556858063,
                        0.2262195646762848,
                        -0.09199775010347366,
                        -0.026566768065094948,
                        -0.1872115135192871,
                        -0.24957968294620514,
                        0.4039345979690552,
                        -0.07122886925935745,
                        -0.22479388117790222,
                        0.25971344113349915,
                        -0.09911554306745529,
                        0.266563355922699,
                        -0.35444754362106323,
                        0.22191616892814636,
                        0.42849981784820557,
                        0.04445233196020126,
                        0.007057816721498966,
                        -0.1995067000389099,
                        0.048559706658124924,
                        3.2172319889068604,
                        0.2565641701221466,
                        -0.33232447504997253,
                        0.03089550882577896,
                        0.062135323882102966,
                        0.24863778054714203,
                        0.264799028635025,
                        -0.6796931624412537,
                        -0.27348679304122925,
                        0.2509947419166565,
                        0.016111185774207115,
                        0.051950614899396896,
                        -0.15642644464969635,
                        -0.20889726281166077,
                        0.11906746029853821,
                        -0.10137507319450378,
                        -0.11057768017053604,
                        -0.009556992910802364,
                        0.22765474021434784,
                        -0.12130614370107651,
                        0.12856608629226685,
                        -0.0836908146739006,
                        0.34119635820388794,
                        -0.05453873053193092,
                        -0.3349290192127228,
                        -0.579637885093689,
                        0.1356920599937439,
                        0.6328830122947693,
                        0.12468840181827545,
                        0.18499357998371124,
                        0.00743709085509181,
                        -0.1423015594482422,
                        -0.7772990465164185,
                        -0.041192974895238876,
                        0.3873377740383148,
                        -0.06201571598649025,
                        0.10380092263221741,
                        0.28739798069000244,
                        0.09546263515949249,
                        0.3073901832103729,
                        -0.17864534258842468,
                        -0.07529506087303162,
                        0.21395567059516907
                    ],
                    [
                        -0.5977324843406677,
                        -0.39510414004325867,
                        -0.33846259117126465,
                        -0.06266932189464569,
                        0.2011183202266693,
                        0.4229971766471863,
                        -0.4654105305671692,
                        -0.993110716342926,
                        -0.6168246865272522,
                        -0.04416224732995033,
                        0.19212350249290466,
                        -0.3428148329257965,
                        -0.10331084579229355,
                        -0.15539465844631195,
                        -0.6939983367919922,
                        0.041810955852270126,
                        -1.1870474815368652,
                        -1.3497177362442017,
                        -0.5518783330917358,
                        -0.23473899066448212,
                        -1.430861234664917,
                        -0.5817499756813049,
                        -0.8006576895713806,
                        -0.47781237959861755,
                        0.08219866454601288,
                        -0.3807491362094879,
                        -0.7418538928031921,
                        -0.08074358105659485,
                        0.09462154656648636,
                        -0.15042133629322052,
                        -0.39687666296958923,
                        -0.8501626253128052,
                        0.16018211841583252,
                        -0.04344470426440239,
                        0.25017762184143066,
                        0.010258070193231106,
                        0.16469690203666687,
                        -0.01374780386686325,
                        0.25229504704475403,
                        0.4555013179779053,
                        -0.0984795019030571,
                        0.20202504098415375,
                        -0.039596714079380035,
                        -0.08760873973369598,
                        0.3485698997974396,
                        -0.11697346717119217,
                        0.2758987545967102,
                        -0.21191182732582092,
                        -0.13107167184352875,
                        -0.31709638237953186,
                        0.43104103207588196,
                        0.15266110002994537,
                        0.3840201795101166,
                        -0.8802854418754578,
                        0.038725484162569046,
                        0.39877021312713623,
                        -0.06464432179927826,
                        -0.5169042348861694,
                        0.13553859293460846,
                        -0.1517178863286972,
                        -0.30382630228996277,
                        0.06619742512702942,
                        0.011805672198534012,
                        0.123375304043293,
                        0.39682239294052124,
                        -0.19304949045181274,
                        0.41646599769592285,
                        0.02580784447491169,
                        -0.1524735391139984,
                        0.05275413766503334,
                        -0.4250745475292206,
                        -0.2862031161785126,
                        0.12863869965076447,
                        0.012432887218892574,
                        -0.006230112165212631,
                        -0.18701748549938202,
                        -0.008809288963675499,
                        -0.05980216711759567,
                        0.07576407492160797,
                        -0.16153281927108765,
                        -0.22394683957099915,
                        -0.136068195104599,
                        -0.4498883783817291,
                        0.10890404134988785,
                        0.21739034354686737,
                        0.24499639868736267,
                        0.04987627640366554,
                        -0.2905159294605255,
                        -0.12649944424629211,
                        -0.08693379908800125,
                        0.03658299893140793,
                        -0.20570649206638336,
                        -0.17530331015586853,
                        0.41138648986816406,
                        0.1372571885585785,
                        0.11526221036911011
                    ],
                    [
                        0.04361434653401375,
                        -0.2889341711997986,
                        -0.01963316649198532,
                        -0.5440763235092163,
                        0.6136965155601501,
                        0.1622432917356491,
                        -0.5482107400894165,
                        -0.58647620677948,
                        -1.1842317581176758,
                        -0.05911102145910263,
                        -0.24658773839473724,
                        0.47979146242141724,
                        -0.021102214232087135,
                        -0.5080935955047607,
                        -0.2729962170124054,
                        -0.3049146831035614,
                        -1.6511362791061401,
                        -0.8560189008712769,
                        -0.902391254901886,
                        -0.0028501274064183235,
                        -0.8107080459594727,
                        -1.312799096107483,
                        -1.1094942092895508,
                        -0.562640905380249,
                        0.564045250415802,
                        -1.161173701286316,
                        -0.31842470169067383,
                        0.24377937614917755,
                        0.011355198919773102,
                        -0.1963530331850052,
                        0.8156355619430542,
                        0.8082349300384521,
                        0.09572787582874298,
                        0.09574258327484131,
                        0.01890573836863041,
                        0.16955536603927612,
                        -0.15390904247760773,
                        -0.05100956931710243,
                        -0.0033284334931522608,
                        0.27735328674316406,
                        -0.24712948501110077,
                        0.06910860538482666,
                        0.06611455976963043,
                        -0.24900664389133453,
                        0.15401975810527802,
                        -0.2012520283460617,
                        0.15256521105766296,
                        0.1658458262681961,
                        -0.88079833984375,
                        -0.1599789410829544,
                        0.3062642812728882,
                        0.11889307200908661,
                        -0.1378972828388214,
                        -1.8880356550216675,
                        -0.24443970620632172,
                        0.6193788647651672,
                        0.05758209526538849,
                        -0.25597095489501953,
                        0.34855854511260986,
                        -0.16748175024986267,
                        -0.4641198217868805,
                        0.017042770981788635,
                        0.056571636348962784,
                        0.17419026792049408,
                        0.47152337431907654,
                        -0.05483315885066986,
                        0.1185443177819252,
                        -0.14428776502609253,
                        0.21515201032161713,
                        0.11720279604196548,
                        -0.10966618359088898,
                        -0.06976273655891418,
                        0.1605520099401474,
                        -0.22504250705242157,
                        0.05017448589205742,
                        -0.41629379987716675,
                        0.001206774148158729,
                        0.21081677079200745,
                        0.479845255613327,
                        0.14283215999603271,
                        -0.39324328303337097,
                        -0.22572219371795654,
                        -0.14410072565078735,
                        -0.10652624815702438,
                        -0.06606696546077728,
                        0.6324114203453064,
                        -0.33756276965141296,
                        -0.24905994534492493,
                        0.2507888376712799,
                        -0.2487020492553711,
                        -0.14584805071353912,
                        -0.07163015007972717,
                        -0.3022518754005432,
                        0.0867573618888855,
                        -0.23745541274547577,
                        -0.26072052121162415
                    ],
                    [
                        0.5827557444572449,
                        -0.27791890501976013,
                        -0.9314138889312744,
                        0.6892083883285522,
                        0.7622513175010681,
                        0.01588353142142296,
                        -0.7551677227020264,
                        0.1015167087316513,
                        0.46635702252388,
                        -0.07192395627498627,
                        -0.19143523275852203,
                        0.4209292531013489,
                        0.13320910930633545,
                        1.470852017402649,
                        1.0914074182510376,
                        1.5962951183319092,
                        -1.015639305114746,
                        0.7724985480308533,
                        -0.8417841792106628,
                        0.05244337394833565,
                        -0.8744556307792664,
                        -1.6962333917617798,
                        -0.45453065633773804,
                        -0.5372447967529297,
                        1.0313676595687866,
                        1.4326982498168945,
                        0.7900967597961426,
                        -0.09883145987987518,
                        2.799001693725586,
                        -0.3114372491836548,
                        1.7461316585540771,
                        0.6600243449211121,
                        0.05984067916870117,
                        -0.6052945852279663,
                        0.11248589307069778,
                        0.24820995330810547,
                        0.03422330692410469,
                        -0.228225439786911,
                        -0.14523780345916748,
                        -0.11837279796600342,
                        -0.5466470718383789,
                        -0.03144559636712074,
                        -0.11065445840358734,
                        -0.626853883266449,
                        0.061250828206539154,
                        -0.5484942197799683,
                        -0.6127530932426453,
                        0.09091486036777496,
                        -0.6377516388893127,
                        0.5288753509521484,
                        -0.5216730237007141,
                        -0.14033100008964539,
                        -0.20907707512378693,
                        -1.8448327779769897,
                        0.060160934925079346,
                        0.2978149950504303,
                        0.333310067653656,
                        0.41417205333709717,
                        -0.1217833161354065,
                        -0.16012844443321228,
                        0.9162387847900391,
                        -0.2435820996761322,
                        0.06134098395705223,
                        -0.029568437486886978,
                        0.0037369984202086926,
                        0.29715558886528015,
                        -0.011879435740411282,
                        0.07063094526529312,
                        -0.03483559191226959,
                        0.18726696074008942,
                        -0.0052945176139473915,
                        -0.06446630507707596,
                        -0.13650397956371307,
                        -0.03156227990984917,
                        0.03490111976861954,
                        -0.04656707122921944,
