{
    "in_shape": [
        null,
        null,
        1
    ],
    "layers": [
        {
            "type": "lstm",
            "activation": "tanh",
            "shape": [
                null,
                null,
                32
            ],
            "weights": [
                [
                    [
                        0.07237474620342255,
                        1.331004023551941,
                        -0.25182443857192993,
                        -1.6106036901474,
                        0.9075679183006287,
                        0.4042576849460602,
                        -0.04268708452582359,
                        0.2523835003376007,
                        -0.15046612918376923,
                        -0.5568965077400208,
                        1.787022352218628,
                        0.12125223875045776,
                        0.5116333365440369,
                        0.997269332408905,
                        -0.014393249526619911,
                        -0.13708171248435974,
                        0.06502106785774231,
                        0.3241727650165558,
                        0.42079102993011475,
                        0.0030331623274832964,
                        -0.15797555446624756,
                        -1.0747721195220947,
                        0.527153730392456,
                        -0.2284127026796341,
                        0.6142532229423523,
                        0.12271379679441452,
                        -0.3631470203399658,
                        -0.14189735054969788,
                        0.016018470749258995,
                        0.3433074653148651,
                        0.029427381232380867,
                        0.16350598633289337,
                        -0.1741139441728592,
                        1.3295307159423828,
                        -0.5717724561691284,
                        -1.0841529369354248,
                        0.7856361865997314,
                        -0.16906917095184326,
                        0.24628421664237976,
                        1.5354578495025635,
                        -0.3974592089653015,
                        -0.6768913865089417,
                        0.9004771709442139,
                        0.048431310802698135,
                        0.5721977949142456,
                        2.3976261615753174,
                        -0.5156182646751404,
                        -0.09082820266485214,
                        0.30628135800361633,
                        -0.42766469717025757,
                        0.49275296926498413,
                        0.5117653012275696,
                        -0.04744461551308632,
                        -0.9393706321716309,
                        0.33596476912498474,
                        -0.6975018382072449,
                        0.7771164178848267,
                        0.16281822323799133,
                        -0.16586542129516602,
                        0.5030004382133484,
                        0.2013138383626938,
                        0.475071519613266,
                        -0.06731782108545303,
                        0.2748035192489624,
                        0.9990319609642029,
                        0.7066493034362793,
                        -0.272518515586853,
                        2.1753616333007812,
                        0.1146630272269249,
                        0.7102952003479004,
                        -0.24461601674556732,
                        -2.2566778659820557,
                        0.009764066897332668,
                        0.10126509517431259,
                        2.1454012393951416,
                        -0.308102548122406,
                        0.9284487962722778,
                        -1.0266278982162476,
                        0.29534414410591125,
                        -0.20779410004615784,
                        -0.13336428999900818,
                        3.321747064590454,
                        -0.6848108768463135,
                        0.6455951929092407,
                        -0.31361666321754456,
                        -0.6273594498634338,
                        0.3996119797229767,
                        -0.9361680150032043,
                        0.22460277378559113,
                        -0.6346850395202637,
                        -0.10147859156131744,
                        -0.3447011709213257,
                        0.2539450228214264,
                        0.08440735191106796,
                        0.03927822411060333,
                        -0.10675368458032608,
                        0.26713255047798157,
                        1.394278883934021,
                        -1.0210272073745728,
                        -0.6954479217529297,
                        1.1054047346115112,
                        0.01272109616547823,
                        0.2119804173707962,
                        0.493785560131073,
                        -0.04323853924870491,
                        -1.251494288444519,
                        2.4434468746185303,
                        0.22349463403224945,
                        0.947059690952301,
                        1.7928043603897095,
                        -1.5707682371139526,
                        -0.19370338320732117,
                        0.45624658465385437,
                        -0.4479670226573944,
                        0.4763015806674957,
                        0.21525663137435913,
                        0.2826918661594391,
                        -1.9155412912368774,
                        0.6894650459289551,
                        -0.7600580453872681,
                        1.6457732915878296,
                        0.04272574558854103,
                        -1.0257214307785034,
                        0.6243532299995422,
                        0.1025540754199028,
                        0.5548665523529053,
                        -0.10879745334386826,
                        0.450531005859375
                    ]
                ],
                [
                    [
                        0.08611474931240082,
                        0.03447693586349487,
                        0.08123118430376053,
                        -0.6930311322212219,
                        -0.05625176429748535,
                        -0.10100692510604858,
                        0.004046902991831303,
                        0.1279505491256714,
                        -0.043151967227458954,
                        -0.03230925276875496,
                        0.5940791368484497,
                        0.19271118938922882,
                        -0.6110789775848389,
                        -0.7881059050559998,
                        0.010345191694796085,
                        0.07687987387180328,
                        -0.049045804888010025,
                        -0.0817691907286644,
                        -0.023372257128357887,
                        -0.09897630661725998,
                        -0.15176427364349365,
                        -0.0064026848413050175,
                        0.07353319227695465,
                        -0.04642545059323311,
                        -0.08753887563943863,
                        0.0626397430896759,
                        0.14977164566516876,
                        -1.4429845809936523,
                        0.030048158019781113,
                        -0.09294898062944412,
                        0.022846929728984833,
                        0.057615917176008224,
                        0.02215200662612915,
                        0.19068880379199982,
                        0.08426275104284286,
                        -0.11309777200222015,
                        0.30518022179603577,
                        -0.07689596712589264,
                        0.06588605046272278,
                        0.4012501835823059,
                        0.025993695482611656,
                        -0.03591921925544739,
                        0.3228798806667328,
                        0.0531173013150692,
                        0.4355705976486206,
                        0.4064757525920868,
                        -0.0861457884311676,
                        -0.10365427285432816,
                        -0.13710711896419525,
                        0.3084852993488312,
                        0.1605963110923767,
                        0.09510697424411774,
                        -0.21799404919147491,
                        -0.32471561431884766,
                        0.1499013751745224,
                        0.12106390297412872,
                        0.15811721980571747,
                        -0.13273383677005768,
                        0.1461055427789688,
                        -0.12663082778453827,
                        -0.21861585974693298,
                        -0.1436767727136612,
                        -0.1894298940896988,
                        -0.16702398657798767,
                        -0.05759191885590553,
                        0.004649525508284569,
                        0.02365056611597538,
                        0.42328014969825745,
                        -0.3072131276130676,
                        -0.11711598932743073,
                        0.06921270489692688,
                        0.11270070821046829,
                        -0.011160659603774548,
                        -0.2219153493642807,
                        0.4975024461746216,
                        0.11621571332216263,
                        0.1785246878862381,
                        0.4767735004425049,
                        -0.22216443717479706,
                        -0.1830720603466034,
                        0.009797325357794762,
                        0.27307578921318054,
                        0.010860842652618885,
                        0.3627742826938629,
                        0.15851889550685883,
                        -0.1319011002779007,
                        0.09865177422761917,
                        0.17662672698497772,
                        -0.02111372910439968,
                        -0.09456295520067215,
                        -0.24683764576911926,
                        0.26584920287132263,
                        0.14171968400478363,
                        -0.0726090744137764,
                        -0.05354999005794525,
                        -0.18308281898498535,
                        0.0881689190864563,
                        0.08686017245054245,
                        -0.01565287634730339,
                        0.1417844146490097,
                        -0.10606072843074799,
                        0.017539147287607193,
                        0.0150610925629735,
                        -0.21598385274410248,
                        -0.17859843373298645,
                        -0.06347635388374329,
                        0.6671690940856934,
                        -0.16371245682239532,
                        -0.1220351979136467,
                        -1.4152671098709106,
                        -0.22962264716625214,
                        -0.09730619937181473,
                        -0.11235526949167252,
                        -1.389220118522644,
                        0.17073184251785278,
                        -0.1926497220993042,
                        -0.4043002128601074,
                        -0.22364351153373718,
                        0.15049412846565247,
                        0.12240545451641083,
                        0.21420040726661682,
                        -0.15868937969207764,
                        0.10825853794813156,
                        -0.07339658588171005,
                        0.14742788672447205,
                        -0.041664667427539825,
                        -0.2725563049316406,
                        0.09542820602655411
                    ],
                    [
                        0.7156385183334351,
                        0.053589269518852234,
                        -0.14269137382507324,
                        0.16184350848197937,
                        0.3950153887271881,
                        0.12293875217437744,
                        -0.027078986167907715,
                        0.5667481422424316,
                        0.05058852583169937,
                        0.28675928711891174,
                        1.1897262334823608,
                        0.12977899610996246,
                        0.3330201208591461,
                        0.2502192258834839,
                        0.13524292409420013,
                        0.03274568170309067,
                        -0.07788767665624619,
                        2.2205007076263428,
                        0.3949989378452301,
                        0.13558022677898407,
                        0.05134119093418121,
                        -0.029106823727488518,
                        0.065891794860363,
                        0.13041411340236664,
                        0.14184467494487762,
                        0.3120092451572418,
                        -0.0323808528482914,
                        -0.40821021795272827,
                        -0.029165776446461678,
                        -0.18155327439308167,
                        -0.0498223602771759,
                        -0.08702021837234497,
                        0.04175172746181488,
                        -0.019177187234163284,
                        -0.06286527216434479,
                        -0.2853943407535553,
                        -0.040837597101926804,
                        -0.029506618157029152,
                        0.01150233019143343,
                        -0.20481590926647186,
                        0.0692116767168045,
                        0.2764667868614197,
                        0.16329579055309296,
                        0.1972585767507553,
                        -0.11987107247114182,
                        -0.2597687542438507,
                        -0.0018591240514069796,
                        0.09041094779968262,
                        0.040797118097543716,
                        0.12554813921451569,
                        0.2877211570739746,
                        0.051901448518037796,
                        -0.13868959248065948,
                        -0.2738414704799652,
                        -0.280609130859375,
                        -0.024159833788871765,
                        0.04526720568537712,
                        0.28693559765815735,
                        0.08222697675228119,
                        -0.3011074364185333,
                        -0.026415381580591202,
                        -0.044761382043361664,
                        -0.16058048605918884,
                        -0.08907368034124374,
                        0.07428091019392014,
                        0.03860267996788025,
                        0.010627839714288712,
                        0.11835228651762009,
                        -0.17042237520217896,
                        -0.20016954839229584,
                        0.009791163727641106,
                        0.08557286858558655,
                        0.0816396027803421,
                        -0.10393162071704865,
                        0.43196600675582886,
                        0.04295062646269798,
                        0.07055332511663437,
                        0.10421524941921234,
                        0.15974338352680206,
                        -0.11806531995534897,
                        0.016766460612416267,
                        0.02200130745768547,
                        0.019593890756368637,
                        0.1833491325378418,
                        0.09841237217187881,
                        -0.06422287970781326,
                        0.039362285286188126,
                        -0.16400814056396484,
                        -0.07978727668523788,
                        0.03642295300960541,
                        -0.37636277079582214,
                        0.10772068798542023,
                        -0.13294965028762817,
                        0.10627342760562897,
                        -0.08865810930728912,
                        0.061118122190237045,
                        0.8100679516792297,
                        -0.061904873698949814,
                        0.06065516173839569,
                        0.6979497075080872,
                        0.3783635199069977,
                        0.22019924223423004,
                        -0.04618126526474953,
                        0.6824158430099487,
                        0.026392772793769836,
                        0.049196429550647736,
                        0.6704650521278381,
                        -0.12694917619228363,
                        0.19147779047489166,
                        0.05460965260863304,
                        0.1511012464761734,
                        0.03400551527738571,
                        -0.005069564562290907,
                        0.8945663571357727,
                        0.5553596019744873,
                        -0.02464565448462963,
                        0.051744505763053894,
                        -0.03065059892833233,
                        0.06762860715389252,
                        0.1422339677810669,
                        0.049655865877866745,
                        0.349003404378891,
                        -0.013482373207807541,
                        -0.08335021138191223,
                        -0.06920257955789566,
                        -0.2809148132801056,
                        -0.20976588129997253,
                        -0.09507828205823898
                    ],
                    [
                        0.5250177979469299,
                        0.058602724224328995,
                        -0.10964980721473694,
                        0.13171353936195374,
                        0.6223769187927246,
                        0.12524151802062988,
                        0.1836446225643158,
                        0.314108669757843,
                        0.16772548854351044,
                        -0.020018473267555237,
                        0.34649530053138733,
                        0.1140911802649498,
                        0.9692890048027039,
                        1.1104756593704224,
                        0.21386492252349854,
                        0.011259292252361774,
                        0.046085190027952194,
                        1.197921633720398,
                        0.20106598734855652,
                        0.02602153643965721,
                        0.1860625296831131,
                        0.2005683332681656,
                        -0.19720284640789032,
                        0.1642870455980301,
                        0.06531855463981628,
                        0.03293667733669281,
                        -0.04359474778175354,
                        0.32842308282852173,
                        0.004775059875100851,
                        0.06702665239572525,
                        0.028733178973197937,
                        -0.100161112844944,
                        -0.11326003074645996,
                        0.020313067361712456,
                        -0.10812368243932724,
                        -0.03003513440489769,
                        -0.028598090633749962,
                        0.03070834092795849,
                        0.05693022534251213,
                        -0.2539899945259094,
                        0.21506209671497345,
                        0.010429766029119492,
                        0.017101814970374107,
                        0.2367815524339676,
                        -0.14832942187786102,
                        -0.39920586347579956,
                        0.17579405009746552,
                        0.016704807057976723,
                        0.209940567612648,
                        0.15998238325119019,
                        -0.022661197930574417,
                        -0.15034586191177368,
                        0.2296423763036728,
                        0.03008328750729561,
                        -0.22438780963420868,
                        0.10961675643920898,
                        -0.17352530360221863,
                        0.02989899553358555,
                        0.2035641223192215,
                        -0.2921656668186188,
                        0.02431407757103443,
                        -0.06201880797743797,
                        0.03613489121198654,
                        -0.11003703624010086,
                        -0.13749441504478455,
                        -0.06482436507940292,
                        0.03338617458939552,
                        0.0776473730802536,
                        0.04338175058364868,
                        -0.1778462827205658,
                        0.027715593576431274,
                        0.11731085181236267,
                        0.010711329989135265,
                        -0.0803191214799881,
                        -0.1261841505765915,
                        -0.23081837594509125,
                        -0.23766057193279266,
                        -0.005172761622816324,
                        -0.21735131740570068,
                        0.056673549115657806,
                        0.014572704210877419,
                        -0.04507038742303848,
                        0.09812682867050171,
                        -0.07054328918457031,
                        -0.04180170223116875,
                        0.15086889266967773,
                        -0.12783974409103394,
                        0.07308351993560791,
                        0.0172463059425354,
                        0.17404820024967194,
                        0.12777142226696014,
                        0.08846769481897354,
                        -0.06350616365671158,
                        0.0802399143576622,
                        0.07365161925554276,
                        -0.05965103581547737,
                        0.5044438242912292,
                        -0.05407753214240074,
                        0.12687037885189056,
                        0.7012625336647034,
                        0.6086922287940979,
                        0.2597886025905609,
                        0.032396815717220306,
                        0.8357511162757874,
                        -0.06492047011852264,
                        0.20010322332382202,
                        -0.11062855273485184,
                        0.13847872614860535,
                        0.8810308575630188,
                        0.7372368574142456,
                        0.10876508057117462,
                        0.03085356391966343,
                        0.0673491507768631,
                        0.6895663142204285,
                        0.09415943920612335,
                        -0.03768083080649376,
                        0.2605738639831543,
                        0.15598471462726593,
                        -0.19065871834754944,
                        0.33151137828826904,
                        -0.03295573964715004,
                        0.31906384229660034,
                        -0.04146801307797432,
                        0.17721056938171387,
                        -0.07508400082588196,
                        -0.032023411244153976,
                        0.0958864763379097,
                        -0.05853910371661186
                    ],
                    [
                        -0.08461568504571915,
                        0.09036147594451904,
                        -0.12690933048725128,
                        -0.8334148526191711,
                        0.0940992683172226,
                        -0.13024848699569702,
                        0.08100717514753342,
                        -1.8073234558105469,
                        0.040608081966638565,
                        -0.03399372473359108,
                        0.3926984965801239,
                        -0.06279297918081284,
                        -0.03877745941281319,
                        -0.6169955730438232,
                        0.0468185618519783,
                        -0.06732197105884552,
                        0.0919560045003891,
                        -0.10621917247772217,
                        -0.008389171212911606,
                        -0.15611444413661957,
                        0.19338473677635193,
                        -0.07018661499023438,
                        -0.20676900446414948,
                        -0.008161614648997784,
                        0.15770015120506287,
                        -0.15190927684307098,
                        0.08167382329702377,
                        -0.9996160864830017,
                        0.010422684252262115,
                        0.08698520064353943,
                        0.08203721046447754,
                        0.08376344293355942,
                        0.21040835976600647,
                        0.1489114612340927,
                        -0.08843989670276642,
                        0.05407534912228584,
                        0.09641634672880173,
                        0.03519284352660179,
                        0.16927248239517212,
                        -0.04107816144824028,
                        0.06305884569883347,
                        0.015483807772397995,
                        0.37892353534698486,
                        -0.09430131316184998,
                        0.5140096545219421,
                        -0.015134300105273724,
                        -0.023441608995199203,
                        -0.12034831941127777,
                        -0.009890655055642128,
                        0.20840249955654144,
                        0.16751863062381744,
                        -0.1556452512741089,
                        -0.05607698857784271,
                        -0.0659639909863472,
                        0.062098272144794464,
                        -0.05166950449347496,
                        -0.08913163840770721,
                        0.03503088653087616,
                        -0.0882427766919136,
                        -0.23460690677165985,
                        -0.2600390315055847,
                        0.032312970608472824,
                        0.158799409866333,
                        -0.0988963320851326,
                        0.0030988699290901423,
                        0.05485149845480919,
                        0.16295531392097473,
                        0.27201980352401733,
                        -0.35923123359680176,
                        -0.018252478912472725,
                        -0.011979185044765472,
                        0.21520668268203735,
                        -0.02829427272081375,
                        -0.15551993250846863,
                        0.6072751879692078,
                        0.02082473784685135,
                        0.16834618151187897,
                        0.240793839097023,
                        -0.00707819452509284,
                        0.07698892056941986,
                        0.03586634621024132,
                        0.3459065556526184,
                        0.05400580167770386,
                        0.03766072541475296,
                        0.22648604214191437,
                        -0.034271370619535446,
                        -0.014909271150827408,
                        -0.027543578296899796,
                        -0.14960260689258575,
                        -0.06274852156639099,
                        -0.005146467126905918,
                        -0.03329704329371452,
                        -0.00022345503384713084,
                        -0.023330098018050194,
                        -0.049331676214933395,
                        -0.004493501968681812,
                        0.05739950016140938,
                        0.12499885261058807,
                        0.1615326851606369,
                        -0.10775543749332428,
                        -0.048494357615709305,
                        0.18816913664340973,
                        0.10712640732526779,
                        -1.1796408891677856,
                        -0.15898734331130981,
                        0.07113589346408844,
                        0.4402800500392914,
                        0.08545901626348495,
                        0.22281475365161896,
                        -0.7261433601379395,
                        -0.13331732153892517,
                        -0.08702875673770905,
                        -0.12322267889976501,
                        -1.1688296794891357,
                        0.06370889395475388,
                        -0.022035222500562668,
                        -0.020542215555906296,
                        -0.13279128074645996,
                        0.1953350305557251,
                        -0.05776355043053627,
                        0.08660116046667099,
                        -0.29114529490470886,
                        0.07868334650993347,
                        -0.1535535752773285,
                        -0.0031288983300328255,
                        -0.14943982660770416,
                        0.12223079055547714,
                        0.03202776238322258
                    ],
                    [
                        0.2881956696510315,
                        0.3245360255241394,
                        0.07061140239238739,
                        1.13572096824646,
                        0.00745554780587554,
                        0.41308146715164185,
                        0.03376048058271408,
                        1.182726502418518,
                        -0.15888331830501556,
                        -0.004489918705075979,
                        0.650441586971283,
                        -0.15055802464485168,
                        0.021937021985650063,
                        0.334535151720047,
                        -0.12358711659908295,
                        -0.21069499850273132,
                        0.10465454310178757,
                        0.8898894786834717,
                        0.07446219772100449,
                        0.18847769498825073,
                        -0.16947755217552185,
                        0.05915117263793945,
                        -0.13742133975028992,
                        0.12010066211223602,
                        0.12670685350894928,
                        -0.02827438712120056,
                        0.002363300183787942,
                        0.8131325840950012,
                        -0.024713970720767975,
                        0.02269439958035946,
                        0.0004504734533838928,
                        -0.1439695805311203,
                        -0.12932337820529938,
                        -0.03560006618499756,
                        -0.11370005458593369,
                        -0.12586386501789093,
                        -0.17536984384059906,
                        -0.04457267001271248,
                        -0.0423884280025959,
                        0.4880596399307251,
                        -0.1255062222480774,
                        0.003300233744084835,
                        -0.05950361117720604,
                        -0.15445560216903687,
                        -0.17941057682037354,
                        0.0077199372462928295,
                        0.0893048569560051,
                        -0.10028912872076035,
                        -0.05345678701996803,
                        0.22840212285518646,
                        -0.04636752977967262,
                        0.3056090772151947,
                        -0.34370243549346924,
                        -0.07846011221408844,
                        0.06176503002643585,
                        0.04414350539445877,
                        0.38219794631004333,
                        0.08583785593509674,
                        -0.06806675344705582,
                        0.46922215819358826,
                        0.09202611446380615,
                        0.04320423677563667,
                        0.1704503744840622,
                        0.0037957956083118916,
                        0.10695284605026245,
                        0.08721817284822464,
                        -0.07800665497779846,
                        0.24728211760520935,
                        -0.11675670742988586,
                        0.03638463467359543,
                        -0.17107045650482178,
                        -0.5641504526138306,
                        0.020626546815037727,
                        0.048934753984212875,
                        -0.026442699134349823,
                        -0.052156928926706314,
                        0.18241877853870392,
                        0.09103795140981674,
                        0.003805359359830618,
                        -0.09141237288713455,
                        0.08640914410352707,
                        0.06341877579689026,
                        -0.2934306859970093,
                        0.11810967326164246,
                        0.011295456439256668,
                        0.052600786089897156,
                        0.0690198466181755,
                        -0.08868542313575745,
                        0.1708967387676239,
                        -0.07735007256269455,
                        -0.05259697511792183,
                        -0.3912554383277893,
                        -0.010741340927779675,
                        -0.056374937295913696,
                        0.12951451539993286,
                        0.14990568161010742,
                        0.21794600784778595,
                        0.3602246940135956,
                        0.03137426823377609,
                        0.5519500970840454,
                        -0.07778290659189224,
                        0.15685495734214783,
                        -0.11661723256111145,
                        0.8927727341651917,
                        0.06627266108989716,
                        0.10705360025167465,
                        0.4180983603000641,
                        0.06154130771756172,
                        -0.053502392023801804,
                        0.5264016389846802,
                        -0.011864494532346725,
                        -0.17033058404922485,
                        0.004713053349405527,
                        1.3433693647384644,
                        0.2635485827922821,
                        0.4401018023490906,
                        -0.09861575067043304,
                        -0.11222154647111893,
                        0.049679748713970184,
                        0.020870942622423172,
                        0.15664507448673248,
                        0.1770448535680771,
                        0.005778679624199867,
                        0.7341507077217102,
                        -0.13920922577381134,
                        -0.17550471425056458,
                        -0.13436095416545868,
                        0.03541206195950508
                    ],
                    [
                        -0.21256941556930542,
                        -0.07450726628303528,
                        0.08858014643192291,
                        -0.046878352761268616,
                        -0.00867322739213705,
                        -0.05213237181305885,
                        0.01969495788216591,
                        0.005532233975827694,
                        -0.1214103028178215,
                        -0.01736532710492611,
                        0.14703571796417236,
                        -0.0800846591591835,
                        -0.22740787267684937,
                        -0.2842366695404053,
                        -0.01511870976537466,
                        0.06015723571181297,
                        -0.047601789236068726,
                        -1.1690526008605957,
                        0.056895945221185684,
                        -0.3361658453941345,
                        0.033026691526174545,
                        -0.08919139206409454,
                        0.06222442537546158,
                        0.11214629560709,
                        0.26460474729537964,
                        0.0696553960442543,
                        -0.11837903410196304,
                        0.047107283025979996,
                        0.11188733577728271,
                        0.23903246223926544,
                        -0.026653137058019638,
                        0.09659548848867416,
                        -0.13577911257743835,
                        0.06535626947879791,
                        0.2515428066253662,
                        -0.017108671367168427,
                        -0.28823187947273254,
                        0.16435696184635162,
                        -0.027854178100824356,
                        0.2992049753665924,
                        0.17853997647762299,
                        -0.02714739739894867,
                        0.35078108310699463,
                        0.022384943440556526,
                        0.09509111195802689,
                        0.07231950014829636,
                        0.11713462322950363,
                        0.0076860589906573296,
                        0.05024415999650955,
                        -0.11948387324810028,
                        -0.027286585420370102,
                        0.15016692876815796,
                        -0.10995408892631531,
                        0.15714983642101288,
                        0.06588195264339447,
                        -0.03982642665505409,
                        -0.15340134501457214,
                        0.14682243764400482,
                        -0.02231712080538273,
                        -0.22627362608909607,
                        0.007027819752693176,
                        -0.01118114497512579,
                        0.16214098036289215,
                        0.2703552842140198,
                        0.17338712513446808,
                        0.07694636285305023,
                        0.1447058916091919,
                        0.35273483395576477,
                        -0.49215421080589294,
                        -0.08039727061986923,
                        0.14624521136283875,
                        -0.10545092821121216,
                        -0.26459404826164246,
                        0.037250418215990067,
                        0.45648497343063354,
                        -0.04545769467949867,
                        0.10764961689710617,
                        0.2530198395252228,
                        0.024748150259256363,
                        -0.004279088694602251,
                        -0.005777031183242798,
                        0.2622205913066864,
                        0.10282004624605179,
                        0.2052118331193924,
                        0.15459218621253967,
                        -0.1903938204050064,
                        -0.014928862452507019,
                        -0.1299102008342743,
                        -0.09176419675350189,
                        0.0020773608703166246,
                        -0.03313341736793518,
                        0.0436481349170208,
                        -0.09944604337215424,
                        -0.056009210646152496,
                        -0.05109045282006264,
                        -0.01899036020040512,
                        -0.22068221867084503,
                        -0.09056439995765686,
                        0.24234504997730255,
                        -0.31606945395469666,
                        -0.045193325728178024,
                        0.010458691976964474,
                        -0.19873826205730438,
                        -0.14896145462989807,
                        0.040146298706531525,
                        -0.07202863693237305,
                        0.5142874717712402,
                        0.002912702038884163,
                        -0.19589902460575104,
                        -0.029927026480436325,
                        0.09067931771278381,
                        0.1325269192457199,
                        0.13039091229438782,
                        -0.8582028150558472,
                        -0.1734611541032791,
                        -0.1264352947473526,
                        0.06928861141204834,
                        -0.03514265641570091,
                        0.02081039547920227,
                        0.08129194378852844,
                        0.04161151498556137,
                        0.022597065195441246,
                        -0.0011801577638834715,
                        -0.09925775229930878,
                        0.2164337933063507,
                        -0.05986524745821953,
                        0.004234666470438242,
                        0.027334041893482208
                    ],
                    [
                        -0.21261802315711975,
                        -0.033286694437265396,
                        -0.033662017434835434,
                        -0.6608801484107971,
                        0.19807477295398712,
                        -0.3424355089664459,
                        -0.03328121453523636,
                        -0.21970880031585693,
                        0.1727982759475708,
                        0.0816158652305603,
                        -0.5233228206634521,
                        0.1275220364332199,
                        -0.23971416056156158,
                        -0.13953684270381927,
                        -0.08249418437480927,
                        0.05180243402719498,
                        -0.09174967557191849,
                        -0.561211109161377,
                        -0.11395450681447983,
                        0.09855035692453384,
                        0.14957505464553833,
                        -0.023412127047777176,
                        0.0040692794136703014,
                        -0.04623166471719742,
                        -0.05484653636813164,
                        -0.01327023096382618,
                        0.023050492629408836,
                        -0.4863240718841553,
                        -0.09175542742013931,
                        -0.049065928906202316,
                        -0.043184638023376465,
                        -0.011402023024857044,
                        -0.03605589643120766,
                        -0.12506482005119324,
                        -0.09564952552318573,
                        0.19712455570697784,
                        0.13630852103233337,
                        0.09115549921989441,
                        0.1496068686246872,
                        0.0489925891160965,
                        0.23716066777706146,
                        0.0751221626996994,
                        0.11985314637422562,
                        -0.1471012532711029,
                        0.07839372754096985,
                        0.14505356550216675,
                        0.06576082110404968,
                        0.031392112374305725,
                        -0.23847182095050812,
                        -0.18148638308048248,
                        -0.16470801830291748,
                        -0.11994696408510208,
                        0.10229143500328064,
                        -0.1100253015756607,
                        -0.13576480746269226,
                        0.11699049174785614,
                        0.06977736204862595,
                        2.286574999743607e-05,
                        -0.02871960774064064,
                        -0.2946423888206482,
                        0.05744915083050728,
                        -0.25942856073379517,
                        0.015678567811846733,
                        -0.16185550391674042,
                        0.09841696172952652,
                        -0.030230028554797173,
                        -0.17907586693763733,
                        0.05073847994208336,
                        0.060134656727313995,
                        0.1196294054389,
                        -0.03875231370329857,
                        0.2102292776107788,
                        0.08390071988105774,
                        0.06136106699705124,
                        -0.015157168731093407,
                        0.14363829791545868,
                        -0.21405468881130219,
                        -0.24836589395999908,
                        -0.18451975286006927,
                        -0.04526608809828758,
                        -0.056723881512880325,
                        -0.008733787573873997,
                        -0.05911293253302574,
                        -0.29224082827568054,
                        0.037598732858896255,
                        -0.1265953630208969,
                        -0.23298366367816925,
                        0.027416503056883812,
                        -0.00019594754849094898,
                        0.12495552748441696,
                        0.23850108683109283,
                        0.42661330103874207,
                        -0.045749370008707047,
                        -0.07640809565782547,
                        0.13065092265605927,
                        0.10922829061746597,
                        -0.09971875697374344,
                        -0.09354092925786972,
                        -0.06444785743951797,
                        -0.13110744953155518,
                        0.12269043922424316,
                        -0.21269068121910095,
                        -0.1840696632862091,
                        -0.6086577773094177,
                        0.03981567919254303,
                        0.10156089812517166,
                        0.29041123390197754,
                        -0.11476945132017136,
                        -0.23481352627277374,
                        -0.3809632956981659,
                        0.08244536072015762,
                        0.25401559472084045,
                        0.01712525635957718,
                        -0.9259973764419556,
                        -0.34976494312286377,
                        -0.21295759081840515,
                        0.26512235403060913,
                        -0.01582198217511177,
                        -0.24526166915893555,
                        0.1315961480140686,
                        -0.17280174791812897,
                        -0.1512971967458725,
                        0.03219372779130936,
                        -0.6663669347763062,
                        -0.10878396034240723,
                        -0.2979041635990143,
                        -0.07579641789197922,
                        -0.18122221529483795
                    ],
                    [
                        -0.36502423882484436,
                        -0.4802801311016083,
                        -0.13826030492782593,
                        -0.4081425368785858,
                        -0.49030378460884094,
                        -0.19941078126430511,
                        -0.06874465942382812,
                        -1.014255166053772,
                        -0.0406666062772274,
                        -0.006350658368319273,
                        -2.1236743927001953,
                        0.10874046385288239,
                        -0.2694658637046814,
                        -1.1409446001052856,
                        -0.07281537353992462,
                        0.25439608097076416,
                        -0.12236367166042328,
                        -0.6145497560501099,
                        -0.15034426748752594,
                        0.09761317819356918,
                        0.09066940099000931,
                        -0.27836206555366516,
                        -0.08470314741134644,
                        -0.2397083193063736,
                        -0.01734871231019497,
                        0.028066687285900116,
                        0.08266346901655197,
                        -0.44475704431533813,
                        -0.15630550682544708,
                        0.20561900734901428,
                        0.03577730432152748,
                        -0.011438904330134392,
                        -0.028188588097691536,
                        0.05599900707602501,
                        -0.011830674484372139,
                        0.06892417371273041,
                        0.06622863560914993,
                        -0.1427353173494339,
                        -0.12332049757242203,
                        0.12326045334339142,
                        0.014147900976240635,
                        -0.04651418700814247,
                        -0.2568354606628418,
                        -0.15464721620082855,
                        0.13144820928573608,
                        0.4210589826107025,
                        -0.13228227198123932,
                        -0.09443417191505432,
                        -0.019061049446463585,
                        0.15650534629821777,
                        -0.01075848937034607,
                        -0.09077932685613632,
                        0.19890274107456207,
                        -0.11240555346012115,
                        -0.03644013777375221,
                        0.125260591506958,
                        0.12459049373865128,
                        0.007324632257223129,
                        0.15207462012767792,
                        0.19753876328468323,
                        -0.13204191625118256,
                        0.18195174634456635,
                        -0.14075516164302826,
                        -0.07699689269065857,
                        -0.0007168228039517999,
                        0.024612486362457275,
                        -0.06542316824197769,
                        -0.2852012515068054,
                        0.2386569380760193,
                        0.06460566073656082,
                        -0.15601885318756104,
                        -0.2869149148464203,
                        -0.08208376914262772,
                        0.08012919127941132,
                        -0.4459238648414612,
                        -0.04567783698439598,
                        0.048834700137376785,
                        -0.3431568741798401,
                        0.09007297456264496,
                        -0.0635356605052948,
                        0.08129364997148514,
                        -0.2801797688007355,
                        -0.12817344069480896,
                        -0.09656482934951782,
                        -0.06477540731430054,
                        -0.05363163724541664,
                        -0.009687247686088085,
                        0.1526949405670166,
                        0.004384968429803848,
                        0.14723436534404755,
                        0.029806120321154594,
                        -0.11630882322788239,
                        -0.00465900544077158,
                        -0.06701180338859558,
                        0.05052885040640831,
                        0.12019287794828415,
                        -0.4355996549129486,
                        -0.26680928468704224,
                        0.015151037834584713,
                        -0.3707074522972107,
                        -0.2222224771976471,
                        0.07641763240098953,
                        0.0783236175775528,
                        -0.6951661705970764,
                        0.048887576907873154,
                        0.09842132031917572,
                        -1.0129355192184448,
                        -0.04258608818054199,
                        -0.6400107145309448,
                        -0.7348268628120422,
                        -0.06634622812271118,
                        0.10967893153429031,
                        0.03672298416495323,
                        -1.0325524806976318,
                        -0.3061699867248535,
                        -0.12269662320613861,
                        0.022436613216996193,
                        -0.26278573274612427,
                        -0.08173490315675735,
                        -0.12681376934051514,
                        -0.1772371381521225,
                        -0.32026898860931396,
                        -0.020123593509197235,
                        -0.2642832100391388,
                        -0.08133940398693085,
                        -0.000560171261895448,
                        -0.22327373921871185,
                        -0.036147717386484146
                    ],
                    [
                        0.44435083866119385,
                        0.0927741602063179,
                        -0.05127580836415291,
                        0.43075624108314514,
                        0.3384331166744232,
                        0.1227155551314354,
                        -0.009647849015891552,
                        0.48202449083328247,
                        -0.08595849573612213,
                        -0.024206943809986115,
                        0.2996350824832916,
                        0.02333221770823002,
                        0.5387699604034424,
                        0.998580276966095,
                        0.15889666974544525,
                        0.12929920852184296,
                        0.1672305315732956,
                        0.9802468419075012,
                        0.1481499820947647,
                        0.14765214920043945,
                        0.2616722285747528,
                        0.14619240164756775,
                        -0.129386767745018,
                        0.29880934953689575,
                        -0.030504046007990837,
                        0.06823958456516266,
                        -0.09167351573705673,
                        0.5519276261329651,
                        0.01896626688539982,
                        0.13768325746059418,
                        -0.10787279903888702,
                        -0.1383000761270523,
                        -0.0018305513076484203,
                        0.03432851657271385,
                        0.05077333748340607,
                        -0.20767538249492645,
                        -0.06268294155597687,
                        -0.024171415716409683,
                        0.19445766508579254,
                        -0.4430343806743622,
                        0.04612689092755318,
                        -0.02841850183904171,
                        -0.14371249079704285,
                        0.07576324045658112,
                        -0.24146537482738495,
                        0.008115681819617748,
                        0.15641522407531738,
                        0.09825512021780014,
                        0.15877585113048553,
                        -0.15870077908039093,
                        0.05503189563751221,
                        -0.006782201584428549,
                        -0.011215655133128166,
                        -0.10932975262403488,
                        0.004964099265635014,
                        0.062127549201250076,
                        0.048584915697574615,
                        0.18397383391857147,
                        0.06664340198040009,
                        -0.10829021036624908,
                        0.048596180975437164,
                        0.004682738799601793,
                        -0.0037574484013020992,
                        0.11369892209768295,
                        -0.002892372664064169,
                        -0.1504361778497696,
                        -0.03593195229768753,
                        0.0808316096663475,
                        0.15525692701339722,
                        0.1403607428073883,
                        0.03340509906411171,
                        0.052800193428993225,
                        0.016909703612327576,
                        0.10743902623653412,
                        0.03246193379163742,
                        -0.04022299125790596,
                        -0.1605169028043747,
                        0.04853791370987892,
                        -0.0032694865949451923,
                        0.08346663415431976,
                        -0.06599714607000351,
                        0.0663442313671112,
                        -0.11811230331659317,
                        0.13295477628707886,
                        0.06237996742129326,
                        -0.175240159034729,
                        0.05530824512243271,
                        -0.014097249135375023,
                        0.16234664618968964,
                        -0.02274135686457157,
                        -0.16396324336528778,
                        -0.07661247253417969,
                        -0.04103684425354004,
                        -0.03794063255190849,
                        0.01049639843404293,
                        0.0009992863051593304,
                        0.2030777484178543,
                        -0.04583781212568283,
                        -0.05507608503103256,
                        0.5824189782142639,
                        0.6173086762428284,
                        0.3516765236854553,
                        0.25977927446365356,
                        0.6637447476387024,
                        0.03166996315121651,
                        0.12382102757692337,
                        0.5060005187988281,
                        0.12734484672546387,
                        0.5229777097702026,
                        0.8597232699394226,
                        0.025485236197710037,
                        -0.005419184919446707,
                        0.13456489145755768,
                        0.7368342280387878,
                        0.31075724959373474,
                        0.2522001266479492,
                        0.05573098361492157,
                        0.04664770886301994,
                        -0.2600444555282593,
                        0.24713173508644104,
                        0.10744955390691757,
                        0.18279463052749634,
                        -0.11385797709226608,
                        0.3654083013534546,
                        0.1511836051940918,
                        -0.054322749376297,
                        0.1793079972267151,
                        0.00655507855117321
                    ],
                    [
                        -0.5625559687614441,
                        -0.29470425844192505,
                        -0.08680661022663116,
                        -0.5338951945304871,
                        -0.3913303017616272,
                        0.03731175884604454,
                        0.10823102295398712,
                        -0.49696287512779236,
                        -0.15734094381332397,
                        0.03850822150707245,
                        -1.1979433298110962,
                        0.07748495787382126,
                        -0.3257828950881958,
                        -0.8428234457969666,
                        -0.3096485137939453,
                        -0.10650766640901566,
                        0.1046036034822464,
                        -1.0096843242645264,
                        -0.02645767107605934,
                        -0.043032970279455185,
                        0.09261520206928253,
                        -0.21222931146621704,
                        0.32987281680107117,
                        -0.06925547122955322,
                        0.07221469283103943,
                        -0.042425915598869324,
                        -0.059379592537879944,
                        -0.09419502317905426,
                        0.1085197702050209,
                        0.18406912684440613,
                        0.25259479880332947,
                        0.0180962011218071,
                        -0.1657167226076126,
                        -0.060220953077077866,
                        0.015378313139081001,
                        -0.2380472719669342,
                        0.13035719096660614,
                        0.058036502450704575,
                        -0.053692515939474106,
                        0.327822744846344,
                        0.025302423164248466,
                        0.1532973200082779,
                        0.045523080974817276,
                        0.12540562450885773,
                        0.19573082029819489,
                        0.03201408311724663,
                        -0.08273261040449142,
                        -0.07723528146743774,
                        -0.039588797837495804,
                        -0.1641296148300171,
                        0.005996408872306347,
                        0.2545744478702545,
                        0.36051109433174133,
                        -0.09098120033740997,
                        0.1517632156610489,
                        -0.09903324395418167,
                        0.06429596990346909,
                        0.0790727436542511,
                        -0.06040991097688675,
                        0.15839645266532898,
                        0.09743607044219971,
                        0.2585904002189636,
                        0.47293758392333984,
                        -0.17366614937782288,
                        -0.03697934374213219,
                        0.03318021818995476,
                        0.08027742058038712,
                        0.241059347987175,
                        -0.07530330121517181,
                        0.13500338792800903,
                        -0.0686291977763176,
                        -0.5298773050308228,
                        -0.05964818596839905,
                        -0.046291593462228775,
                        0.3393333852291107,
                        -0.11505985260009766,
                        -0.01233598217368126,
                        0.06306690722703934,
                        0.1013614609837532,
                        0.036665987223386765,
                        0.21962033212184906,
                        0.15664969384670258,
                        -0.2972061336040497,
                        0.03919457644224167,
                        -0.008921855129301548,
                        -0.11025829613208771,
                        0.09202094376087189,
                        -0.03708851709961891,
                        -0.07918704301118851,
                        0.017659762874245644,
                        0.04815928265452385,
                        -0.1764851212501526,
                        0.0028105955570936203,
                        0.022453410550951958,
                        0.022722618654370308,
                        -0.1087031289935112,
                        -0.8078418970108032,
                        -0.22790798544883728,
                        -0.08899573981761932,
                        -0.8658243417739868,
                        -0.2906642258167267,
                        0.0712931826710701,
                        0.15407522022724152,
                        -0.6179256439208984,
                        0.0173408892005682,
                        0.06367091834545135,
                        -0.5647825002670288,
                        0.21364383399486542,
                        -0.23767820000648499,
                        -0.41944262385368347,
                        -0.20184490084648132,
                        0.0735335722565651,
                        -0.0518324077129364,
                        -0.809002697467804,
                        0.08841334283351898,
                        -0.1404174566268921,
                        0.2944566309452057,
                        -0.3686210811138153,
                        0.019590692594647408,
                        -0.2957060635089874,
                        -0.012621279805898666,
                        -0.10359860211610794,
                        -0.2297714650630951,
                        -0.018640676513314247,
                        0.0703900158405304,
                        0.16009820997714996,
                        0.5228355526924133,
                        0.060686979442834854
                    ],
                    [
                        0.4937930703163147,
                        -0.06472808122634888,
                        -0.08586561679840088,
                        -0.2979186177253723,
                        0.3630140721797943,
                        0.15772511065006256,
                        0.00032107054721564054,
                        -0.5738022923469543,
                        0.12953175604343414,
                        0.0866655707359314,
                        2.0755066871643066,
                        -0.0679747462272644,
                        0.5512070655822754,
                        0.3131757080554962,
                        0.07159360498189926,
                        0.032572995871305466,
                        0.054940588772296906,
                        1.2441819906234741,
                        0.21073342859745026,
                        0.278855562210083,
                        -0.059295665472745895,
                        0.36254313588142395,
                        0.12001989781856537,
                        0.12001150846481323,
                        -0.033259619027376175,
                        0.491597056388855,
                        -0.0663776621222496,
                        -0.5437067151069641,
                        0.13820785284042358,
                        0.13215309381484985,
                        -0.0011557177640497684,
                        0.046731919050216675,
                        -0.074751116335392,
                        0.002841030480340123,
                        0.034157563000917435,
                        -0.14961294829845428,
                        0.07752421498298645,
                        0.18311786651611328,
                        0.17780207097530365,
                        -0.43101710081100464,
                        0.13408882915973663,
                        -0.030016111209988594,
                        0.2551623582839966,
                        -0.050581593066453934,
                        0.01900825835764408,
                        -0.28317880630493164,
                        -0.04886108264327049,
                        -0.03990992158651352,
                        0.06924135237932205,
                        -0.03801640868186951,
                        0.03682853654026985,
                        -0.09392795711755753,
                        -0.24726039171218872,
                        -0.33570945262908936,
                        0.005081101320683956,
                        0.059700652956962585,
                        0.02793429233133793,
                        0.1435493528842926,
                        -0.01236884854733944,
                        -0.5453391671180725,
                        0.1813172847032547,
                        -0.01523253507912159,
                        -0.13883697986602783,
                        -0.14128565788269043,
                        0.0950697660446167,
                        0.07990152388811111,
                        0.18782484531402588,
                        0.17459405958652496,
                        -0.26180756092071533,
                        -0.14310306310653687,
                        0.0670032724738121,
                        0.45636045932769775,
                        0.133653461933136,
                        -0.09366999566555023,
                        0.5621429681777954,
                        -0.011874942108988762,
                        0.04090099781751633,
                        0.24342896044254303,
                        -0.032913871109485626,
                        -0.12660181522369385,
                        -0.06050002947449684,
                        0.1432236284017563,
                        0.012001050636172295,
                        -0.0011740563204512,
                        0.018451495096087456,
                        -0.001858198782429099,
                        0.1364099085330963,
                        -0.20790188014507294,
                        0.05414733663201332,
                        -0.04534561559557915,
                        0.006858437322080135,
                        0.25149330496788025,
                        0.04331927374005318,
                        0.06414022296667099,
                        -0.037932489067316055,
                        -0.008426137268543243,
                        0.29168379306793213,
                        -0.10396059602499008,
                        0.0186281967908144,
                        0.34731143712997437,
                        0.40820273756980896,
                        0.3653315603733063,
                        0.5676367282867432,
                        0.015626119449734688,
                        0.019771045073866844,
                        0.07948403060436249,
                        1.6573195457458496,
                        0.007834098301827908,
                        0.8741395473480225,
                        -0.1061297282576561,
                        -0.04815669357776642,
                        -0.20075549185276031,
                        0.07303022593259811,
                        0.5322648882865906,
                        0.3580191731452942,
                        -0.003130863653495908,
                        0.014493322931230068,
                        0.29138702154159546,
                        0.11363288015127182,
                        0.22446730732917786,
                        -0.006813020911067724,
                        0.4223051965236664,
                        0.15827730298042297,
                        0.19522486627101898,
                        -0.004166027065366507,
                        0.08792037516832352,
                        0.11298446357250214,
                        -0.0008434757473878562
                    ],
                    [
                        -0.23365193605422974,
                        0.2548854649066925,
                        -0.14244325459003448,
                        0.3145886957645416,
                        -0.3751421272754669,
                        0.12807196378707886,
                        0.14714819192886353,
                        0.2299032062292099,
                        -0.11961395293474197,
                        0.2639382481575012,
                        -0.887970507144928,
                        -0.005496957805007696,
                        -0.26747336983680725,
                        -1.310058832168579,
                        -0.010319341905415058,
                        0.058601438999176025,
                        -0.07353062927722931,
                        -0.7619172930717468,
                        -0.3356727659702301,
                        0.26662999391555786,
                        0.03782095015048981,
                        -0.05637222155928612,
                        0.22269369661808014,
                        0.04358820244669914,
                        0.1329614818096161,
                        0.1175849512219429,
                        0.09948307275772095,
                        -0.7321439385414124,
                        -0.052889298647642136,
                        0.12275052815675735,
                        0.007768439594656229,
                        0.07742095738649368,
                        0.16233959794044495,
                        0.0955919623374939,
                        0.13518793880939484,
                        -0.03143252059817314,
                        0.10055043548345566,
                        -0.02716054394841194,
                        0.018049141392111778,
                        0.2747744917869568,
                        -0.08489911258220673,
                        -0.06400279700756073,
                        -0.1142871230840683,
                        -0.06795130670070648,
                        0.20264151692390442,
                        0.7580310106277466,
                        -0.032651349902153015,
                        -0.08682406693696976,
                        0.006682463921606541,
                        0.34845903515815735,
                        -0.26114824414253235,
                        0.03050745651125908,
                        -0.08875751495361328,
                        0.00804577674716711,
                        0.09065712243318558,
                        0.06184373050928116,
                        0.06619473546743393,
                        0.040692027658224106,
                        -0.22760829329490662,
                        0.19275644421577454,
                        0.08841642737388611,
                        -0.084798164665699,
                        -0.18559376895427704,
                        -0.018854910507798195,
                        0.11059007048606873,
                        0.07507026940584183,
                        -0.09285077452659607,
                        -0.38480639457702637,
                        0.23536069691181183,
                        -0.013376855291426182,
                        -0.05868905037641525,
                        0.13867242634296417,
                        0.07750856131315231,
                        0.034787729382514954,
                        -0.572462260723114,
                        0.1051010861992836,
                        -0.1342494636774063,
                        -0.1306120902299881,
                        -0.12313805520534515,
                        0.08480728417634964,
                        0.22177590429782867,
                        -0.4006476104259491,
                        0.15765784680843353,
                        -0.1031377762556076,
                        0.038378119468688965,
                        0.08656687289476395,
                        -0.18103934824466705,
                        0.19493094086647034,
                        0.004808032885193825,
                        0.044372159987688065,
                        -0.18119758367538452,
                        -0.09688851237297058,
                        -0.08147955685853958,
                        0.05375446379184723,
                        0.2552528977394104,
                        0.06105434522032738,
                        -0.1811486929655075,
                        0.06951386481523514,
                        -0.08459652215242386,
                        0.08814911544322968,
                        -0.21324822306632996,
                        -0.10840418189764023,
                        0.016957715153694153,
                        -0.26658663153648376,
                        -0.09873128682374954,
                        -0.14432159066200256,
                        -0.7359747886657715,
                        -0.10947050154209137,
                        -0.3208523094654083,
                        -0.9222531318664551,
                        -0.008447997272014618,
                        -0.15990214049816132,
                        -0.09236637502908707,
                        -0.7805796265602112,
                        -0.248731791973114,
                        -0.15641506016254425,
                        -0.18913137912750244,
                        -0.06353992968797684,
                        0.08169204741716385,
                        -0.11198190599679947,
                        0.1942676156759262,
                        -0.2992931306362152,
                        0.008969978429377079,
                        -0.2216832935810089,
                        0.10069723427295685,
                        0.14074625074863434,
                        -0.11502552777528763,
                        -0.11130022257566452
                    ],
                    [
                        1.0573192834854126,
                        0.31893861293792725,
                        -0.08165501803159714,
                        0.280890554189682,
                        0.24882623553276062,
                        0.18142472207546234,
                        -0.0596500039100647,
                        0.3470613360404968,
                        -0.048552535474300385,
                        -0.4530901312828064,
                        2.190277338027954,
                        -0.04619763419032097,
                        0.25367268919944763,
                        0.7382937669754028,
                        0.0829092487692833,
                        0.011778838001191616,
                        0.11058968305587769,
                        1.9858266115188599,
                        0.29297950863838196,
                        0.17783012986183167,
                        -0.4522577226161957,
                        0.14696425199508667,
                        0.2010553777217865,
                        -0.039502475410699844,
                        0.22231343388557434,
                        -0.1422414928674698,
                        -0.1588359773159027,
                        -0.1824272722005844,
                        0.23207205533981323,
                        0.14981964230537415,
                        0.29024738073349,
                        -0.01228352915495634,
                        0.2957833707332611,
                        0.20848867297172546,
                        -0.024514948949217796,
                        -0.1410703957080841,
                        -0.09788554161787033,
                        0.1672936975955963,
                        0.1516261100769043,
                        -0.0545644573867321,
                        -0.19098930060863495,
                        -0.33653098344802856,
                        0.26100876927375793,
                        0.26843079924583435,
                        -0.02068503573536873,
                        0.29133763909339905,
                        0.06208137050271034,
                        -0.08152523636817932,
                        0.013104589655995369,
                        0.41574957966804504,
                        0.3602806031703949,
                        0.14458067715168,
                        -0.461005836725235,
                        -0.20791363716125488,
                        0.0381491594016552,
                        0.021145498380064964,
                        0.1892976611852646,
                        -0.029735326766967773,
                        0.01816822774708271,
                        -0.18924249708652496,
                        -0.041357968002557755,
                        0.3400910496711731,
                        0.15472868084907532,
                        0.23789064586162567,
                        -0.07769474387168884,
                        -0.023939264938235283,
                        0.13166755437850952,
                        -0.05552981421351433,
                        -0.06370420753955841,
                        -0.08930689096450806,
                        -0.06000123918056488,
                        0.6769140362739563,
                        -0.01973985880613327,
                        -0.15719719231128693,
                        0.41330087184906006,
                        0.1498754620552063,
                        -0.2537092864513397,
                        0.2123282551765442,
                        -0.08988358825445175,
                        -0.044692862778902054,
                        -0.006760789547115564,
                        -0.09374570101499557,
                        0.13545098900794983,
                        0.08318530768156052,
                        0.16296668350696564,
                        0.19695426523685455,
                        0.01471756398677826,
                        -0.09501434117555618,
                        -0.12256493419408798,
                        -0.059444744139909744,
                        -0.04391375184059143,
                        0.281019926071167,
                        -0.0695076435804367,
                        -0.016483338549733162,
                        -0.02153046242892742,
                        -0.11638442426919937,
                        1.4568082094192505,
                        0.366651326417923,
                        -0.18262743949890137,
                        0.39203277230262756,
                        -0.043975576758384705,
                        0.21553295850753784,
                        -0.09808431565761566,
                        0.4346453845500946,
                        -0.33482226729393005,
                        -0.3152101933956146,
                        0.06464928388595581,
                        0.14881181716918945,
                        0.37309297919273376,
                        0.34840717911720276,
                        0.17780503630638123,
                        -0.08288943022489548,
                        0.27486369013786316,
                        1.0891437530517578,
                        0.8312532901763916,
                        0.3072153925895691,
                        -0.547493577003479,
                        -0.06884770840406418,
                        0.07953855395317078,
                        -0.038934823125600815,
                        0.3212316334247589,
                        0.055980972945690155,
                        -0.23663300275802612,
                        0.0092755863443017,
                        0.08210302889347076,
                        0.25297078490257263,
                        0.30390024185180664,
                        0.3420669734477997
                    ],
                    [
                        -0.1876668930053711,
                        -0.17500080168247223,
                        0.10784228146076202,
                        -0.331484854221344,
                        -0.23012399673461914,
                        -0.43671101331710815,
                        0.15590035915374756,
                        -2.8865208625793457,
                        -0.07005606591701508,
                        -0.054665688425302505,
                        -0.007049171719700098,
                        -0.01811184175312519,
                        -0.15602070093154907,
                        -0.45036277174949646,
                        0.11097796261310577,
                        0.03637228161096573,
                        0.1652001440525055,
                        -0.9511352777481079,
                        -0.3883868455886841,
                        -0.16038352251052856,
                        -0.08860182017087936,
                        -0.053957682102918625,
                        -0.13805361092090607,
                        -0.1183212548494339,
                        -0.1113133653998375,
                        -0.017544345930218697,
                        0.10593895614147186,
                        -0.9963673949241638,
                        -0.10668829083442688,
                        0.10401925444602966,
                        0.370351105928421,
                        0.01677566207945347,
                        -0.03677767515182495,
                        -0.07360920310020447,
                        -0.1977720856666565,
                        0.20961885154247284,
                        0.02268540859222412,
                        0.004776034038513899,
                        0.11434123665094376,
                        -0.31900593638420105,
                        -0.08347196131944656,
                        -0.021486591547727585,
                        0.0464407354593277,
                        -0.0941551998257637,
                        0.03121320530772209,
                        0.3924841582775116,
                        0.11781606823205948,
                        0.08083554357290268,
                        0.01108142826706171,
                        0.1893603801727295,
                        -0.02175835333764553,
                        -0.15300090610980988,
                        -0.00460402574390173,
                        0.16258816421031952,
                        -0.11429722607135773,
                        -0.12898029386997223,
                        -0.1182401031255722,
                        -0.08185647428035736,
                        0.05327550694346428,
                        -0.3296116590499878,
                        -0.08499807119369507,
                        0.06596338748931885,
                        0.11808786541223526,
                        -0.06108570098876953,
                        -0.2540002167224884,
                        -0.32710739970207214,
                        -0.07120093703269958,
                        -0.10415645688772202,
                        0.10896748304367065,
                        -0.11099977046251297,
                        0.0002423835830995813,
                        0.9377570748329163,
                        -0.07918582111597061,
                        0.013776116073131561,
                        -0.16327862441539764,
                        0.14000938832759857,
                        -0.5297889113426208,
                        -0.5022843480110168,
                        0.023394249379634857,
                        -0.08729173243045807,
                        -0.12089689821004868,
                        -0.28127560019493103,
                        0.10620537400245667,
                        -0.22767511010169983,
                        -0.0030282537918537855,
                        0.20364053547382355,
                        -0.15984082221984863,
                        0.08852282911539078,
                        -0.05879336595535278,
                        0.01784016564488411,
                        0.13095641136169434,
                        0.6815690994262695,
                        -0.17477725446224213,
                        0.1387047916650772,
                        -0.05515620857477188,
                        0.013545943424105644,
                        0.11132051795721054,
                        -0.3329690396785736,
                        -0.06172399967908859,
                        -0.334781289100647,
                        -0.2861698567867279,
                        -0.15944993495941162,
                        0.2221304327249527,
                        -1.867505669593811,
                        0.1326221525669098,
                        -0.04094276949763298,
                        -1.0866426229476929,
                        -0.14609868824481964,
                        -0.46345651149749756,
                        -0.4601941704750061,
                        0.031819626688957214,
                        -0.1785435825586319,
                        0.15464702248573303,
                        -1.1268415451049805,
                        -0.22789886593818665,
                        -0.21127578616142273,
                        0.14617273211479187,
                        0.3787984848022461,
                        -0.22063058614730835,
                        -0.03261468559503555,
                        -0.19408045709133148,
                        -0.16299313306808472,
                        -0.04509562626481056,
                        -1.1108399629592896,
                        0.09525959193706512,
                        0.4032401144504547,
                        0.15125977993011475,
                        -0.06143045052886009
                    ],
                    [
                        -0.3235269784927368,
                        0.027142083272337914,
                        0.014721773564815521,
                        -0.36135414242744446,
                        -0.31130850315093994,
                        -0.1606253683567047,
                        0.1020560935139656,
                        -0.7062795758247375,
                        0.08932145684957504,
                        -0.09398619085550308,
                        0.35200750827789307,
                        -0.036003243178129196,
                        -0.23987917602062225,
                        -0.7983154654502869,
                        -0.09363448619842529,
                        -0.0031122255604714155,
                        0.007314959075301886,
                        -0.5939344167709351,
                        -0.1313665509223938,
                        0.008429094217717648,
                        0.014012979343533516,
                        -0.16195771098136902,
                        0.12275415658950806,
                        -0.3526633381843567,
                        -0.041817132383584976,
                        -0.16633246839046478,
                        -0.19618573784828186,
                        -0.15508060157299042,
                        0.08117082715034485,
                        -0.0036938609555363655,
                        0.06827177107334137,
                        0.12400361150503159,
                        -0.029950136318802834,
                        0.10418920964002609,
                        0.023880787193775177,
                        0.08581501245498657,
                        0.07202742993831635,
                        -0.3036347031593323,
                        0.010319576598703861,
                        0.12268398702144623,
                        -0.16212598979473114,
                        -0.019483866170048714,
                        0.2552504241466522,
                        0.07430282235145569,
                        0.051267948001623154,
                        -0.08010160177946091,
                        -0.1332131326198578,
                        -0.19402039051055908,
                        0.042700689285993576,
                        -0.3460448384284973,
                        -0.0959266945719719,
                        0.1029883474111557,
                        0.03965684771537781,
                        0.067202128469944,
                        0.3483559787273407,
                        -0.06414652615785599,
                        -0.1635085493326187,
                        0.07562553137540817,
                        0.006662121042609215,
                        0.08867481350898743,
                        -0.12472034990787506,
                        0.02070673555135727,
                        0.14066866040229797,
                        -0.0958867222070694,
                        0.025824734941124916,
                        0.014793123118579388,
                        0.08449070900678635,
                        0.1608414649963379,
                        -0.37849369645118713,
                        0.07531186193227768,
                        -0.10170324146747589,
                        -0.21888230741024017,
                        -0.029857372865080833,
                        -0.022850139066576958,
                        0.13352593779563904,
                        -0.003125837305560708,
                        0.22202929854393005,
                        0.24317243695259094,
                        -0.020529303699731827,
                        -0.13303498923778534,
                        0.031362149864435196,
                        0.05222047492861748,
                        -0.08094443380832672,
                        0.10360489785671234,
                        0.1223827376961708,
                        -0.04865656793117523,
                        0.10491343587636948,
                        -0.22235465049743652,
                        0.0028291847556829453,
                        -0.16719703376293182,
                        0.0843808501958847,
                        -0.14520342648029327,
                        0.27610161900520325,
                        0.1135876253247261,
                        -0.016280245035886765,
                        -0.10137207061052322,
                        -0.2995572090148926,
                        -0.23477815091609955,
                        -0.17198938131332397,
                        -0.4967605173587799,
                        -0.27367156744003296,
                        -0.12828581035137177,
                        0.1346920132637024,
                        -0.4445849657058716,
                        -0.1264992505311966,
                        -0.11838046461343765,
                        -0.033433057367801666,
                        -0.24173812568187714,
                        -0.23575572669506073,
                        -0.3031492233276367,
                        0.01873714104294777,
                        0.03031483106315136,
                        -0.04070020839571953,
                        0.23767606914043427,
                        -0.087248295545578,
                        0.001897352747619152,
                        -0.1389298439025879,
                        -0.10669504851102829,
                        0.4966030418872833,
                        -0.12957097589969635,
                        0.04731336981058121,
                        -0.055608730763196945,
                        -0.00842734333127737,
                        0.13331857323646545,
                        0.00753785902634263,
                        0.21852925419807434,
                        -0.04510636627674103,
                        0.040341004729270935
                    ],
                    [
                        0.30057215690612793,
                        0.24525316059589386,
                        0.0037440580781549215,
                        0.37284260988235474,
                        0.1283043622970581,
                        -0.1504916101694107,
                        0.02118835225701332,
                        0.33362993597984314,
                        -0.009051315486431122,
                        -0.206075057387352,
                        0.09984816610813141,
                        0.040549762547016144,
                        0.18341191112995148,
                        0.6213196516036987,
                        0.3073374330997467,
                        0.08424495905637741,
                        0.08327946811914444,
                        -0.28335124254226685,
                        0.2567080855369568,
                        -0.005159752443432808,
                        0.04581667482852936,
                        0.2253894954919815,
                        -0.249966561794281,
                        0.2653945982456207,
                        0.1612602174282074,
                        0.07825522124767303,
                        -0.0035207115579396486,
                        0.21083761751651764,
                        0.02804652228951454,
                        -0.060864441096782684,
                        -0.02429736964404583,
                        0.14430737495422363,
                        0.03747585043311119,
                        -0.24291133880615234,
                        0.08843627572059631,
                        -0.05730253830552101,
                        0.034575894474983215,
                        0.23973588645458221,
                        0.1216263547539711,
                        0.054704874753952026,
                        -0.13329482078552246,
                        0.05441556125879288,
                        0.033569298684597015,
                        0.07046643644571304,
                        0.2651793360710144,
                        -0.06320036947727203,
                        0.16078729927539825,
                        -0.05936677008867264,
                        0.09528416395187378,
                        0.13013021647930145,
                        0.028141440823674202,
                        -0.07001859694719315,
                        0.06306561827659607,
                        0.00936123076826334,
                        -0.36310723423957825,
                        0.06196986138820648,
                        0.08505486696958542,
                        -0.042797647416591644,
                        -0.08154497295618057,
                        -0.26934072375297546,
                        0.05546528473496437,
                        0.05558942258358002,
                        0.04099619761109352,
                        0.13817524909973145,
                        0.02669767662882805,
                        0.00662891985848546,
                        -0.0493873693048954,
                        0.008481492288410664,
                        0.05124339088797569,
                        0.13787899911403656,
                        -0.04129209741950035,
                        -0.15304167568683624,
                        0.2121051698923111,
                        -0.035951703786849976,
                        0.1363169550895691,
                        -0.04953242838382721,
                        -0.00998599547892809,
                        -0.09092945605516434,
                        -0.07616347074508667,
                        0.18219202756881714,
                        -0.09916801005601883,
                        -0.048894450068473816,
                        -0.07150325179100037,
                        0.06866838783025742,
                        -0.27677690982818604,
                        0.09989970177412033,
                        -0.09555870294570923,
                        -0.10779766738414764,
                        -0.13766539096832275,
                        0.08229409158229828,
                        -0.03570747748017311,
                        -0.128463476896286,
                        -0.08183908462524414,
                        0.10644159466028214,
                        0.06604619324207306,
                        0.16523723304271698,
                        0.12384368479251862,
                        0.01659146510064602,
                        -0.012092147022485733,
                        0.2797134816646576,
                        0.3187848925590515,
                        0.13061752915382385,
                        -0.028393810614943504,
                        0.26132047176361084,
                        -0.041142795234918594,
                        0.16927769780158997,
                        0.4916938841342926,
                        0.11145190894603729,
                        0.37712687253952026,
                        0.20654499530792236,
                        0.07891188561916351,
                        0.11253724992275238,
                        0.1614331156015396,
                        0.16632796823978424,
                        0.1200031042098999,
                        0.07334166765213013,
                        0.11819861084222794,
                        0.18298432230949402,
                        -0.23195253312587738,
                        0.13386592268943787,
                        -0.09855137765407562,
                        0.08935775607824326,
                        0.030385829508304596,
                        0.20480597019195557,
                        0.08003081381320953,
                        -0.07747294008731842,
                        -0.029476072639226913,
                        -0.09562289714813232
                    ],
                    [
                        -0.4570501446723938,
                        -0.07846362143754959,
                        -0.1988856941461563,
                        -0.2674214243888855,
                        -0.40589919686317444,
