{
    "in_shape": [
        null,
        null,
        1
    ],
    "layers": [
        {
            "type": "gru",
            "activation": "tanh",
            "shape": [
                null,
                null,
                64
            ],
            "weights": [
                [
                    [
                        0.1829206794500351,
                        0.19628742337226868,
                        -0.09208501875400543,
                        -0.09017385542392731,
                        -0.6568104028701782,
                        -0.6199245452880859,
                        0.20929928123950958,
                        -0.11691536009311676,
                        -1.6950197219848633,
                        -0.1059979498386383,
                        1.2306817770004272,
                        -0.5850208401679993,
                        0.1090378612279892,
                        1.936827540397644,
                        -0.5534912943840027,
                        -0.501204788684845,
                        0.14303342998027802,
                        0.19771219789981842,
                        0.7890692949295044,
                        0.07480217516422272,
                        0.15270225703716278,
                        -0.008906298317015171,
                        -0.7586813569068909,
                        -1.4051706790924072,
                        0.05936029553413391,
                        -1.1355023384094238,
                        0.16068893671035767,
                        0.13219839334487915,
                        0.18330831825733185,
                        0.33261433243751526,
                        -0.24256189167499542,
                        0.1876697689294815,
                        -0.783981204032898,
                        0.009366493672132492,
                        -0.34635183215141296,
                        -0.38172370195388794,
                        0.47993263602256775,
                        -0.4775324761867523,
                        -0.0259193517267704,
                        0.36904627084732056,
                        -0.8211432695388794,
                        1.2309528589248657,
                        0.0801120176911354,
                        0.2669697403907776,
                        0.44193902611732483,
                        -0.2850710153579712,
                        -0.10836423188447952,
                        -0.21726180613040924,
                        -0.9241828322410583,
                        0.5507118701934814,
                        -0.14812971651554108,
                        -1.2889233827590942,
                        0.21118806302547455,
                        0.12420648336410522,
                        -0.21758335828781128,
                        -0.17157475650310516,
                        0.10775258392095566,
                        -0.1345035284757614,
                        0.13709191977977753,
                        -0.941051185131073,
                        0.059775274246931076,
                        -0.7624667286872864,
                        -0.11035370826721191,
                        -0.027236152440309525,
                        -0.12489587813615799,
                        0.03195850923657417,
                        0.10848657786846161,
                        -0.21991658210754395,
                        0.07842147350311279,
                        0.584815502166748,
                        -0.1434478759765625,
                        -0.3461194336414337,
                        -0.9314586520195007,
                        -0.09217678755521774,
                        2.4268243312835693,
                        0.010488182306289673,
                        0.25971633195877075,
                        0.754390299320221,
                        -0.806056022644043,
                        0.23658274114131927,
                        0.09598404914140701,
                        0.13564015924930573,
                        0.7090635299682617,
                        0.055416036397218704,
                        -0.0924636647105217,
                        0.3979259729385376,
                        -0.426113098859787,
                        -0.37172794342041016,
                        -0.051945481449365616,
                        0.7725738286972046,
                        -0.01173036266118288,
                        -0.03563586622476578,
                        -0.17724870145320892,
                        0.32843655347824097,
                        -0.038237933069467545,
                        0.5227799415588379,
                        -0.21404343843460083,
                        -0.12456102669239044,
                        0.49466830492019653,
                        0.18360018730163574,
                        1.1991461515426636,
                        -0.44006282091140747,
                        0.07254213839769363,
                        -0.005736134015023708,
                        0.9470352530479431,
                        0.7001777291297913,
                        -0.07610591500997543,
                        0.18281900882720947,
                        0.19651709496974945,
                        -0.33014342188835144,
                        -0.0053335921838879585,
                        0.13262519240379333,
                        0.0029471679590642452,
                        -0.02968772128224373,
                        0.34294670820236206,
                        -0.4809301197528839,
                        -0.10751336812973022,
                        0.6428333520889282,
                        0.047661781311035156,
                        -0.10668698698282242,
                        0.10666503757238388,
                        -0.06408076733350754,
                        -0.11294322460889816,
                        0.7444249987602234,
                        0.3343530297279358,
                        -0.4293581545352936,
                        0.25091075897216797,
                        -0.07174821197986603,
                        0.06408536434173584,
                        0.02976684272289276,
                        1.0388484001159668,
                        1.365788221359253,
                        1.751065731048584,
                        -0.21196195483207703,
                        0.024858549237251282,
                        -0.323478102684021,
                        -0.40803152322769165,
                        -0.5642603039741516,
                        0.6534233689308167,
                        1.2502217292785645,
                        0.14279279112815857,
                        0.5388466119766235,
                        2.0472755432128906,
                        0.8815593719482422,
                        -0.3360452950000763,
                        -0.16478055715560913,
                        -0.9555957913398743,
                        -0.4138576090335846,
                        0.12244140356779099,
                        0.3596581220626831,
                        -1.2101484537124634,
                        -0.4964595139026642,
                        0.5365349054336548,
                        2.127153158187866,
                        -1.0825562477111816,
                        2.805574655532837,
                        -0.1415621042251587,
                        0.595313549041748,
                        -0.6823480129241943,
                        0.3012692630290985,
                        -0.7243149280548096,
                        0.07177690416574478,
                        -0.30573421716690063,
                        1.0786806344985962,
                        -1.1956199407577515,
                        0.7544330358505249,
                        0.06588442623615265,
                        -0.22829227149486542,
                        -0.17783580720424652,
                        -0.6885508298873901,
                        -0.16649973392486572,
                        0.1587492674589157,
                        0.16078683733940125,
                        0.35735130310058594,
                        -0.7916654348373413,
                        0.6204888224601746,
                        0.5817123651504517,
                        0.2737369239330292,
                        -0.22919616103172302,
                        1.242065191268921,
                        -0.009700623340904713,
                        1.087978720664978,
                        0.3010936379432678,
                        -0.39924365282058716,
                        -0.2164120078086853,
                        -0.0696301981806755,
                        0.024783264845609665,
                        1.4050449132919312,
                        0.3954603374004364,
                        -1.0782188177108765,
                        0.2792258858680725,
                        0.21650339663028717
                    ]
                ],
                [
                    [
                        0.15733779966831207,
                        0.38602855801582336,
                        -1.0467967987060547,
                        -1.2733500003814697,
                        -1.4699963331222534,
                        -0.4901633560657501,
                        0.4122782349586487,
                        0.4137915372848511,
                        -0.7465952038764954,
                        -0.4718630611896515,
                        0.1168312281370163,
                        -0.8615590333938599,
                        -0.04997296258807182,
                        -0.5383529663085938,
                        -0.8115329146385193,
                        -0.5055320858955383,
                        -0.1778675764799118,
                        -0.033115945756435394,
                        -1.273931860923767,
                        -0.35190072655677795,
                        0.4968563914299011,
                        -0.234948992729187,
                        -0.5271087884902954,
                        -1.2299463748931885,
                        -0.4510534703731537,
                        -0.7790852189064026,
                        -1.1560598611831665,
                        -1.769498586654663,
                        0.4832078218460083,
                        -1.5401716232299805,
                        -0.4867423474788666,
                        -0.10377172380685806,
                        -0.6418413519859314,
                        0.2990368902683258,
                        -0.2725873589515686,
                        -1.1058406829833984,
                        -1.4965474605560303,
                        -0.32899799942970276,
                        0.2996375262737274,
                        0.3105681240558624,
                        -0.0549272857606411,
                        -0.3296850621700287,
                        0.04750332981348038,
                        0.3828970193862915,
                        0.04457913711667061,
                        0.14601555466651917,
                        -0.8289348483085632,
                        -0.45317742228507996,
                        -0.5115747451782227,
                        0.09726542979478836,
                        -0.4424750804901123,
                        -1.0944851636886597,
                        0.32580891251564026,
                        -1.1626267433166504,
                        0.00519965123385191,
                        -0.08454915881156921,
                        0.1605275273323059,
                        -0.3467477262020111,
                        0.35014399886131287,
                        -1.9706707000732422,
                        0.16052600741386414,
                        -0.7417742013931274,
                        -0.3934975862503052,
                        -0.15771396458148956,
                        -0.0169869065284729,
                        0.026436660438776016,
                        -0.17388896644115448,
                        0.367380827665329,
                        0.7680442333221436,
                        0.1108904480934143,
                        0.04565703868865967,
                        -0.15922901034355164,
                        0.06904903799295425,
                        -0.13976691663265228,
                        0.47920745611190796,
                        0.3659757971763611,
                        0.2842060923576355,
                        0.6948974132537842,
                        -0.14212234318256378,
                        0.09569200873374939,
                        -0.03861767426133156,
                        0.10225127637386322,
                        0.37961775064468384,
                        0.14567697048187256,
                        0.020229680463671684,
                        0.07821831107139587,
                        0.15193189680576324,
                        0.2557172179222107,
                        -0.011521638371050358,
                        0.9986633658409119,
                        0.03667786717414856,
                        1.0709965229034424,
                        -0.05489484220743179,
                        -0.03387970104813576,
                        -0.10125547647476196,
                        -0.10791015625,
                        0.17294295132160187,
                        -0.204318106174469,
                        0.2640283405780792,
                        -0.17567047476768494,
                        0.5623027682304382,
                        -0.05698442459106445,
                        -0.04752010479569435,
                        0.17359915375709534,
                        0.2428702861070633,
                        0.4346386194229126,
                        -0.23268568515777588,
                        0.01214347779750824,
                        0.019379081204533577,
                        -0.06679248809814453,
                        -0.14794529974460602,
                        0.01724047027528286,
                        0.2792651355266571,
                        0.32513177394866943,
                        -0.11956280469894409,
                        0.7183430790901184,
                        -0.019496535882353783,
                        0.4296471178531647,
                        -0.027156231924891472,
                        0.04108567163348198,
                        -0.06275762617588043,
                        0.057619404047727585,
                        0.00527933007106185,
                        0.9847456216812134,
                        -0.11443573981523514,
                        0.4741344451904297,
                        0.22982099652290344,
                        -0.07105585932731628,
                        0.04663537070155144,
                        0.11127893626689911,
                        -0.15052281320095062,
                        -0.2648565471172333,
                        -0.0590687021613121,
                        0.002212626626715064,
                        -0.004458111710846424,
                        -0.10214319825172424,
                        0.20056414604187012,
                        -0.09265574812889099,
                        0.14745597541332245,
                        -0.05983542650938034,
                        0.1590210497379303,
                        -0.2783321440219879,
                        -0.14259397983551025,
                        -0.08632925897836685,
                        -0.16622231900691986,
                        0.11514224112033844,
                        -0.004462816286832094,
                        0.0214453786611557,
                        0.08605942130088806,
                        0.13833986222743988,
                        -0.08132057636976242,
                        0.04648199677467346,
                        0.1253364533185959,
                        -0.16238419711589813,
                        0.09096549451351166,
                        -0.3892020583152771,
                        0.04609747976064682,
                        -0.029120929539203644,
                        -0.04876266047358513,
                        0.05499429628252983,
                        -0.0535728819668293,
                        -0.055506572127342224,
                        0.023379070684313774,
                        -0.08890039473772049,
                        -0.014268496073782444,
                        -0.15228906273841858,
                        -0.037992700934410095,
                        0.10099821537733078,
                        0.11728145182132721,
                        0.054550763219594955,
                        -0.05530337989330292,
                        0.06175285205245018,
                        0.1337788701057434,
                        -0.09901231527328491,
                        -0.0077309515327215195,
                        0.17944689095020294,
                        0.1436506062746048,
                        -0.1097833514213562,
                        -0.12353656440973282,
                        0.012190702371299267,
                        0.0032178922556340694,
                        0.00971007626503706,
                        -0.04178236424922943,
                        0.06820128858089447,
                        -0.10093924403190613,
                        0.02419442869722843,
                        -0.003917801193892956,
                        -0.10883229970932007,
                        0.0662132129073143,
                        0.1599736213684082,
                        0.06013008952140808,
                        -0.052338141947984695
                    ],
                    [
                        -0.021801915019750595,
                        0.061745285987854004,
                        -0.00425246637314558,
                        0.061169352382421494,
                        -0.20021072030067444,
                        -0.21775582432746887,
                        0.03011905401945114,
                        -0.35817283391952515,
                        -0.11798714101314545,
                        0.14204710721969604,
                        0.11238280683755875,
                        0.0863877534866333,
                        0.03275436908006668,
                        -0.4832517206668854,
                        -0.21299278736114502,
                        -0.32176968455314636,
                        -0.014395130798220634,
                        -0.2818893492221832,
                        -0.291103720664978,
                        -0.11754190176725388,
                        -0.288808673620224,
                        0.23465092480182648,
                        -0.04730787128210068,
                        -0.16988158226013184,
                        -0.09569558501243591,
                        -0.013077403418719769,
                        -0.22671324014663696,
                        -0.05432586371898651,
                        -0.09222165495157242,
                        -0.06214745342731476,
                        0.1656084507703781,
                        0.1490427851676941,
                        0.117212675511837,
                        -0.07570388168096542,
                        0.13360704481601715,
                        -0.11589779704809189,
                        -0.47659605741500854,
                        -0.21731685101985931,
                        0.1272813081741333,
                        0.19829297065734863,
                        -0.10111108422279358,
                        -0.10689100623130798,
                        -0.240040123462677,
                        0.058779191225767136,
                        0.02465132065117359,
                        0.4616781175136566,
                        -0.015420818701386452,
                        -0.295418918132782,
                        -0.16048486530780792,
                        -0.22568927705287933,
                        0.06392239034175873,
                        -0.08624802529811859,
                        0.0796307772397995,
                        -0.24304944276809692,
                        -0.2172495424747467,
                        0.10338083654642105,
                        -0.014760402031242847,
                        -0.32048025727272034,
                        -0.27686575055122375,
                        -0.2696593403816223,
                        -0.05952960252761841,
                        -0.04247264191508293,
                        -0.014161711558699608,
                        -0.22345733642578125,
                        0.16577650606632233,
                        0.115903839468956,
                        0.01903158612549305,
                        0.27067920565605164,
                        0.07807105779647827,
                        -0.059272829443216324,
                        0.09922384470701218,
                        0.020161962136626244,
                        0.015343858860433102,
                        -0.07885728776454926,
                        -0.015271098352968693,
                        -0.012212952598929405,
                        0.1943242847919464,
                        0.13438698649406433,
                        -0.18714261054992676,
                        0.13718558847904205,
                        0.06604992598295212,
                        -0.06057918444275856,
                        0.08749741315841675,
                        0.05314277857542038,
                        0.10055899620056152,
                        -0.09850969165563583,
                        -0.1311870813369751,
                        0.04012977331876755,
                        0.12258261442184448,
                        0.16231238842010498,
                        0.15015225112438202,
                        0.11640065908432007,
                        0.05170837789773941,
                        -0.036002468317747116,
                        0.09092306345701218,
                        -0.15335148572921753,
                        -0.16277529299259186,
                        0.027387099340558052,
                        0.08155754953622818,
                        -0.2032022327184677,
                        0.13369148969650269,
                        -0.19992654025554657,
                        -0.060957349836826324,
                        -0.07115036249160767,
                        0.3757619559764862,
                        0.17194004356861115,
                        0.06849551945924759,
                        0.07262194901704788,
                        0.044092241674661636,
                        0.028196895495057106,
                        -0.05594677850604057,
                        -0.03666387498378754,
                        0.006858515553176403,
                        0.05162946507334709,
                        -0.10870840400457382,
                        -0.0069047859869897366,
                        0.0976557806134224,
                        0.1457073837518692,
                        0.11887164413928986,
                        -0.012484966777265072,
                        0.08813296258449554,
                        0.06566552817821503,
                        -0.1041836217045784,
                        0.15666651725769043,
                        0.016274405643343925,
                        0.05150417983531952,
                        0.06340989470481873,
                        0.155218705534935,
                        0.13870187103748322,
                        0.05785645171999931,
                        -0.14784280955791473,
                        -0.10679972916841507,
                        -0.09330230951309204,
                        0.04552685469388962,
                        -0.027453633025288582,
                        0.011389439925551414,
                        0.04435199499130249,
                        -0.06421254575252533,
                        0.0778384655714035,
                        0.048434093594551086,
                        0.11093408614397049,
                        -0.14392322301864624,
                        -0.12023142725229263,
                        -0.10760044306516647,
                        0.0716838613152504,
                        0.15775087475776672,
                        0.07012029737234116,
                        0.08096527308225632,
                        -0.1271619349718094,
                        0.11037666350603104,
                        -0.03463254123926163,
                        0.11111583560705185,
                        -0.04779169708490372,
                        -0.0758865475654602,
                        0.19288215041160583,
                        -0.18769770860671997,
                        -0.016845814883708954,
                        0.02831811085343361,
                        -0.11283218860626221,
                        -0.030271800234913826,
                        -0.0022233924828469753,
                        -0.0008712055860087276,
                        -0.02911989949643612,
                        -0.11421358585357666,
                        0.1628725826740265,
                        0.09230457246303558,
                        0.11807217448949814,
                        0.23538604378700256,
                        0.20737925171852112,
                        0.24569572508335114,
                        0.10985711961984634,
                        0.2909792959690094,
                        0.015940509736537933,
                        0.025388631969690323,
                        -0.052750274538993835,
                        -0.11319208890199661,
                        -0.20072762668132782,
                        0.09836197644472122,
                        -0.13415312767028809,
                        -0.01018555462360382,
                        -0.01733420416712761,
                        -0.3361237645149231,
                        0.12020329385995865,
                        -0.1788713037967682,
                        -0.2390124648809433,
                        0.13678564131259918,
                        -0.1629609614610672,
                        -0.07376807183027267,
                        0.23747943341732025,
                        -0.10525451600551605,
                        -0.07821796834468842,
                        -0.16707023978233337
                    ],
                    [
                        0.4866245985031128,
                        -0.2552643418312073,
                        0.36712369322776794,
                        -0.2556040287017822,
                        -0.6455070376396179,
                        -0.3690888583660126,
                        -0.19210292398929596,
                        0.5039699077606201,
                        -1.6159648895263672,
                        0.44422295689582825,
                        0.6890068054199219,
                        -0.5589548349380493,
                        0.028380634263157845,
                        1.6845996379852295,
                        -0.33260291814804077,
                        -0.3218204081058502,
                        0.3154415786266327,
                        0.03565123304724693,
                        0.11213464289903641,
                        0.3004254698753357,
                        -0.19733673334121704,
                        0.22234854102134705,
                        -0.5394393801689148,
                        -1.0908348560333252,
                        -0.1651095449924469,
                        -1.4623619318008423,
                        0.6167157292366028,
                        1.2959169149398804,
                        0.053567513823509216,
                        0.8760150074958801,
                        -0.2647477388381958,
                        0.42061153054237366,
                        -0.6773079633712769,
                        0.020521294325590134,
                        0.3300439417362213,
                        0.8620989322662354,
                        0.5855345726013184,
                        -0.3364357054233551,
                        -0.2643626928329468,
                        0.11793677508831024,
                        -0.40416404604911804,
                        0.34061723947525024,
                        0.08101744949817657,
                        -0.1771542876958847,
                        0.41355133056640625,
                        0.14933373034000397,
                        0.2450021505355835,
                        0.1298767328262329,
                        -0.8133367300033569,
                        0.03666189685463905,
                        -0.0799398347735405,
                        -1.3384162187576294,
                        -0.29863646626472473,
                        -0.06465844810009003,
                        0.03998549282550812,
                        -0.1425371915102005,
                        -0.1914052516222,
                        -0.20095431804656982,
                        0.200174942612648,
                        0.31678199768066406,
                        -0.08088907599449158,
                        -0.7073688507080078,
                        0.22736787796020508,
                        0.12510378658771515,
                        -0.05555247887969017,
                        -0.17727673053741455,
                        0.2894861102104187,
                        -0.33862733840942383,
                        -0.45902711153030396,
                        0.3151300847530365,
                        -0.018085621297359467,
                        -0.36524245142936707,
                        -1.0491604804992676,
                        0.3158453702926636,
                        1.94500732421875,
                        -0.35788673162460327,
                        0.12582342326641083,
                        0.7923444509506226,
                        -0.1356813609600067,
                        -0.06570620834827423,
                        -0.00581476790830493,
                        0.03494006395339966,
                        -0.06274740397930145,
                        -0.3347046375274658,
                        -0.008178530260920525,
                        0.14236105978488922,
                        -0.45411252975463867,
                        -0.3517335057258606,
                        -0.012328799813985825,
                        0.35620149970054626,
                        0.29054850339889526,
                        -0.6234382390975952,
                        -0.33437639474868774,
                        0.5257803797721863,
                        0.12244714051485062,
                        0.42181432247161865,
                        -0.1734965294599533,
                        -0.023814339190721512,
                        0.27714380621910095,
                        0.12163708359003067,
                        0.5270982980728149,
                        -0.013033510185778141,
                        0.05222471058368683,
                        0.27463358640670776,
                        0.36304086446762085,
                        0.3765951097011566,
                        -0.11245911568403244,
                        -0.15430566668510437,
                        0.18819788098335266,
                        0.022754542529582977,
                        0.17529594898223877,
                        -0.026742087677121162,
                        -0.10629256814718246,
                        -0.03221309557557106,
                        -0.10753405839204788,
                        -0.7776504755020142,
                        -0.10823071748018265,
                        0.1992814987897873,
                        -0.05184640362858772,
                        -0.1638043075799942,
                        -0.18891315162181854,
                        0.07190676033496857,
                        -0.1526091992855072,
                        0.18431152403354645,
                        0.23635214567184448,
                        -0.9096016883850098,
                        -0.035608045756816864,
                        -0.07725604623556137,
                        0.07234574109315872,
                        0.034695208072662354,
                        0.04433213174343109,
                        0.28471121191978455,
                        0.6295872926712036,
                        -0.15693442523479462,
                        -0.04912691190838814,
                        0.31412020325660706,
                        -0.7844830751419067,
                        -0.06230943277478218,
                        0.8860483169555664,
                        0.27612680196762085,
                        -0.7723767757415771,
                        0.8950138092041016,
                        0.07498028874397278,
                        0.15435609221458435,
                        0.20307789742946625,
                        -0.07012321054935455,
                        -0.32312503457069397,
                        -0.11038949340581894,
                        -0.26840120553970337,
                        -0.3788909316062927,
                        -0.24713034927845,
                        -0.633358895778656,
                        0.02090292237699032,
                        1.0015112161636353,
                        -0.08822531253099442,
                        0.7065263986587524,
                        0.22011321783065796,
                        0.3213489055633545,
                        -0.31087031960487366,
                        -0.550898551940918,
                        -0.17398753762245178,
                        0.24592998623847961,
                        0.42742082476615906,
                        -0.019162485376000404,
                        -0.4072684943675995,
                        0.16991020739078522,
                        0.27692386507987976,
                        -0.12314654141664505,
                        -0.44173485040664673,
                        -0.557864248752594,
                        -0.07226894050836563,
                        0.0893610417842865,
                        -0.45428478717803955,
                        0.346615195274353,
                        0.06603934615850449,
                        -0.06043092906475067,
                        0.33890387415885925,
                        -0.03538746386766434,
                        0.08426158130168915,
                        0.7861551642417908,
                        0.02700694091618061,
                        0.33875131607055664,
                        0.29544851183891296,
                        -0.33689263463020325,
                        0.0064528752118349075,
                        -0.4124930500984192,
                        -0.1581779569387436,
                        0.5186163187026978,
                        -0.07974234223365784,
                        -0.6684675216674805,
                        -0.024196889251470566,
                        -0.041863225400447845
                    ],
                    [
                        0.5783003568649292,
                        -0.2231055498123169,
                        0.017931919544935226,
                        -0.11033280193805695,
                        -0.646053671836853,
                        -0.11812911182641983,
                        -0.047383781522512436,
                        0.24226373434066772,
                        -1.173427700996399,
                        0.23082123696804047,
                        1.437616229057312,
                        -0.5314184427261353,
                        -0.39447465538978577,
                        1.3899548053741455,
                        -0.19959138333797455,
                        0.32995566725730896,
                        0.16519145667552948,
                        0.13843268156051636,
                        0.690473735332489,
                        -0.06876616179943085,
                        0.20958077907562256,
                        -0.140965536236763,
                        -0.44127243757247925,
                        -0.6515775918960571,
                        0.23994961380958557,
                        -1.0630104541778564,
                        0.33205729722976685,
                        0.42759576439857483,
                        0.1156546100974083,
                        -0.40781277418136597,
                        -0.1130957379937172,
                        -0.24221493303775787,
                        -0.6352712512016296,
                        0.06358897686004639,
                        -0.32900524139404297,
                        0.2041691392660141,
                        0.7204393148422241,
                        -0.2654527723789215,
                        -0.07504686713218689,
                        0.41734039783477783,
                        -0.4825296998023987,
                        0.8169254660606384,
                        0.10777803510427475,
                        -0.06016591563820839,
                        0.06616197526454926,
                        -0.47018158435821533,
                        0.18158884346485138,
                        0.9148933291435242,
                        -0.9948569536209106,
                        0.2440710812807083,
                        -0.8134683966636658,
                        -1.2862268686294556,
                        -0.016218215227127075,
                        -0.19155800342559814,
                        -0.10002361238002777,
                        -0.43744292855262756,
                        -0.0408090315759182,
                        -0.15714792907238007,
                        0.034370556473731995,
                        0.04996846243739128,
                        0.10006929188966751,
                        -0.6471395492553711,
                        0.12958011031150818,
                        -0.08109869062900543,
                        0.03305475041270256,
                        -0.01247339602559805,
                        0.10016322880983353,
                        0.2700049579143524,
                        -0.5101478099822998,
                        0.04368019104003906,
                        -0.044645365327596664,
                        0.12162309885025024,
                        -0.7734326124191284,
                        -0.16599877178668976,
                        1.9605978727340698,
                        0.024425283074378967,
                        -0.21757586300373077,
                        0.745498776435852,
                        0.04501444846391678,
                        0.026613861322402954,
                        0.07137849181890488,
                        -0.010826135985553265,
                        0.32826513051986694,
                        0.04567616432905197,
                        -0.07373449951410294,
                        0.056680355221033096,
                        0.0789913535118103,
                        -0.7069065570831299,
                        -0.06399406492710114,
                        0.24890322983264923,
                        -0.055429764091968536,
                        -0.11394234746694565,
                        0.21355029940605164,
                        0.14843419194221497,
                        0.011461672373116016,
                        0.34836632013320923,
                        -0.00046519353054463863,
                        0.28104862570762634,
                        0.4155476689338684,
                        0.24387973546981812,
                        0.6825428605079651,
                        0.0004982385435141623,
                        0.196649968624115,
                        0.4480029344558716,
                        0.30632755160331726,
                        0.3599259853363037,
                        -0.04787388816475868,
                        0.06554305553436279,
                        0.16332466900348663,
                        0.08596828579902649,
                        -0.2077818065881729,
                        0.06090761721134186,
                        0.15142856538295746,
                        0.004309984389692545,
                        0.15094535052776337,
                        -0.23902280628681183,
                        -0.030048152431845665,
                        -0.348928838968277,
                        -0.08203543722629547,
                        0.1228584572672844,
                        0.007392317522317171,
                        -0.1526520997285843,
                        0.21076619625091553,
                        -0.1197551041841507,
                        0.010879320092499256,
                        -0.17052805423736572,
                        0.0646977499127388,
                        0.05733104050159454,
                        0.1090521514415741,
                        0.05360334739089012,
                        -0.11869616061449051,
                        0.2670997381210327,
                        0.4361554682254791,
                        0.18850305676460266,
                        -0.029899893328547478,
                        -0.022640852257609367,
                        -0.08794821053743362,
                        -0.012412359938025475,
                        0.3463009297847748,
                        0.22324126958847046,
                        -0.20050150156021118,
                        0.34085530042648315,
                        0.041566502302885056,
                        0.04363900050520897,
                        0.08749290555715561,
                        -0.1312306672334671,
                        -0.3480410873889923,
                        -0.22106841206550598,
                        -0.08945097029209137,
                        -0.18210369348526,
                        -0.09043818712234497,
                        -0.345694899559021,
                        -0.10745135694742203,
                        0.754814863204956,
                        0.0490616150200367,
                        0.13265551626682281,
                        0.21322210133075714,
                        0.015025083906948566,
                        -0.013153083622455597,
                        -0.18142467737197876,
                        -0.02482255920767784,
                        -0.01774548552930355,
                        0.19724564254283905,
                        0.10968178510665894,
                        -0.09212029725313187,
                        0.21587112545967102,
                        0.1347491592168808,
                        -0.1325700879096985,
                        -0.17257268726825714,
                        -0.08783826977014542,
                        -0.10367263853549957,
                        0.055237773805856705,
                        -0.12591668963432312,
                        -0.06408602744340897,
                        0.02878287248313427,
                        0.10956450551748276,
                        0.1541910022497177,
                        0.1451655775308609,
                        0.13652266561985016,
                        0.571323573589325,
                        -0.12039308995008469,
                        0.04794422164559364,
                        0.014539682306349277,
                        -0.13641636073589325,
                        -0.027679359540343285,
                        -0.12973448634147644,
                        -0.13422587513923645,
                        0.1656382977962494,
                        -0.07455437630414963,
                        -0.1550380289554596,
                        0.14962051808834076,
                        0.06629335880279541
                    ],
                    [
                        0.4051841199398041,
                        -0.14535734057426453,
                        -0.8269463181495667,
                        -0.8242385387420654,
                        -1.3000929355621338,
                        -0.42610466480255127,
                        -0.07595405727624893,
                        0.3232482075691223,
                        -1.5253849029541016,
                        -0.2544674575328827,
                        1.6836994886398315,
                        -0.6727303862571716,
                        -0.7739012241363525,
                        1.0708880424499512,
                        -0.8999668955802917,
                        0.3633570075035095,
                        0.3559112548828125,
                        0.016670875251293182,
                        -0.642395555973053,
                        -0.20884451270103455,
                        0.317623496055603,
                        -0.20329289138317108,
                        -0.7249405384063721,
                        -1.24402916431427,
                        -0.19683662056922913,
                        -1.7627084255218506,
                        -0.5752057433128357,
                        -1.423471450805664,
                        0.14799915254116058,
                        -0.5678862929344177,
                        -0.3252814710140228,
                        -0.08059211075305939,
                        -0.7817679643630981,
                        0.00887615792453289,
                        -0.19547364115715027,
                        -0.0730784609913826,
                        0.5863088965415955,
                        -0.3427102863788605,
                        0.06986802071332932,
                        0.49638643860816956,
                        -0.8279623985290527,
                        0.6820582151412964,
                        0.039821282029151917,
                        0.09442581236362457,
                        0.07809560000896454,
                        -0.17300041019916534,
                        -0.5121673941612244,
                        -0.2282724231481552,
                        -1.072873830795288,
                        0.08512979745864868,
                        -0.6752960681915283,
                        -1.7760599851608276,
                        -0.0842500627040863,
                        -0.3756904602050781,
                        -0.22036908566951752,
                        -0.25425076484680176,
                        0.03309863433241844,
                        -0.29552584886550903,
                        0.10293672233819962,
                        -0.30944105982780457,
                        0.15772460401058197,
                        -0.9755074381828308,
                        0.012557324022054672,
                        0.03562659025192261,
                        -0.05247323587536812,
                        -0.18239937722682953,
                        0.1692505180835724,
                        0.18106898665428162,
                        -0.49579116702079773,
                        -0.008640756830573082,
                        0.007076074834913015,
                        -0.12850013375282288,
                        -1.316267728805542,
                        0.1151513010263443,
                        2.4360339641571045,
                        -0.18452176451683044,
                        -0.5264335870742798,
                        1.0190393924713135,
                        -0.03732005134224892,
                        0.10817743092775345,
                        0.02661338448524475,
                        -0.08920598775148392,
                        0.12074926495552063,
                        0.022142557427287102,
                        -0.1702858805656433,
                        0.22508758306503296,
                        0.05570761859416962,
                        -0.7111400365829468,
                        -0.13004878163337708,
                        0.8639318943023682,
                        0.06813997775316238,
                        -0.13775861263275146,
                        -0.07362537831068039,
                        0.3620637059211731,
                        0.06645312160253525,
                        0.12781456112861633,
                        -0.07949899882078171,
                        -0.029758062213659286,
                        0.36546090245246887,
                        -0.08164054900407791,
                        0.6378983855247498,
                        0.013268532231450081,
                        -0.10010605305433273,
                        0.1167510449886322,
                        0.9654297232627869,
                        0.4750230312347412,
                        -0.09895683825016022,
                        0.10786706209182739,
                        0.06470774859189987,
                        -0.09809763729572296,
                        0.15092860162258148,
                        0.19180580973625183,
                        -0.2291744202375412,
                        -0.06785104423761368,
                        0.07146704941987991,
                        -0.16021615266799927,
                        -0.02053900994360447,
                        -0.08204714953899384,
                        0.06649097800254822,
                        -0.15340298414230347,
                        -0.08668728172779083,
                        -0.01733105070888996,
                        -0.042718421667814255,
                        0.30496644973754883,
                        -0.05866602808237076,
                        -0.06533470749855042,
                        -0.06669790297746658,
                        -0.049925241619348526,
                        0.42500972747802734,
                        0.03859103098511696,
                        -0.06487049162387848,
                        -0.02479497157037258,
                        0.34107205271720886,
                        -0.0449601374566555,
                        -0.04965802654623985,
                        -0.029886826872825623,
                        -0.5559632182121277,
                        0.18564797937870026,
                        0.7609964609146118,
                        0.002494890009984374,
                        -0.3779997229576111,
                        0.10164247453212738,
                        -0.07740891724824905,
                        -0.17105978727340698,
                        0.13242627680301666,
                        -0.06838405877351761,
                        -0.39585140347480774,
                        -0.027594750747084618,
                        0.07135409861803055,
                        -0.16352377831935883,
                        -0.26800253987312317,
                        -0.7258012294769287,
                        -0.03076658397912979,
                        0.5902698040008545,
                        0.04118530452251434,
                        -0.08869379013776779,
                        -0.009293261915445328,
                        -0.04466947168111801,
                        -0.12805846333503723,
                        -0.10325153172016144,
                        -0.11568895727396011,
                        0.14384660124778748,
                        0.1667749434709549,
                        -0.18829575181007385,
                        -0.16309751570224762,
                        0.06257231533527374,
                        0.07395664602518082,
                        -0.3797203600406647,
                        -0.6951408386230469,
                        -0.20754893124103546,
                        0.02980373613536358,
                        0.11030920594930649,
                        -0.18691495060920715,
                        0.020687265321612358,
                        0.00461655342951417,
                        0.0950707346200943,
                        0.0915568619966507,
                        -0.03827868774533272,
                        0.06109857186675072,
                        0.32704445719718933,
                        -0.05271300673484802,
                        0.07485387474298477,
                        -0.09194588661193848,
                        0.033957768231630325,
                        -0.11707954108715057,
                        0.038135986775159836,
                        -0.0058436463586986065,
                        0.06720300018787384,
                        0.026529783383011818,
                        -0.04104313254356384,
                        0.13842196762561798,
                        0.08606375753879547
                    ],
                    [
                        0.2270863801240921,
                        -0.30347493290901184,
                        -0.11420581489801407,
                        0.024269653484225273,
                        0.2026502788066864,
                        0.13726797699928284,
                        -0.25236204266548157,
                        0.46975356340408325,
                        -0.11187409609556198,
                        -0.11350163072347641,
                        -0.2256505787372589,
                        -0.07217623293399811,
                        0.028506852686405182,
                        -0.5250628590583801,
                        0.19317971169948578,
                        0.29138219356536865,
                        -0.023852257058024406,
                        0.5867651104927063,
                        0.24180129170417786,
                        0.20261149108409882,
                        0.2675113379955292,
                        0.05524583160877228,
                        0.049806952476501465,
                        -0.034002482891082764,
                        -0.19211255013942719,
                        0.8379374742507935,
                        -0.2902285158634186,
                        0.17289873957633972,
                        0.33643704652786255,
                        0.12553243339061737,
                        0.061280280351638794,
                        -0.15299160778522491,
                        -0.030908510088920593,
                        0.17871704697608948,
                        0.28143438696861267,
                        -0.06106406822800636,
                        -0.2351340353488922,
                        0.0072710816748440266,
                        -0.016850018873810768,
                        0.3516724705696106,
                        0.340390682220459,
                        -0.35003048181533813,
                        0.6387196779251099,
                        -0.22645659744739532,
                        -0.011302287690341473,
                        -0.39026960730552673,
                        0.15202924609184265,
                        0.5092397332191467,
                        0.0037756357342004776,
                        0.562974214553833,
                        0.01391027681529522,
                        0.29425758123397827,
                        -0.2186426818370819,
                        -0.034396734088659286,
                        0.0809585452079773,
                        0.12182769924402237,
                        -0.11929971724748611,
                        0.38315850496292114,
                        0.4181717336177826,
                        -0.09204749017953873,
                        -0.13365791738033295,
                        0.1270008385181427,
                        0.03706836327910423,
                        0.3068842887878418,
                        0.06271970272064209,
                        -0.07325232028961182,
                        -0.0754048228263855,
                        -0.06843838095664978,
                        0.07158897072076797,
                        0.1778564453125,
                        -0.06470171362161636,
                        -0.11695583164691925,
                        0.30861449241638184,
                        0.027603350579738617,
                        -0.23671410977840424,
                        -0.03230731189250946,
                        -0.10059436410665512,
                        -0.5348548889160156,
                        0.12952888011932373,
                        -0.159834086894989,
                        -0.1675891876220703,
                        0.02500535547733307,
                        -0.022629661485552788,
                        0.0162875447422266,
                        -0.23912428319454193,
                        -0.10523166507482529,
                        -0.13375429809093475,
                        0.17121750116348267,
                        0.06537880003452301,
                        -0.23935064673423767,
                        -0.25598621368408203,
                        -0.054861389100551605,
                        -0.03350124880671501,
                        0.1551150232553482,
                        0.0857379287481308,
                        0.0037686508148908615,
                        0.1957712471485138,
                        0.1542178988456726,
                        0.021184777840971947,
                        0.17523644864559174,
                        -0.42710381746292114,
                        0.15833692252635956,
                        -0.045979369431734085,
                        -0.017339834943413734,
                        -0.3721926808357239,
                        -0.07632286101579666,
                        -0.0377466157078743,
                        -0.005429896991699934,
                        -0.13713349401950836,
                        0.09554906189441681,
                        -0.032850343734025955,
                        -0.032718855887651443,
                        0.3317047655582428,
                        0.17886532843112946,
                        0.03137333691120148,
                        0.07683472335338593,
                        -0.08162941038608551,
                        -0.41938531398773193,
                        0.038728248327970505,
                        0.09495902806520462,
                        -0.05710707977414131,
                        0.2579991817474365,
                        0.08702556788921356,
                        -0.4344164729118347,
                        -0.214028462767601,
                        0.38360875844955444,
                        0.05356685072183609,
                        -0.06462893635034561,
                        -0.03674589470028877,
                        -0.12592360377311707,
                        0.11059519648551941,
                        -0.024941779673099518,
                        -0.14566168189048767,
                        0.11726190149784088,
                        0.09076016396284103,
                        -0.048932578414678574,
                        0.039215125143527985,
                        -0.07931884378194809,
                        -0.042625222355127335,
                        -0.12345835566520691,
                        0.23455114662647247,
                        -0.0832282155752182,
                        -0.07159935683012009,
                        -0.13584913313388824,
                        0.006301179062575102,
                        0.15469655394554138,
                        0.07256295531988144,
                        -0.09449627250432968,
                        0.03056344948709011,
                        0.18442630767822266,
                        0.06495483964681625,
                        0.09852291643619537,
                        0.008489790372550488,
                        -0.09865792840719223,
                        -0.14582102000713348,
                        -0.015545617789030075,
                        -0.04152008891105652,
                        -0.037410106509923935,
                        0.053219687193632126,
                        -0.020424623042345047,
                        0.06755524128675461,
                        -0.27046024799346924,
                        0.020675363019108772,
                        0.07838603109121323,
                        0.06786718964576721,
                        0.11173656582832336,
                        0.04715197533369064,
                        -0.01227839570492506,
                        0.00035646645119413733,
                        0.0681200847029686,
                        0.11682832986116409,
                        -0.04394635558128357,
                        0.04637077823281288,
                        -0.05382769554853439,
                        -0.1135050430893898,
                        -0.00893991906195879,
                        -0.22073176503181458,
                        -0.14761610329151154,
                        0.10756022483110428,
                        -0.036430761218070984,
                        -0.17125234007835388,
                        0.03811279684305191,
                        0.035360388457775116,
                        0.06744440644979477,
                        -0.001973226200789213,
                        -0.00428909482434392,
                        0.05324140936136246,
                        0.00127210165373981,
                        -0.017985325306653976,
                        0.09010782837867737,
                        0.02693592570722103,
                        0.02919364720582962
                    ],
                    [
                        0.20621585845947266,
                        -0.06832719594240189,
                        -0.58453768491745,
                        -0.336809366941452,
                        -0.20116832852363586,
                        -0.0006495423149317503,
                        -0.03532547876238823,
                        0.2327328473329544,
                        0.14343924820423126,
                        -0.14203964173793793,
                        0.04368390515446663,
                        -0.06069852039217949,
                        -0.2854102849960327,
                        0.18964897096157074,
                        -0.2846483588218689,
                        -0.31746265292167664,
                        -0.1469300389289856,
                        0.23149779438972473,
                        -0.07266703993082047,
                        -0.029957033693790436,
                        0.13249355554580688,
                        -0.3302345871925354,
                        0.025853563100099564,
                        -0.04903934523463249,
                        -0.011039585806429386,
                        -0.510914146900177,
                        -0.09611925482749939,
                        -0.4797709882259369,
                        0.20020297169685364,
                        -0.0856141746044159,
                        -0.08505640923976898,
                        -0.0703699141740799,
                        -0.27090489864349365,
                        0.12093519419431686,
                        -0.36774495244026184,
                        0.017282450571656227,
                        0.1560104936361313,
                        -0.12880174815654755,
                        -0.06965909898281097,
                        -0.36215734481811523,
                        0.15074419975280762,
                        -0.2407999485731125,
                        0.08378124982118607,
                        -0.008683520369231701,
                        0.008191334083676338,
                        -0.4068116247653961,
                        -0.36008256673812866,
                        0.02681029960513115,
                        -0.051262762397527695,
                        0.34023427963256836,
                        -0.08819714188575745,
                        0.06041474640369415,
                        -0.1524183750152588,
                        -0.18474256992340088,
                        0.19378972053527832,
                        -0.1257726550102234,
                        -0.07185325026512146,
                        0.29796651005744934,
                        0.22228464484214783,
                        -0.44963687658309937,
                        0.15997956693172455,
                        -0.09849485009908676,
                        0.17189718782901764,
                        0.12328825891017914,
                        -0.06324509531259537,
                        -0.0045189931988716125,
                        -0.15718547999858856,
                        0.050384219735860825,
                        0.08557351678609848,
                        0.014630190096795559,
                        -0.05246551334857941,
                        0.08311042934656143,
                        0.025248827412724495,
                        -0.0301362257450819,
                        0.1772564947605133,
                        -0.08998287469148636,
                        -0.027401061728596687,
                        0.028053991496562958,
                        0.1915568858385086,
                        -0.13037125766277313,
                        0.15854299068450928,
                        0.042157139629125595,
                        -0.14129143953323364,
                        -0.022140005603432655,
                        0.04586977884173393,
                        0.1427125632762909,
                        0.08087964355945587,
                        -0.024934859946370125,
                        0.05083820968866348,
                        -0.01882181316614151,
                        -0.10032744705677032,
                        0.12218474596738815,
                        0.0038913448806852102,
                        0.0571109913289547,
                        0.03614732623100281,
                        0.03250391036272049,
                        -0.042323075234889984,
                        0.10900837182998657,
                        0.13077016174793243,
                        0.08940863609313965,
                        -0.04411199688911438,
                        0.15388500690460205,
                        0.012168236076831818,
                        0.0009489311487413943,
                        -0.048315685242414474,
                        -0.10155618190765381,
                        -0.04663766920566559,
                        0.04138272628188133,
                        -0.1347266584634781,
                        0.09280387312173843,
                        -0.05828425660729408,
                        -0.07092642039060593,
                        0.010064056143164635,
                        0.013311311602592468,
                        0.3142662048339844,
                        0.1237240582704544,
                        0.0489206537604332,
                        -0.17882560193538666,
                        -0.053919773548841476,
                        0.1754295527935028,
                        0.08192282915115356,
                        -0.10915862768888474,
                        0.043139755725860596,
                        0.07484259456396103,
                        -0.0782453715801239,
                        0.10834204405546188,
                        0.1303223967552185,
                        -0.07110817730426788,
                        -0.06479980051517487,
                        -0.12143725901842117,
                        0.12200778722763062,
                        0.16593512892723083,
                        0.11363533139228821,
                        0.06253094971179962,
                        0.15595881640911102,
                        -0.07467394322156906,
                        -0.09589448571205139,
                        -0.016010629013180733,
                        -0.024708138778805733,
                        0.14130152761936188,
                        0.14267514646053314,
                        0.05657348409295082,
                        0.027191923931241035,
                        -0.003512099850922823,
                        -0.05871677026152611,
                        -0.19725225865840912,
                        -0.11925224214792252,
                        -0.22748389840126038,
                        0.019181109964847565,
                        -0.2933647036552429,
                        -0.13344331085681915,
                        -0.12396938353776932,
                        0.048456620424985886,
                        0.2457304447889328,
                        -0.2411859929561615,
                        0.1211632564663887,
                        -0.04715992137789726,
                        0.16852672398090363,
                        0.09340536594390869,
                        0.2006249874830246,
                        -0.0746934786438942,
                        0.034013278782367706,
                        0.14154841005802155,
                        0.060344647616147995,
                        -0.18626128137111664,
                        0.028221748769283295,
                        -0.23336397111415863,
                        -0.27189919352531433,
                        -0.2329735904932022,
                        -0.1091826856136322,
                        -0.13557377457618713,
                        -0.24418622255325317,
                        -0.03890080749988556,
                        -0.003080209717154503,
                        -0.034743476659059525,
                        0.04841771349310875,
                        0.04375187307596207,
                        -0.039092179387807846,
                        -0.021908000111579895,
                        0.05825185775756836,
                        -0.2195250242948532,
                        0.10937956720590591,
                        -0.059429652988910675,
                        0.0017818351043388247,
                        0.054725561290979385,
                        -0.16090553998947144,
                        0.01045299507677555,
                        0.06433933973312378,
                        -0.15579676628112793,
                        0.04677312448620796,
                        0.257522851228714,
                        0.08141133189201355
                    ],
                    [
                        -0.04493788257241249,
                        0.19187502562999725,
                        0.22439034283161163,
                        -0.23866799473762512,
                        0.05351920425891876,
                        -0.47249722480773926,
                        0.05302118510007858,
                        0.27184784412384033,
                        -0.3978807032108307,
                        -0.13544531166553497,
                        -0.04297086223959923,
                        0.12596212327480316,
                        -0.11427557468414307,
                        -0.772239625453949,
                        0.20527061820030212,
                        0.4917994737625122,
                        0.24862518906593323,
                        0.08508429676294327,
                        0.3542436957359314,
                        0.019996987655758858,
                        0.1776563674211502,
                        -0.18376393616199493,
                        -0.13018135726451874,
                        -0.07182066142559052,
                        -0.06081259250640869,
                        -0.003966736141592264,
                        0.13567021489143372,
                        -0.0046055251732468605,
                        0.15231092274188995,
                        0.32784175872802734,
                        0.020628834143280983,
                        0.2043522596359253,
                        0.02481948211789131,
                        0.04274493828415871,
                        -0.10399217903614044,
                        0.21900884807109833,
                        -0.2050354778766632,
                        0.003390942933037877,
                        0.2310418039560318,
                        0.3061022162437439,
                        0.3171839714050293,
                        0.14912350475788116,
                        0.04356205463409424,
                        -0.2077101767063141,
                        0.03967749699950218,
                        0.2949025332927704,
                        0.09828086197376251,
                        -0.029359856620430946,
                        -0.006540978327393532,
                        0.06478426605463028,
                        -0.14663152396678925,
                        -0.05813763663172722,
                        0.12370902299880981,
                        0.13066381216049194,
                        -0.09240293502807617,
                        0.07691949605941772,
                        0.14089642465114594,
                        0.1528564989566803,
                        0.15215976536273956,
                        -0.28055351972579956,
                        -0.1635420322418213,
                        -0.13578662276268005,
                        -0.15519827604293823,
                        0.06960813701152802,
                        -0.011681508272886276,
                        0.04845943674445152,
                        -0.014228553511202335,
                        -0.20002399384975433,
                        -0.053836237639188766,
                        -0.16891388595104218,
                        -0.3254828453063965,
                        0.03130929917097092,
                        0.10617981851100922,
                        0.1729135662317276,
                        0.07419882714748383,
                        -0.17536956071853638,
                        0.018114816397428513,
                        0.008727679960429668,
                        -0.3043401539325714,
                        -0.4331129491329193,
                        -0.34273454546928406,
                        -0.2429044395685196,
                        -0.2556820213794708,
                        -0.16522182524204254,
                        -0.3016268312931061,
                        -0.02880513295531273,
                        -0.1065322756767273,
                        0.48970547318458557,
                        0.014134949073195457,
                        -0.004831772763282061,
                        -0.04051332175731659,
                        -0.09377848356962204,
                        -0.07664535939693451,
                        -0.10324905067682266,
                        0.16871431469917297,
                        -0.24603591859340668,
                        0.11772797256708145,
                        -0.14948685467243195,
                        -0.15829049050807953,
                        -0.1144411712884903,
                        -0.17116180062294006,
                        0.12215205281972885,
                        -0.30809861421585083,
                        -0.18924053013324738,
                        -0.06371777504682541,
                        -0.203152596950531,
                        -0.047003597021102905,
                        -0.13363584876060486,
                        -0.44216740131378174,
                        -0.03347587212920189,
                        0.0661487877368927,
                        -0.19573943316936493,
                        -0.4580071270465851,
                        -0.07621254771947861,
                        -0.0775490403175354,
                        0.5274631381034851,
                        -0.15515395998954773,
                        0.17976173758506775,
                        -0.17900745570659637,
                        -0.21645504236221313,
                        -0.040774427354335785,
                        -0.18220458924770355,
                        -0.1787485033273697,
                        0.04739503934979439,
                        0.047396108508110046,
                        -0.026065869256854057,
                        -0.1286461055278778,
                        -0.14066225290298462,
                        -0.07338613271713257,
                        0.058022644370794296,
                        -0.03319208323955536,
                        -0.1801525205373764,
                        -0.1880900114774704,
                        0.05544383078813553,
                        -0.20273122191429138,
                        -0.04948102682828903,
                        0.05404035374522209,
                        -0.07390500605106354,
                        0.04843854159116745,
                        -0.10676377266645432,
                        0.11418607085943222,
                        -0.4658218026161194,
                        -0.2593516409397125,
                        -0.08467085659503937,
                        -0.00249629863537848,
                        0.022497795522212982,
                        0.17138797044754028,
                        0.06779677420854568,
                        0.02345106564462185,
                        0.1538371443748474,
                        0.20754112303256989,
                        0.10312143713235855,
                        -0.15055519342422485,
                        -0.21160119771957397,
                        0.04761681705713272,
                        -0.4149486720561981,
                        -0.002951717935502529,
                        -0.13238096237182617,
                        -0.02945397049188614,
                        0.05418412387371063,
                        0.09793202579021454,
                        -0.05547313764691353,
                        -0.20705817639827728,
                        -0.24994578957557678,
                        -0.005440670531243086,
                        -0.2166232168674469,
                        -0.045245155692100525,
                        0.1406158208847046,
                        0.05760589614510536,
                        0.18785460293293,
                        0.24509669840335846,
                        0.12715981900691986,
                        0.08325858414173126,
                        -0.08127952367067337,
                        0.07244999706745148,
                        -0.10426026582717896,
                        -0.17035183310508728,
                        -0.24420681595802307,
                        0.038973066955804825,
                        -0.1391119658946991,
                        -0.03515893593430519,
                        -0.12393991649150848,
                        -0.15994252264499664,
                        0.10006529092788696,
                        0.17792806029319763,
                        0.14857186377048492,
                        0.01442644651979208,
                        -0.5731111764907837,
                        -0.013541645370423794,
                        0.19526033103466034,
                        -0.11539917439222336,
                        0.035307932645082474
                    ],
                    [
                        -0.23666703701019287,
                        0.017145855352282524,
                        -0.7240344882011414,
                        -0.39938828349113464,
                        -0.32380619645118713,
                        0.5672299861907959,
                        0.13715742528438568,
                        0.2534734010696411,
                        1.218143343925476,
                        -0.4520861506462097,
                        -1.9278604984283447,
                        -0.11703980714082718,
                        0.07738910615444183,
                        -1.8892489671707153,
                        -0.35496407747268677,
                        -0.9490098357200623,
                        -0.3827473819255829,
                        -0.0987507551908493,
                        -0.5655638575553894,
                        -0.029306504875421524,
                        0.06097016483545303,
                        0.2374076545238495,
                        0.38958704471588135,
                        1.3172399997711182,
                        -0.04940236359834671,
                        0.12410423904657364,
                        -0.9987668395042419,
                        -0.8211467266082764,
                        0.39414864778518677,
                        0.39395198225975037,
                        -0.2497258335351944,
                        -0.12595967948436737,
                        0.3739795982837677,
                        0.4632450342178345,
                        0.061005111783742905,
                        -0.5746041536331177,
                        -0.9194509387016296,
                        0.22260735929012299,
                        0.4946591556072235,
                        -0.5716285109519958,
                        0.6577543020248413,
                        -1.5605993270874023,
                        0.0740850418806076,
                        0.13129287958145142,
                        -0.4814937114715576,
                        0.44497615098953247,
                        -0.42084938287734985,
                        -0.29421278834342957,
                        0.32984697818756104,
                        0.5453856587409973,
                        0.596319854259491,
                        0.4827183187007904,
                        0.08588241040706635,
                        -0.5502284169197083,
                        0.36665746569633484,
                        0.3768264651298523,
                        0.08630861341953278,
                        0.665042519569397,
                        0.34396493434906006,
                        -1.3754518032073975,
                        -0.1421312540769577,
                        0.0873582512140274,
                        0.08233398199081421,
                        0.17958739399909973,
                        0.06564711779356003,
                        -0.021432572975754738,
                        -0.22150540351867676,
                        0.2446383833885193,
                        0.35756978392601013,
                        0.06751000881195068,
                        0.012022270821034908,
                        0.17216728627681732,
                        0.34005019068717957,
                        -0.18982185423374176,
                        -1.1396071910858154,
                        0.2418612539768219,
                        1.2494657039642334,
                        -0.2696216106414795,
                        0.1341090202331543,
                        0.008929641917347908,
                        0.1451834738254547,
                        -0.06025616452097893,
                        0.13949725031852722,
                        0.2083684653043747,
                        0.06553580611944199,
                        -0.19719192385673523,
                        -0.020276611670851707,
                        0.42286762595176697,
                        0.027276596054434776,
                        0.14568914473056793,
                        0.001826326479203999,
                        0.422201544046402,
                        0.08096297085285187,
                        -0.049187175929546356,
                        -0.04138682037591934,
                        -0.1130390539765358,
                        0.06930092722177505,
                        0.10527495294809341,
                        -0.033197857439517975,
                        0.05975234508514404,
                        -0.17654190957546234,
                        0.19549863040447235,
                        0.03505609929561615,
                        0.1910249888896942,
                        -0.9094336628913879,
                        -0.2515225410461426,
                        -0.09799861907958984,
                        0.014881935901939869,
                        -0.003082413924857974,
                        0.11343054473400116,
                        -0.10096592456102371,
                        -0.0826767310500145,
                        0.2884170114994049,
                        0.12731501460075378,
                        0.00038881925866007805,
                        0.29580339789390564,
                        0.11094021052122116,
                        0.041710153222084045,
                        -0.061091091483831406,
                        -0.006344802677631378,
                        -0.10171584784984589,
                        0.030714768916368484,
                        -0.09397878497838974,
                        0.026431938633322716,
                        -0.390671968460083,
                        0.26449692249298096,
                        0.034545764327049255,
                        0.00016137611237354577,
                        -0.04281586781144142,
                        -0.07208170741796494,
                        0.10281428694725037,
                        -0.09730733186006546,
                        0.0018536642892286181,
                        -0.013363939709961414,
                        0.018456779420375824,
                        -0.16099552810192108,
                        0.300968736410141,
                        -0.026220262050628662,
                        -0.18424680829048157,
                        -0.07081742584705353,
                        0.12522803246974945,
                        -0.16300766170024872,
                        -0.08975570648908615,
                        0.09539114683866501,
                        -0.05736451968550682,
                        0.11560731381177902,
                        0.06394018977880478,
                        0.06994271278381348,
                        0.05825537070631981,
                        0.19587497413158417,
                        0.02898191474378109,
                        0.07393361628055573,
                        0.06672722101211548,
                        -0.15532970428466797,
                        -0.04921189323067665,
                        -0.03410933539271355,
                        -0.0645529255270958,
                        0.05210280418395996,
                        -0.017022734507918358,
                        -0.10394962131977081,
                        0.023034006357192993,
                        -0.12417016178369522,
                        -0.16508708894252777,
                        0.22899164259433746,
                        -0.024561820551753044,
                        -0.1902880221605301,
                        -0.02886873483657837,
                        -0.11252546310424805,
                        0.15002703666687012,
                        -0.08498582988977432,
                        0.09769356995820999,
                        0.09834666550159454,
                        0.15143457055091858,
                        -0.13448604941368103,
                        0.1278972327709198,
                        0.06685113906860352,
                        -0.18072368204593658,
                        -0.17630136013031006,
                        -0.03249223157763481,
                        -0.0799793154001236,
                        -0.08837432414293289,
                        -0.15366114675998688,
                        0.01900474913418293,
                        0.023826947435736656,
                        0.055331695824861526,
                        -0.05341826751828194,
                        0.10691004991531372,
                        -0.005362987983971834,
                        0.020556971430778503,
                        0.03170916810631752,
                        0.1017666831612587,
                        -0.1232580915093422
                    ],
                    [
                        0.17009656131267548,
                        0.3980070650577545,
                        -0.416176974773407,
                        0.2580813765525818,
                        -0.04782000184059143,
                        -0.139332115650177,
                        0.15392667055130005,
                        0.26217564940452576,
                        0.1258242130279541,
                        -0.11133764684200287,
                        0.07593195140361786,
                        0.13875749707221985,
                        -0.28139540553092957,
                        -0.5315952897071838,
                        0.31401899456977844,
                        0.5417357087135315,
                        -0.1743696630001068,
                        0.4371275305747986,
                        0.2415330708026886,
                        0.0011492401827126741,
                        0.4197216033935547,
                        -0.40078526735305786,
                        0.07537629455327988,
                        0.0274672694504261,
                        0.13112697005271912,
                        0.26771366596221924,
                        -0.17994192242622375,
                        -0.03818212077021599,
                        0.32867035269737244,
                        -0.4557667672634125,
                        -0.06150180101394653,
                        -0.5199088454246521,
                        0.027512863278388977,
                        0.0971572995185852,
                        -0.6255682706832886,
                        -0.20645610988140106,
                        0.4129864275455475,
                        -0.14419466257095337,
                        0.032121531665325165,
                        -0.1567613184452057,
                        -0.02737276814877987,
                        0.4474230110645294,
                        0.22988425195217133,
                        0.420690655708313,
                        -0.4179702699184418,
                        -0.38219618797302246,
                        -0.42103245854377747,
                        0.01810799166560173,
                        0.07924675196409225,
                        0.49741247296333313,
                        -0.2813551723957062,
                        -0.09451957046985626,
                        0.17191453278064728,
                        0.3648829460144043,
                        0.046703971922397614,
                        -0.2981681227684021,
                        0.25079068541526794,
                        0.185555100440979,
                        0.3291410803794861,
                        -0.00549004040658474,
                        0.18689481914043427,
                        -0.1070854514837265,
                        0.10154467821121216,
                        0.2156444489955902,
                        -0.1987697333097458,
                        -0.0793754830956459,
                        -0.46939319372177124,
                        -0.011725216172635555,
                        0.006491907872259617,
                        -0.16396181285381317,
                        -0.19893652200698853,
                        0.0497015155851841,
                        0.359097957611084,
                        -0.2300519198179245,
                        -0.20875608921051025,
                        -0.051569901406764984,
                        -0.2426251471042633,
                        -0.10840427875518799,
                        0.003778573591262102,
                        -0.12069937586784363,
                        -0.29115644097328186,
                        -0.012472915463149548,
                        -0.09746870398521423,
                        -0.05661703646183014,
                        -0.197041854262352,
                        -0.0014484015991911292,
                        0.20630182325839996,
                        0.22892610728740692,
                        0.0061314902268350124,
                        -0.22751395404338837,
                        -0.2600533962249756,
                        -0.12197453528642654,
                        -0.07547219842672348,
                        0.03336406126618385,
                        -0.18804073333740234,
                        -0.1435582935810089,
                        0.07818029075860977,
                        -0.019920971244573593,
                        -0.1356164962053299,
                        0.13476240634918213,
                        -0.13516110181808472,
                        0.06476493179798126,
                        -0.029604289680719376,
                        -0.042855896055698395,
                        0.0390792079269886,
                        -0.11534425616264343,
                        -0.06021026521921158,
                        -0.03640586510300636,
                        -0.2644141912460327,
                        0.03739738464355469,
                        -0.13092005252838135,
                        -0.21318450570106506,
                        0.16739638149738312,
                        -0.01001795008778572,
                        0.2875654995441437,
                        0.289232462644577,
                        -0.05834411829710007,
                        -0.10903839021921158,
                        -0.028053512796759605,
                        0.08905065804719925,
                        0.06850787252187729,
                        -0.17416086792945862,
                        -0.11402162164449692,
                        -0.19223611056804657,
                        -0.11825049668550491,
                        0.48273441195487976,
                        0.06329598277807236,
                        0.00572962174192071,
                        -0.009561898186802864,
                        -0.02822592668235302,
                        0.03288405388593674,
                        0.0023799072951078415,
                        -0.29430508613586426,
                        0.08497026562690735,
                        0.002776563400402665,
                        -0.014047153294086456,
                        0.3561805784702301,
                        0.01529347151517868,
                        -0.1798841953277588,
                        0.0418323278427124,
                        0.012223917990922928,
                        -0.3675784468650818,
                        -0.06497856974601746,
                        -0.07944042235612869,
                        -0.21177875995635986,
                        -0.044764742255210876,
                        -0.027942748740315437,
                        -0.034040167927742004,
                        0.2494240254163742,
                        0.020887933671474457,
                        0.07595489919185638,
                        0.3512703478336334,
                        0.07779560983181,
                        -0.32255321741104126,
                        -0.0672692209482193,
                        -0.13405349850654602,
                        -0.127156063914299,
                        -0.08955105394124985,
                        0.10303818434476852,
                        0.15821732580661774,
                        0.11566388607025146,
                        -0.10295566916465759,
                        -0.05455882474780083,
                        -0.07139309495687485,
                        0.1976688653230667,
                        -0.03807705640792847,
                        -0.26729023456573486,
                        0.2136329561471939,
                        -0.13934262096881866,
                        0.21047507226467133,
                        0.08800078183412552,
                        -0.0752013772726059,
                        0.26889994740486145,
                        -0.061866383999586105,
                        0.12063368409872055,
                        0.04270585998892784,
                        -0.08153454214334488,
                        -0.05624626949429512,
                        0.1450505554676056,
                        -0.3737163543701172,
                        -0.07259535044431686,
                        0.05350731313228607,
                        -0.1293027102947235,
                        0.04628177732229233,
                        0.08341783285140991,
                        0.09342877566814423,
                        0.07083333283662796,
                        -0.3944467306137085,
                        0.16364751756191254,
                        0.22445766627788544,
                        -0.10549058765172958,
                        -0.0706903263926506
                    ],
                    [
                        0.16869814693927765,
                        0.13625888526439667,
                        -0.9721089005470276,
                        -0.9847325682640076,
                        -1.0806725025177002,
                        -0.46872735023498535,
                        0.09473156929016113,
                        -0.1671966314315796,
                        -2.020984411239624,
                        -0.4774572253227234,
                        0.9212538599967957,
                        -0.9096060395240784,
                        -2.381021022796631,
                        0.37630993127822876,
                        -1.0766959190368652,
                        0.09975732862949371,
                        -0.021062934771180153,
                        0.1469312459230423,
                        -0.5599565505981445,
                        -0.09666752815246582,
                        0.12236180156469345,
                        -0.5263105034828186,
                        -0.8540648818016052,
                        -1.3317391872406006,
                        -0.3816012442111969,
                        -1.4927502870559692,
                        -0.7444325685501099,
                        -1.272408127784729,
                        -0.015072019770741463,
                        -0.7415135502815247,
                        -0.4128945767879486,
                        -0.5148437023162842,
                        -0.6526248455047607,
                        -0.16419826447963715,
                        -1.2407457828521729,
                        -1.2839531898498535,
                        -0.32035911083221436,
                        -0.5940614938735962,
                        0.17144836485385895,
                        0.21239519119262695,
                        -0.40411996841430664,
                        0.5485780239105225,
                        0.18864502012729645,
                        0.24526003003120422,
                        0.09702279418706894,
                        -0.34197500348091125,
                        -0.8205718398094177,
                        -0.8351079225540161,
                        -1.1016076803207397,
                        0.4019737243652344,
                        -0.8796891570091248,
                        -1.2056286334991455,
                        0.13530424237251282,
                        -0.6685011982917786,
                        -0.04728464409708977,
                        -0.36757585406303406,
                        0.31693366169929504,
                        0.35311391949653625,
                        0.19083228707313538,
                        -1.629841685295105,
                        0.16789717972278595,
                        -0.9414099454879761,
                        -0.2541985511779785,
                        -0.024573277682065964,
                        -0.17296075820922852,
                        -0.017537664622068405,
                        0.11899959295988083,
                        0.07741545140743256,
                        0.24019168317317963,
                        0.09940234571695328,
                        -0.0012119682505726814,
                        -0.20348882675170898,
                        -0.6258851885795593,
                        0.1045781746506691,
                        1.0764505863189697,
                        0.02074526809155941,
